tree
version=v4
num_class=1
num_tree_per_iteration=1
label_index=0
max_feature_idx=44
objective=binary sigmoid:1
feature_names=market_regime log_return momentum_accel vol_20 hl_ratio oc_ratio RSI_14 MACD_12_26_9 MACDh_12_26_9 STOCHk_14_3_3 STOCHh_14_3_3 CCI_20_0.015 ROC_10 WILLR_14 BBL_20_2.0_2.0 BBM_20_2.0_2.0 BBU_20_2.0_2.0 KCLe_20_2 ADX_14 DMP_14 DMN_14 AROOND_14 AROONU_14 AROONOSC_14 EMA_9 OBV CMF_20 MFI_14 spy_regime vix_level_z vix_sma_ratio vix_regime stock_beta_60d rs_vs_spy_20d RSI_x_regime ADX_x_regime RS_x_regime Trailing_PE Price_To_Book EV_to_EBITDA RSI_rank MACD_rank Vol_rank Sector_Return Stock_RS_vs_Sector
feature_infos=[0:1] [-0.21834521154152225:0.26929862499366114] [-136.55687882011097:138.88699074292009] [0.0022691438811016096:0.18238802975726789] [0.002676266091428822:0.33099524205118014] [-0.15761238850333845:0.24905158371899175] [15.730622142736147:89.716313589093332] [-0.50897943113822364:0.15136907479368547] [-0.083967558806776255:0.078619008734401988] [1.3068526306539598:98.63955741699975] [-26.104329341680796:23.967176789551459] [-35366.460529708616:6800.3961821629864] [-49.263784990506288:84.33912418838564] [-100:0] [-0.083933605832395564:0.74368507377622661] [-0.95598265767791246:0.38672027452926988] [-2.1141788485104454:0.096731362672763152] [-0.33485438545460888:0.58561151605079942] [6.9669518972401931:74.638367340303688] [4.8689368117335166:58.154492023165623] [3.1818189684202758:55.915011063611871] [0:100] [0:100] [-100:100] [-0.44592678095349075:0.2456906285358163] [-23.015209403427651:31.348906228548724] [-0.66837310953775553:0.68318662035800437] [2.5979497080739673:100] [0:1] [-1.9931631723128722:6.8088251172067285] [0.71339073643705686:1.9976914651620499] [0:1] [-1.6236730760080791:6.0717596135360887] [-0.56081889982070343:1.5195359240308144] [0:89.716313589093332] [0:74.638367340303688] [-0.40784240329540483:1.510235749332244] [0:1880.25] [-1083.4022:1250.4477999999999] [-2442.799:607.76300000000003] [0.002004008016032064:1] [0.002008032128514056:1] [0.002008032128514056:1] [-0.088094315626850758:0.083867155260772389] [-0.23522614974855499:0.2730149673561047]
tree_sizes=6186 10014 12081 6153 11044 10635 7140 12074 10995

Tree=0
num_leaves=57
num_cat=0
split_feature=30 29 30 30 30 29 34 36 29 30 29 24 29 30 29 29 30 29 29 29 26 36 29 29 29 29 38 30 22 29 29 34 11 10 34 37 36 26 29 24 37 29 32 30 40 22 40 32 38 14 36 29 36 29 11 29
split_gain=1639.05 803.899 1830.19 701.336 730.95 580.084 547.732 603.156 416.758 1127.99 1284.64 619.462 884.068 1559.13 438.68 555.564 501.397 342.48 650.677 332.71 323.251 279.398 276.266 277.379 218.665 176.528 171.178 173.929 167.157 166.548 174.408 166.049 161.665 158.191 252.812 144.059 137.213 133.853 123.294 95.3173 87.763 80.6988 77.8534 73.4915 68.1982 66.6898 52.3614 51.2773 50.8098 52.4288 46.4891 46.2815 44.3259 59.1705 37.2824 10.8657
threshold=0.78342798412464931 4.1530648854833485 1.3334129708863969 1.4968370216207787 1.3424093245301105 1.526711228614172 62.735994757637606 -0.062566143354124068 0.81513114086548344 1.2272653751018152 0.60642296368659332 -0.0090024647593110498 1.4184409324507334 1.1862798856605246 0.69528634222097663 0.12646143307298083 1.1315205044451428 0.94361655234732555 2.2193873483688296 1.0282138933841536 -0.045805398198214074 0.20444337383413061 2.6038466524319488 0.94361655234732555 0.88503487660048596 -0.34652913759153764 16.384503500000005 1.0230825087013011 17.857142857142865 -1.5634331309870066 -1.6691468741801552 68.383943070818034 -1991.955889068538 -6.5945761926849249 1.0000000180025095e-35 38.578023000000009 0.060853703215049466 -0.18777587968104023 -1.0584567016735791 -0.057530271048308164 33.587033000000012 -0.9241016472212632 0.67390433175246989 0.88987879478022469 0.070259102077283905 82.142857142857153 0.76237481769567339 1.5210233565672426 51.080237000000004 0.11279554205539245 -0.13171478002553308 1.3081201763382904 -0.0029416478084344773 0.41903973503714642 -2820.4215640486123 0.88503487660048596
decision_type=2 2 2 2 2 2 2 2 2 2 2 2 2 2 2 2 2 2 2 2 2 2 2 2 2 2 2 2 2 2 2 2 2 2 2 2 2 2 2 2 2 2 2 2 2 2 2 2 2 2 2 2 2 2 2 2
left_child=5 2 6 4 -4 25 7 24 9 14 -11 12 19 -14 15 -9 -16 -6 -19 -10 -20 26 23 -13 32 -1 27 29 -24 30 -8 -31 38 -3 39 48 46 50 43 -35 -23 -40 -27 -2 -39 -38 -29 54 49 -28 -34 -26 -44 -54 -37 -55
right_child=1 33 3 -5 17 -7 21 8 11 10 -12 22 13 -15 16 -17 -18 18 20 -21 -22 40 28 -25 51 42 35 36 -30 31 -32 -33 37 34 -36 47 45 44 41 -41 -42 -43 52 -45 -46 -47 -48 -49 -50 -51 -52 -53 53 55 -56 -57
leaf_value=-1.8059461518611679 -1.8088646122877692 -1.8288484361707513 -1.7464768827680937 -1.7467475215122956 -1.808953054535992 -1.7813864428383723 -1.8014425215178367 -1.7930282697950257 -1.7905916651661689 -1.7904171608839645 -1.7322194444445989 -1.8139972653627428 -1.7687224092944422 -1.8049937418716782 -1.7976092287820506 -1.7855494660898599 -1.8325143118036833 -1.7611891372838926 -1.7841785153898109 -1.8130956113563812 -1.8178032419290686 -1.7942466112421918 -1.8316986628981364 -1.7982911901951493 -1.8222602905631813 -1.8127098246516438 -1.7924861326657446 -1.7974015227643501 -1.8044094222485052 -1.7998413710290135 -1.7822166302056917 -1.8062265822893104 -1.8006998906375553 -1.8103980612130341 -1.7917518247550688 -1.7769280331706665 -1.8103204032194919 -1.8113034415386244 -1.7845277005059488 -1.8308223737388349 -1.7790860030722584 -1.7948869462831871 -1.8355616595617312 -1.798158917433591 -1.8026153531351115 -1.79783278810258 -1.7877285059754784 -1.7950989640331549 -1.8081548023558998 -1.8042419505923468 -1.7896860550062192 -1.8078532694535601 -1.8178079835285164 -1.8271869447712223 -1.7878400648008317 -1.83466786127535
leaf_weight=268.61111950874329 406.69590747356415 246.34108924865723 253.10830584168434 367.89467266201973 248.81972274184227 188.12677407264709 493.98978641629219 25758.967897623777 478.02357015013695 396.28642803430557 311.16628682613373 623.88554438948631 1415.0810766220093 884.52872461080551 808.13468757271767 5549.6112829744816 246.18997862935066 439.20047357678413 381.31221261620522 819.42896896600723 200.68060779571533 310.64048856496811 228.62903931736946 3020.9802250862122 187.352674305439 186.03818526864052 507.79214748740196 364.5947125852108 187.30621352791786 4021.0290078520775 388.7659564614296 3513.1703208386898 343.02536144852638 255.89610442519188 251.3768749833107 219.08148309588432 261.28401273488998 678.0187304019928 399.02426254749298 177.39830973744392 413.49020940065384 2755.009811937809 251.66653916239738 1094.7085821032524 1084.4477896988392 816.27986857295036 922.09705328941345 294.96980062127113 226.781808167696 270.39245170354843 373.24134376645088 223.60663941502571 292.72672337293625 193.91154545545578 456.38328468799591 171.90740913152695
leaf_count=1939 2969 1936 1407 2048 1817 1229 3504 176678 3246 2689 1606 4644 8746 6362 5646 36906 1960 2622 2521 6079 1515 2141 1815 21164 1438 1378 3475 2545 1344 28344 2549 25390 2426 1879 1715 1404 1918 4996 2642 1404 2675 19039 2025 7665 7728 5708 6188 2040 1651 1939 2525 1626 2210 1515 3064 1379
internal_value=-1.79489 -1.79437 -1.79408 -1.77332 -1.77974 -1.81665 -1.79472 -1.79365 -1.79262 -1.79157 -1.76481 -1.79713 -1.79065 -1.78267 -1.79216 -1.7917 -1.80577 -1.78638 -1.78088 -1.8048 -1.79576 -1.79854 -1.80287 -1.80098 -1.79922 -1.8215 -1.79927 -1.80034 -1.81942 -1.80178 -1.79297 -1.80282 -1.79834 -1.81414 -1.80884 -1.79347 -1.7952 -1.80277 -1.79598 -1.81877 -1.78558 -1.79357 -1.82532 -1.80105 -1.80595 -1.80085 -1.79046 -1.78757 -1.79917 -1.79656 -1.79495 -1.81443 -1.82791 -1.82497 -1.78429 -1.83072
internal_weight=66129.1 64576.1 63645.1 1891.02 1523.12 1552.99 61754.1 48273.4 40728.2 33070.4 707.453 7657.86 3597.06 2299.61 32362.9 31308.6 1054.32 1270.01 1021.19 1297.45 581.993 13480.7 4060.8 3644.87 7545.13 1364.86 12756.6 10781.2 415.935 8416.96 882.756 7534.2 7134.17 931.012 684.671 1975.4 2364.26 2478.73 4655.44 433.294 724.131 3154.03 1096.25 1501.4 1762.47 1077.56 1286.69 970.435 1004.97 778.185 716.267 410.959 910.212 658.546 675.465 365.819
internal_count=457013 445338 438404 11930 9882 11675 426474 331939 278885 225485 4295 53400 24433 15108 221190 213584 7606 8475 6658 9325 4036 94535 28967 25808 53054 10446 89719 76146 3159 59787 6053 53734 49990 6934 4998 13573 16359 17675 32315 3283 4816 21681 8507 10634 12724 7626 8733 6508 7065 5414 4951 3064 7129 5104 4468 2894
is_linear=0
shrinkage=1


Tree=1
num_leaves=91
num_cat=0
split_feature=43 43 29 29 17 29 41 18 36 27 29 29 29 29 39 29 29 29 36 20 17 29 29 15 29 0 12 29 15 4 15 18 15 29 26 29 18 36 29 29 36 39 36 41 17 9 41 18 29 29 29 25 29 0 21 41 29 29 29 20 18 29 39 29 29 41 29 15 26 12 25 18 36 36 20 27 0 26 39 1 4 43 41 15 29 29 9 4 26 43
split_gain=975.847 670.505 907.28 866.401 454.402 399.483 437.155 268.321 246.887 271.112 238.977 237.932 500.62 319.436 214.734 196.3 190.9 376.603 181.014 174.682 169.925 235.2 354.954 169.357 166.852 315.506 177.029 164.735 159.581 145.249 173.966 140.798 140.563 138.914 134.697 164.224 129.527 127.555 113.047 153.271 108.262 104.969 102.938 99.4735 96.9366 96.9332 95.1613 93.3456 91.5769 90.9724 116.555 89.7028 86.7448 94.9258 80.3503 93.783 75.9256 75.3962 96.2646 95.6862 70.2798 67.5643 67.3888 93.0343 65.9808 60.74 58.2536 57.9136 56.078 53.9118 50.8335 48.1655 47.3734 44.249 51.1924 60.8381 43.0294 39.0185 38.9213 37.3318 36.8628 39.2458 36.7147 34.1144 33.0508 32.2221 31.7926 30.7503 23.5878 17.4346
threshold=0.034464841841118303 -0.0050042641474295812 4.1530648854833485 3.1590340002136421 0.049638369527768025 -1.101123174730825 0.21413931413931417 14.311079093861789 -0.062566143354124068 30.377548522266064 -1.6414817969448954 2.0237174214402947 1.8744960724559772 1.719770142979425 26.294 2.8026700531865645 1.4827208702754164 2.2193873483688296 0.20444337383413061 19.737820678405633 0.032149323790912405 0.56044452546951462 0.81513114086548344 -0.022926783306241778 0.54530024706877045 1.0000000180025095e-35 1.6250314712422258 -1.101123174730825 -0.0029440107973022146 0.035327930023185121 0.053717178550503758 29.252440109540128 -0.021105554548099658 0.24647954894374322 -0.10740336612134539 -0.36038322239483717 17.032001144719697 -0.024270883324529143 0.88503487660048596 0.54530024706877045 -0.037714950006943741 22.105000000000004 -0.054220141424747119 0.018299659541217841 0.076395033166250279 20.024661755468085 0.085129610703335509 33.309709940442708 1.3081201763382904 0.66340258759552251 0.083334071495179782 0.022138482941207353 0.72651458953911707 1.0000000180025095e-35 46.428571428571438 0.64393131743878029 0.88503487660048596 0.94361655234732555 1.0867133439249159 16.743202570890542 17.91399893999586 -1.7141292935234964 12.861000000000002 -0.03524811289167698 -0.54289714702740721 0.21413931413931417 -0.026056204912883497 0.0027315083161972096 0.035313420520338541 -6.7100071655344218 -0.0044486745391524854 27.591466556665782 0.01965283199882523 0.022786891163801951 23.242391835574114 55.878427031146174 1.0000000180025095e-35 -0.17633592704494852 14.041000000000002 0.0046738274354198358 0.033235509554380621 0.0030197847214438844 0.14827314538795675 0.017267999689731185 -1.3787332061005129 0.88503487660048596 82.029902413504814 0.011016298506715988 -0.066455219017469383 0.0008966437396411075
decision_type=2 2 2 2 2 2 2 2 2 2 2 2 2 2 2 2 2 2 2 2 2 2 2 2 2 2 2 2 2 2 2 2 2 2 2 2 2 2 2 2 2 2 2 2 2 2 2 2 2 2 2 2 2 2 2 2 2 2 2 2 2 2 2 2 2 2 2 2 2 2 2 2 2 2 2 2 2 2 2 2 2 2 2 2 2 2 2 2 2 2
left_child=1 2 3 8 5 10 34 19 38 16 61 12 13 -11 24 68 49 -18 44 80 21 32 -23 77 25 33 54 83 31 30 -27 -13 70 46 43 69 -37 -38 39 65 -34 47 -29 -7 84 -4 -9 67 -24 50 -10 71 53 -44 -26 -56 60 59 -59 -28 -43 -3 63 -45 -64 66 -1 -22 -2 -36 -8 -46 -53 74 75 -25 -71 -12 -31 89 81 -6 -76 -21 -16 -86 -83 -49 -67 -79
right_child=15 4 45 -5 7 6 20 14 9 11 23 28 -14 -15 18 -17 17 -19 -20 27 41 22 48 73 26 29 57 42 -30 78 -32 -33 40 -35 35 36 37 -39 -40 -41 -42 56 52 62 51 -47 -48 87 -50 -51 -52 72 -54 -55 55 -57 -58 58 -60 -61 -62 -63 64 -65 -66 88 -68 -69 -70 76 -72 -73 -74 -75 82 -77 -78 79 -80 -81 -82 86 -84 -85 85 -87 -88 -89 -90 -91
leaf_value=0.022607474078465497 0.01633957206875794 0.026534473691242958 0.011685604375828792 0.064719035139744363 0.025117038518422032 0.015156984483305214 0.02312602258595077 0.013360706208663664 0.029002965420347308 0.030100259313750259 0.018519856077527215 0.019342614511092818 0.063120302581016294 0.0033988690313593987 0.02055952674099475 -0.014277891890938348 0.066651942392913582 0.030497916324370069 0.041419671585412168 0.013577646273280909 0.025245030287676707 0.061400344916151491 0.024347002803235221 0.020613282215422701 0.030241956122551299 0.020687900929290931 0.017771307692377423 0.020275459380705668 0.0064338885658605386 0.030855507071824086 0.014360348360927776 0.040217565156448996 0.044848833339459111 0.04119771100810498 0.015856224120501014 0.029537938750259549 0.0081711714807234399 0.022543708788106853 0.0096751585820086458 0.042162015217624173 0.031857768506845317 0.040522106728174523 0.046304204626311379 0.029644805843316416 0.027665265226081062 -0.0056841195683885867 0.028210521634886375 0.02547848895756382 0.038875412113115425 0.021555995047834838 0.048526794511158801 0.012431159176507599 0.024464713930475307 0.034294328214264355 0.012537533472772193 0.028432675975001924 0.02089517296607667 0.028282819943110101 0.01135838455534466 0.00079211725265801122 0.030888516358651422 0.040573340629647105 0.024054379891145335 0.013322001633797785 0.033513031616109003 0.034107181072595263 0.012005765687956653 0.03034871070692105 0.00048364474536345876 0.031541576996724351 0.032510326701024321 0.02046828258169317 0.020666013106740707 0.012133786779107704 0.024834301544148164 0.029659222747445247 0.023213016846418872 0.0066628125445194544 0.023428677805142309 -0.0002422518541577834 0.029555131566611402 0.020456352782995596 0.015703722849367666 0.02540380648238234 0.029424406974976912 0.020773909494724612 0.010619125230922993 0.015088059641953816 0.024195009001864082 0.015076365092908784
leaf_weight=965.8054229542613 226.71664727479219 367.95834272354841 292.27456830441952 323.25398253649473 385.70429346710443 299.82726900279522 1066.7608946487308 226.28600363433361 326.33952643722296 12356.132011935115 196.99145808815956 565.41894943267107 208.88249003142118 209.62944232672453 278.13231751322746 270.94045869261026 279.25897404551506 253.09060949087143 299.61924771219492 213.89450275152922 2049.0950771644711 308.5285409912467 266.70640803873539 767.17312106490135 374.0876005962491 9138.6083149164915 217.90093578398228 215.21491847187281 301.64023105055094 600.76319061219692 2560.9280950501561 202.32628185302019 372.0042355209589 349.13530393689871 226.84049981087446 248.92744836211205 909.33548883348703 413.25111147016287 273.24097404628992 201.35422710329294 1478.1263796240091 577.84133915603161 453.27194625139236 367.38737915456295 1187.4898498207331 297.02100445330143 1692.8658878877759 202.51984336972237 822.72150634229183 233.28932604938745 250.41033510118723 485.35820603370667 251.97486851364374 939.4977917522192 494.03003170341253 262.07467778027058 213.45026620477438 200.91414769738913 675.8106676414609 508.51584458351135 905.26979960501194 281.77924931049347 490.71913205087185 287.63971196115017 1140.627175450325 226.09848844259977 319.57486601173878 2090.2774097397923 188.02137498557568 575.52034309506416 359.2027049139142 681.85477244108915 974.19903765618801 230.84573193639517 286.42558760941029 627.51730714738369 584.34868603944778 227.0892933383584 733.67793872952461 194.09147822856903 214.69560679793358 367.84720952808857 719.73056700825691 242.93319721519947 1902.679733030498 226.86653071641922 261.62581489980221 386.58835034817457 230.546102643013 232.56712745130062
leaf_count=6639 1598 2490 2126 1808 2616 2128 7280 1614 2175 81977 1377 3906 1174 1535 1921 2168 1545 1663 1874 1520 13874 1750 1832 5299 2491 63246 1529 1492 2210 3984 18240 1276 2315 2215 1605 1657 6621 2828 1968 1273 9731 3664 2799 2446 7981 2319 11343 1375 5239 1607 1519 3475 1723 6123 3543 1755 1475 1354 4872 3817 5986 1792 3343 2048 7474 1479 2293 13869 1407 3801 2357 4721 6748 1651 1952 4178 3993 1663 5020 1460 1431 2543 5072 1645 12679 1572 1883 2732 1573 1649
internal_value=0.0253294 0.0255908 0.0290839 0.0299533 0.0242686 0.0266638 0.0281451 0.0224666 0.0293069 0.0302831 0.0206957 0.0293897 0.0302033 0.0296553 0.0216548 -8.95224e-05 0.0394899 0.0494804 0.0251571 0.0279741 0.0306009 0.0337164 0.0410872 0.0184658 0.0204823 0.0213543 0.015598 0.0314441 0.0196647 0.0200693 0.0193034 0.0248544 0.0305686 0.0287348 0.0232276 0.0200965 0.0153444 0.0126672 0.022616 0.0244321 0.0344745 0.0283333 0.03428 0.0268063 0.0243062 0.00292138 0.0264631 0.0266854 0.0353257 0.0329135 0.0374944 0.021928 0.0361081 0.0382091 0.0220966 0.0180566 0.0329215 0.0110123 0.0152453 0.00589442 0.0346475 0.0326353 0.0283309 0.0224879 0.0306725 0.0223779 0.0199769 0.0278241 0.00916642 0.0254767 0.0254954 0.025044 0.0179323 0.021154 0.0220186 0.0246887 0.0273522 0.0101422 0.0267779 0.00760729 0.0214313 0.0197057 0.0183102 0.019882 0.0275912 0.0285062 0.0163785 0.0186723 0.0291198 0.0109338
internal_weight=67395.4 66709.7 18315.6 17726.3 48394.1 20775.7 16643.5 27618.5 17403 15186.4 4132.17 13844 12774.6 12565.8 24071.8 685.678 1342.39 532.35 6036.2 3546.66 11099.1 4674.05 1397.96 3482.43 18035.6 15302.3 2733.33 2316.79 1069.39 13034 11699.5 767.745 3276.09 2268.29 5544.42 2958.22 1571.51 1322.59 2216.62 1943.38 1850.13 6425.04 1859.96 2586.2 5736.58 589.296 1919.15 4728.48 1089.43 810.039 576.75 3328.9 1644.74 1392.77 1130.19 756.105 1696.56 1603.14 876.725 726.417 1483.11 649.738 2286.37 655.027 1631.35 1742.02 1285.38 4139.37 414.738 1386.71 1425.96 1869.34 1459.56 2631.69 2400.85 1394.69 1159.87 850.739 1334.44 653.748 1229.87 1015.18 1006.16 456.828 2407.68 2129.55 629.473 589.108 456.645 459.656
internal_count=457013 451840 122065 117620 329775 140006 111423 189769 115812 100587 28583 92078 84686 83512 165994 5173 8509 3208 40971 23775 73479 30504 8821 24301 125023 105662 19361 15302 7392 90490 81486 5182 21683 15172 37944 20505 11106 9449 15225 13257 12046 42975 12137 17439 39097 4445 12957 31850 7071 5301 3694 22925 10645 8922 7789 5298 11125 11572 6226 5346 9650 4282 15311 4494 10817 11984 8932 27743 3005 9399 9637 12702 10223 18152 16501 9477 7794 6149 9004 4772 8473 7042 7024 3165 16172 14251 4426 4107 3052 3312
is_linear=0
shrinkage=0.0214235


Tree=2
num_leaves=110
num_cat=0
split_feature=43 24 34 31 43 16 43 8 18 43 23 8 39 31 18 17 16 12 2 38 34 17 32 31 23 43 26 38 39 12 8 17 16 17 23 32 26 17 26 32 18 20 26 8 25 12 18 2 12 8 26 12 43 8 43 32 8 38 38 43 17 8 18 17 34 43 12 20 39 38 26 38 27 26 18 38 8 32 43 26 23 32 39 38 34 26 34 27 2 27 17 34 39 16 34 20 38 25 25 23 26 25 38 32 23 38 27 18 26
split_gain=900.962 770.198 616.858 2492.12 420.528 428.498 358.465 335.849 315.294 268.092 315.73 250.713 236.242 212.719 206.432 187.323 291.435 162.089 155.274 154.496 166.659 154.013 143.592 134.997 149.592 133.194 128.89 122.771 117.855 116.617 116.252 114.806 105.619 102.571 118.238 101.59 100.711 99.3173 94.0907 90.375 90.0954 89.6105 84.8501 83.2885 120.491 83.1189 81.4114 78.4321 148.193 105.751 73.9973 73.5304 73.4435 80.2924 85.1345 79.3776 72.6807 72.0768 71.6216 69.8471 69.2413 68.671 62.0729 61.5493 58.8717 56.2723 53.9169 52.5246 51.5024 50.8896 50.4611 50.4443 49.383 47.8697 47.8007 54.3937 46.6623 45.6073 45.2767 45.0409 44.5715 41.8998 40.7293 40.723 40.6637 55.51 39.9164 39.8591 38.7882 38.6306 39.7777 37.7143 40.7102 35.4988 35.2203 33.44 33.2188 39.6322 32.3281 30.5029 28.7883 28.4885 26.1059 26.0888 24.7555 24.4659 24.1129 22.1334 19.9877
threshold=0.034464841841118303 0.0096308433666955993 1.0000000180025095e-35 1.0000000180025095e-35 -0.01295929799920971 -0.1257033298446851 -0.027244240975176044 -0.0004215496926382533 36.766942585978093 0.0070493210052508318 -74.999999999999986 0.0011980954844061072 26.294 1.0000000180025095e-35 16.138529680432747 0.042156136896269548 -0.035827404127916046 -4.094961774801912 -1.3054723162517052 16.384503500000005 52.877816178981114 0.077489934350011808 0.89948048765369104 1.0000000180025095e-35 -60.714285714285708 0.0013401441735046186 0.097245331216713735 7.9488996500000004 26.401500000000002 20.402069856781086 -0.0071289758158853463 0.069689008055032878 -0.10501618379826784 0.052253517332113988 -32.142857142857139 0.85866078809168889 -0.10521795389222718 0.029783505329436692 0.073218247478612386 1.5809530166197689 11.202210631047619 22.932587038952871 0.016164148683179006 0.0044732861449830559 0.0091948003020716502 -2.5665679254327967 23.707245621578654 1.6921238334671511 -4.8197873811884984 -0.0021309943093385238 -0.10521795389222718 -7.9014051484277541 -0.017499447029031483 -0.00083823847801753478 -0.014350079441550602 1.0379924567387835 -0.0025807542593364002 9.537504000000002 2.4958041000000004 -0.00079137717896428838 0.080865021672095569 0.011715193955496563 32.498408725603113 0.073916154877030446 61.360696711158553 0.00025937499750856261 -7.4658359631053717 19.580965478820556 14.129500000000002 18.221076000000004 -0.081353261784853109 3.0738939000000003 29.113860398692083 -0.15928459270214851 19.526779487309458 9.537504000000002 0.0031839374983666591 1.3595268571930339 0.0025088093260610322 -0.049129501977641384 82.142857142857167 1.3334850025307459 14.998000000000003 6.8387423000000007 45.260109428400163 0.090637204884825323 55.567446815813518 59.606948018942767 -0.32847322056409772 64.022108096895721 0.061237947801333188 51.194680235406075 19.449500000000004 -0.017184634110239388 59.361789942973211 32.822886391492197 30.795927500000005 0.024826084682502029 0.03255017990751808 67.857142857142875 0.13490260431870868 -0.017333256196963073 3.1714937500000002 1.0213772375349774 -67.857142857142847 3.3542086000000002 66.454919056494376 25.860929581823985 0.044303768058391375
decision_type=2 2 2 2 2 2 2 2 2 2 2 2 2 2 2 2 2 2 2 2 2 2 2 2 2 2 2 2 2 2 2 2 2 2 2 2 2 2 2 2 2 2 2 2 2 2 2 2 2 2 2 2 2 2 2 2 2 2 2 2 2 2 2 2 2 2 2 2 2 2 2 2 2 2 2 2 2 2 2 2 2 2 2 2 2 2 2 2 2 2 2 2 2 2 2 2 2 2 2 2 2 2 2 2 2 2 2 2 2
left_child=1 2 3 7 13 23 8 -1 32 10 18 17 14 52 25 16 36 30 -8 31 108 59 37 51 70 38 47 -24 40 39 -11 65 66 34 -12 -35 58 -18 87 42 -17 64 62 74 106 -38 -2 48 104 -50 -42 73 77 54 -54 -55 -19 94 -7 79 -22 -44 -23 -59 91 -14 -5 -40 -41 -62 103 -53 -20 -6 -33 83 84 102 107 -16 99 -73 -66 -76 -61 -86 -43 -3 -70 105 -91 -27 -93 -80 -30 -75 100 -98 -67 -81 -71 -48 -4 -25 -15 -78 -45 -46 -21
right_child=46 12 4 6 5 15 9 -9 -10 11 33 -13 19 26 21 28 22 56 72 20 60 29 27 24 -26 41 -28 -29 57 -31 -32 43 -34 35 -36 -37 45 -39 67 68 50 86 61 44 78 -47 101 -49 49 -51 -52 71 53 55 -56 -57 -58 63 -60 76 69 -63 -64 -65 82 98 -68 -69 88 96 -72 81 -74 95 75 -77 89 -79 93 80 -82 -83 -84 -85 85 -87 -88 -89 -90 90 -92 92 -94 -95 -96 -97 97 -99 -100 -101 -102 -103 -104 -105 -106 -107 -108 -109 -110
leaf_value=0.086354847368139753 0.008502381770574597 0.040447356497548888 0.028422122673675162 0.010853457384954737 0.015669334441677712 0.022400975075356194 0.028321698945707262 0.054423910861128806 0.039734842978771778 0.01689480622670643 0.030601690471541529 0.038108914054370488 0.037769480270553983 0.03140250037810495 0.032234738381103405 0.031266506514224218 0.033025870025485952 0.00072831713856189788 0.049816818467688408 0.014250116212649733 0.040159579458250078 0.021677527502190763 0.031778012712368145 0.038205095556370215 0.013193321283639838 0.016179277835362993 0.024575429687154062 0.043693191911873493 0.024761390719582225 0.030924867571312523 0.035663245851102157 0.021709459003856912 -0.00030949377474848486 0.024323065684013621 0.021434946227067053 0.03732995965044858 0.02056588243712525 0.025328979482258443 0.017468872356124935 0.027976925731017954 0.026747250295196191 0.0250108648374405 0.015530827067691294 0.027814921728220046 0.028095728257850762 0.025495677772636154 -0.0003142354165161787 0.04722568949920182 0.048241565233154524 0.034584224709357 0.020651651063287469 0.010078977254257054 0.010741206822561564 0.019677634620024011 0.027765419846873883 0.0379558495510222 0.016705759031294343 0.031951323939738908 0.029448243079359976 0.010411120422611258 0.03986265877646427 0.0083386109081510854 0.01091045943445865 0.022053902343579967 0.019803665559759771 0.021955157858311869 0.024708540033459986 0.031335449636750633 0.013832339499193845 0.028663776473407024 0.021290720003461498 0.015983886382702841 0.040332446848871294 0.012239180293619574 0.010794037665094677 0.0055506933808118835 0.02385988166434232 0.022427341642880773 0.022863272541945943 0.022943179110108517 0.028409569912954544 0.025968918421100374 0.0086971192300384671 0.024406557074302029 0.02239530893478886 0.016526241947847617 0.037327193516056338 0.029978333460992223 0.025383067710661008 0.03142788239358054 0.022777681427773633 0.026763722100863648 0.01649320637367932 0.012232558716057039 0.015542520391526413 0.002344867535650851 0.036273390876482063 0.025357822580599713 0.031807525090112379 0.013680420376538884 0.018161049777719551 -0.011874212404242969 0.037987591473115694 0.027999123730839886 0.022255922776061945 0.016937068679877421 0.038073975015402363 0.018963387045162157 0.02328138960106034
leaf_weight=356.7947166711092 290.85359302908182 397.24795255810022 230.72927517443895 357.18687378615141 384.35643192380667 927.31868609040976 332.70524537563324 265.79591674357653 214.30388802289963 376.59451130777597 1533.4345321878791 341.27013535052538 255.76308958232403 286.31485459953547 353.00124077498913 448.71676199138165 1213.8993779271841 274.23483845591545 532.58432578295469 258.62127140909433 437.26439826190472 1522.6141039505601 1260.3232063353062 221.95318772643805 481.4267171099782 331.67651890963316 405.99986387789249 586.72417052090168 812.79964054375887 280.5054786875844 255.85552573949099 411.92292188853025 273.48847431689501 379.36295046657324 1128.3041561767459 1045.0720390602946 3379.480945892632 2149.4103441089392 278.98836506903172 473.85126476734877 1048.0208756551147 293.25658768415451 4355.448576644063 212.32857296615839 323.45045238733292 2974.3092360347509 186.35072708874941 345.05770753324032 469.4937092512846 599.44892359524965 7629.6288089156151 300.06793769448996 377.30890220403671 216.33293691277504 211.47556985914707 224.55122672766447 250.93841149657965 1301.3030817061663 2404.8472941219807 249.15867049247026 217.88944636285305 713.07370983064175 296.12326657772064 377.20901861041784 321.5986210629344 398.41725267469883 204.18251785635948 232.99605945497751 346.36266735196114 294.1216092929244 287.0961274728179 438.60877344757318 505.18768857419491 255.50519086420536 204.8166781142354 300.84452590346336 405.97413758933544 218.35084022581577 226.59291583299637 645.43050398677588 551.6201870366931 352.69358039647341 291.76658198237419 203.33924696594477 1500.3833722993731 1487.0840601995587 213.16642318665981 301.6524838283658 221.63264919817448 370.41396213322878 754.92644295841455 825.7621386796236 230.42261209338903 409.84148359298706 254.17354740202427 410.52843717485666 374.78592397272587 268.02164912968874 257.33452382683754 223.87867991626263 210.36765205860138 208.42255368083715 331.63482870161533 257.65300511568785 274.23602349311113 584.49393107742071 225.88102609664202 205.46713479608297 208.04610815644264
leaf_count=1737 2109 2458 1503 2524 2668 6209 2156 1542 1333 2579 9885 2145 1604 1833 2274 2889 7744 2005 3097 1803 2699 10321 8095 1383 3362 2289 2673 3571 5381 1825 1619 2773 2016 2528 7564 6560 22809 14204 1911 3122 6903 1942 30328 1394 2126 19664 1417 2047 2774 3794 51592 2134 2645 1462 1385 1403 1724 8352 15605 1768 1343 5111 2101 2531 2194 2677 1359 1501 2422 1917 1944 3047 3107 1800 1447 2171 2723 1457 1527 4330 3621 2348 2082 1359 10115 10291 1336 1959 1480 2405 5099 5436 1583 2887 1753 3027 2361 1773 1660 1561 1430 1647 2070 1683 1832 4031 1417 1402 1395
internal_value=0.0243385 0.0245851 0.0263242 0.0314486 0.0250369 0.0241523 0.0282357 0.0727396 0.0165486 0.0299976 0.0322045 0.0219584 0.0215904 0.0314009 0.0204283 0.0250615 0.0266642 0.0171902 0.0411146 0.0253389 0.0297344 0.0193284 0.0307547 0.0169703 0.0225782 0.0249627 0.0356173 0.0355675 0.0230499 0.0173242 0.0244996 0.0225937 0.0105872 0.029214 0.0267187 0.0338713 0.024463 0.0281093 0.030811 0.0168421 0.0218752 0.0221356 0.0159493 0.0203836 0.0235235 0.0228748 -8.85444e-05 0.0378838 0.0359002 0.0405908 0.0213887 0.013699 0.0258523 0.0220719 0.0168681 0.0290046 0.00837479 0.0269518 0.0274893 0.0216363 0.0326931 0.0145202 0.0199281 0.0297315 0.0200883 0.0291913 0.0159055 0.0237939 0.0227367 0.0302955 0.0284619 0.0175999 0.0452083 0.00963959 0.0158856 0.0124921 0.0204089 0.0308286 0.0199077 0.0253355 0.023616 0.0204435 0.0145314 0.0175927 0.0187804 0.0194762 0.0302108 0.0359404 0.0183521 0.0228967 0.0256318 0.0225391 0.0245297 0.0160285 0.0225718 0.00615005 0.0284713 0.0317342 0.0258332 0.0205656 0.0242987 -0.00643295 0.0340772 0.032739 0.0269413 0.0197819 0.0331213 0.0245619 0.0182915
internal_weight=68621.5 67935.9 42976.3 8627.3 34349 30158.1 8004.71 622.591 1049.16 6955.54 5456.65 1498.89 24959.6 4190.93 19054.5 26768.2 14896.3 1157.62 1370.48 5905.12 2269.12 15336 5210.36 3389.89 1248.13 3718.53 2380.55 1847.05 11871.9 8209.61 632.45 3636 834.858 4086.17 2661.74 1424.43 9685.96 3363.31 1210.88 7929.11 9126.37 2507.65 6887.26 2724.48 1603.56 6353.79 685.627 1974.55 1629.49 1068.94 8677.65 2141.76 1810.38 1029.67 588.784 440.884 525.173 2745.49 3332.17 7126.37 1802.45 5068.52 1818.74 1678.51 2001.23 911.515 561.369 511.984 1041.85 1365.19 766.702 1091.37 1037.77 1050.39 1120.92 709 5352.43 780.715 1165.35 1773.93 1420.93 791.302 613.365 408.156 3236.63 2987.47 506.423 698.9 567.995 2115.81 1125.34 1387.86 1056.18 636.434 1066.97 666.034 1147.3 642.808 655.752 869.309 504.489 394.773 562.364 479.606 560.551 990.468 438.21 528.918 466.667
internal_count=457013 451840 283056 55480 227576 200698 52201 3279 7232 44969 34897 10072 168784 26878 129619 177302 97901 7927 8360 39165 14721 104928 33614 23396 8372 24691 14953 11666 79401 56710 4198 24444 5899 26537 17449 9088 64287 21948 7829 54885 61384 16862 47861 18503 10753 42473 5173 12280 10233 6568 58495 15024 11925 6895 4030 2865 3729 18017 21814 48218 11523 35439 12422 10883 13584 5941 3883 3412 7024 8824 5010 7529 6204 7495 7750 4977 36432 5030 7942 11786 9512 5395 4276 2806 22174 20406 3278 4417 3902 14258 7504 9308 7019 4414 7134 4827 7481 4134 4337 5891 3347 3064 3573 3066 3665 6754 2811 3528 3198
is_linear=0
shrinkage=0.0214235


Tree=3
num_leaves=55
num_cat=0
split_feature=30 29 30 35 29 30 30 29 29 29 30 30 30 29 29 19 29 29 29 30 30 1 29 29 29 29 30 29 30 1 30 3 26 36 36 29 30 30 1 29 26 29 30 14 26 7 29 29 3 4 8 29 7 35
split_gain=1431.5 676.206 962.398 781.567 677.216 528.53 599.916 525.515 484.766 738.523 463.106 852.629 871.812 587.538 697.121 479.402 663.628 975.26 697.96 345.347 435.846 345.205 321.451 639.422 323.551 723.785 374.205 306.71 314.302 305.956 281.584 268.541 365.743 289.616 273.637 236.763 216.601 215.931 165.715 162.401 132.979 131.987 185.321 100.969 98.5174 84.4156 67.7119 67.3059 69.6286 62.5405 62.5231 38.5945 27.1828 23.1328
threshold=0.78342798412464931 5.5801661791531059 1.3334129708863969 16.087591117762504 4.1530648854833485 1.4968370216207787 1.3424093245301105 1.526711228614172 0.88503487660048596 0.76362606027092506 0.87969320042088717 0.96156032109773459 0.95941497106682727 -1.101123174730825 0.72651458953911707 13.643823633543109 0.81513114086548344 0.57744424148597795 1.4184409324507334 1.1862798856605246 1.1382254508629746 -0.0097886046596180644 0.35446239235014609 0.90370621468490997 -0.31670013525491808 0.0066162121320572911 0.86514733796764653 0.97637571015479319 1.2356822383933237 0.00058009626237400587 1.1961488814841028 0.012503818840257931 -0.062907868498052008 0.20444337383413061 -0.087495124237766828 2.4578458253674049 0.87427954089343041 0.83911903392577269 -0.0055234307930070422 -0.34652913759153764 -0.061131385440159801 0.46413756582896598 1.1346564636346768 0.0096168767713708889 -0.087201347710887986 0.0094489249407575891 0.51129978565313527 0.41903973503714642 0.020980542932157585 0.020155860055175421 -0.0050068696472822848 0.72651458953911707 0.0054670993054992496 23.112368260238352
decision_type=2 2 2 2 2 2 2 2 2 2 2 2 2 2 2 2 2 2 2 2 2 2 2 2 2 2 2 2 2 2 2 2 2 2 2 2 2 2 2 2 2 2 2 2 2 2 2 2 2 2 2 2 2 2
left_child=7 2 3 10 5 6 -4 39 9 31 22 12 13 44 -15 19 17 -17 -18 20 -13 35 24 46 37 -26 -27 -10 36 -6 -11 41 34 -34 -33 53 -29 49 -30 -1 -23 42 -5 -3 -12 -39 -24 48 -41 -2 -38 -48 -49 -8
right_child=1 43 4 8 29 -7 21 -9 27 30 11 15 -14 14 -16 16 18 -19 -20 -21 -22 40 23 -25 25 26 -28 28 38 -31 -32 32 33 -35 -36 -37 50 45 -40 47 -42 -43 -44 -45 -46 -47 51 52 -50 -51 -52 -53 -54 -55
leaf_value=0.013411140321459207 0.034735566332828663 0.0089934650609897384 0.065470129131315197 0.024692615154143348 -0.0078411889404203725 0.064048666689210942 0.053622292247479983 0.035993729701518748 -0.010308670201878279 0.032999750127106327 0.031664772963281497 0.035087464180142053 0.065931450798250621 0.039199631156687169 0.019849092023861797 0.024629254662488085 0.0042776506748155056 0.052244066332771351 0.02321947830494785 0.019925617055518541 0.069061616883725419 0.029411539486138637 0.0069545159624382338 0.033977253763086218 0.057985299387213744 -0.003196311309121199 0.033894069719935992 0.029153303018329055 0.019084384301881425 0.03035750476242299 0.062777982895903597 0.018381197587339328 0.018558896178888375 0.031888251260800887 0.027821957785703105 0.023958536840296713 0.015398880062209949 0.014733277724989814 0.044838796021822003 0.0089444701446171442 0.0089590993738449896 0.036525803423517599 0.013964927719985257 -0.0096736901133781319 0.016859544691056733 -0.0005110527994289587 -0.014041809980862307 -0.014064297828693093 -0.0061747028305737849 0.0199034369135642 0.0058546988893670542 -0.0012907530143708285 -0.004447864410413907 0.044089315827084141
leaf_weight=280.49989749491215 302.06891214102507 270.47591125965118 277.75112625956535 12836.003789700568 192.48355874419212 408.68277576565742 259.77970442920923 199.20963674038649 237.85209345072508 332.49088448286057 254.7630337625742 586.73618239164352 370.31891849637032 4299.5874781906605 1068.3958002254367 7199.6966208219528 1450.4441000521183 639.56418196111917 2325.9386793375015 356.26299310475588 247.02824438363314 274.59170012921095 193.45985919237137 308.84931390732527 345.0616946965456 220.77152793109417 286.43690384924412 268.69554503262043 249.15277586877346 192.00013707578182 261.80361896753311 2018.4875312894583 17337.147835880518 783.32576913386583 4707.8434882760048 265.30791350454092 429.47144903987646 715.18094488233328 214.5155209004879 247.07085583359003 313.76732974499464 404.31740780174732 787.26985421031713 261.46949084848166 1115.1725804507732 216.44625339657068 239.85492247343063 326.87097460031509 321.71763894706964 234.98309879750013 1197.3593800738454 201.56021766364574 233.49917074292898 240.22505632787943
leaf_count=1939 1874 1930 1407 83637 1470 2048 1442 1229 1800 2111 1609 3571 1956 26055 7116 46546 10350 3582 15196 2350 1247 1716 1339 1942 1920 1606 1775 1732 1673 1247 1389 13626 116407 4889 30171 1722 2928 4848 1287 1747 2196 2461 5326 2034 7512 1569 1819 2567 2422 1560 8469 1479 1771 1399
internal_value=0.0234068 0.023878 0.0240671 0.0235743 0.0373249 0.0422411 0.0367722 0.00342853 0.0218329 0.022423 0.0267343 0.0279612 0.0339135 0.0321523 0.0353496 0.0246565 0.0233281 0.0268834 0.015946 0.0376154 0.0451651 0.0308766 0.0192488 0.00869587 0.0235369 0.0340445 0.0177402 0.0128615 0.0152002 0.0112212 0.0461333 0.0220603 0.0207207 0.0191355 0.02499 0.0403688 0.0113272 0.0174341 0.0310169 -0.00117094 0.0185165 0.0244327 0.0240732 -0.000171334 0.0196185 0.0111856 -0.00359609 -0.00479904 0.000382948 0.0282599 0.00837837 -0.00823352 -0.0100685 0.0490604
internal_weight=69809.7 68200.9 67668.9 65244.3 2424.59 2040.11 1631.42 1608.87 42065.7 39468.7 23178.6 19913.9 7108.24 6737.92 5367.98 12805.7 11615.6 7839.26 3776.38 1190.03 833.764 1353.67 3264.67 943.724 2320.95 852.27 507.208 2597.05 2359.19 384.484 594.295 38874.4 24846.8 18120.5 6726.33 765.313 1895.53 1468.68 463.668 1409.66 588.359 14027.6 13623.3 531.945 1369.94 931.627 634.875 1129.16 568.788 537.052 1626.83 441.415 560.37 500.005
internal_count=457013 445338 441374 426727 14647 11930 9882 11675 277906 260017 148821 127090 44248 42292 33171 82842 75674 50128 25546 7168 4818 8475 21731 6579 15152 5301 3381 17889 16089 2717 3500 256517 165093 121296 43797 4563 13129 9851 2960 10446 3912 91424 88963 3964 9121 6417 4637 8507 4169 3434 11397 3298 4338 2841
is_linear=0
shrinkage=0.0214235


Tree=4
num_leaves=100
num_cat=0
split_feature=43 14 29 41 29 29 29 29 29 15 0 36 31 17 43 29 40 29 43 33 29 29 43 43 29 23 29 29 36 17 1 12 12 14 23 36 43 29 2 12 43 23 14 43 12 31 43 43 15 15 40 43 14 33 29 29 23 42 29 43 43 29 29 43 36 37 36 19 12 29 29 29 37 43 29 29 23 12 25 42 14 29 41 41 12 37 41 2 25 29 42 23 19 19 37 41 37 2 43
split_gain=812.962 602.162 472.181 448.206 387.739 413.831 664.664 366.385 417.568 457.713 402.166 475.261 327.094 315.46 293.711 247.799 208.909 199.297 202.921 198.528 193.867 184.725 175.904 173.218 159.857 156.557 149.801 146.788 144.197 142.953 147.872 123.534 116.956 102.817 95.528 92.5656 165.741 137.481 103.033 89.8686 89.4772 103.496 88.0142 85.5421 83.7188 159.77 81.1912 80.791 79.4296 76.7386 128.938 74.5542 74.339 87.9544 74.2471 116.436 72.5286 109.554 70.7915 70.0849 68.4937 72.5138 89.1147 110.428 76.752 69.2606 62.303 54.2959 52.7939 51.5605 133.491 107.398 51.0696 49.2107 48.5179 48.3234 46.8978 42.8003 40.6628 40.5528 39.1421 38.6512 38.5977 36.5887 33.229 32.7121 31.4795 40.8508 34.6204 29.2785 29.0049 43.2341 23.7719 22.3511 21.6775 14.8796 13.2645 10.2842 9.95846
threshold=0.034464841841118303 0.052758106516867284 -1.101123174730825 0.21413931413931417 5.5801661791531059 0.57744424148597795 0.66340258759552251 0.51129978565313527 1.3081201763382904 -0.040042620656799539 1.0000000180025095e-35 -0.062566143354124068 1.0000000180025095e-35 0.019004514418784871 -0.0050042641474295812 1.0282138933841536 0.57872775529739384 2.0237174214402947 -0.015206164228556427 0.022038457485530797 0.41903973503714642 2.8026700531865645 -0.0084935895204989505 0.0018769389983879562 -1.6414817969448954 7.1428571428571521 0.3695248060622654 -1.4092239011274106 0.26183448059589659 0.067174140685365188 0.031453962833580762 2.4705143249397996 0.53629853937135852 0.028702651305366721 -74.999999999999986 -0.022947946674604421 -0.020900613806516925 0.88503487660048596 -1.8178637785579652 6.2899224271885714 0.00215815599868545 46.428571428571431 0.12846608761930781 -0.0074998675573699717 -8.9146017659703034 1.0000000180025095e-35 -0.01295929799920971 -0.0016147687810118638 -0.022926783306241778 -0.029849645677643546 0.38493297769900048 0.0053401516800071222 0.007771977468298938 -0.029872251025096937 1.0282138933841536 0.88503487660048596 60.71428571428573 0.74697575728013277 -1.0181343611446576 0.0016848128191062509 -0.020900613806516925 -0.27558705598248373 -0.88367675586127981 -0.0059500402580968349 0.0046478376195782109 39.584418000000007 0.097503087442918815 22.135006338859096 -2.6347383900014658 -0.030465374128079235 0.053771688124636688 -0.15465470772271203 17.151939500000001 -0.0050042641474295812 0.56044452546951462 -1.415518997899206 -60.714285714285708 3.9858267843176467 0.029070841759978653 0.62685002659657696 0.12846608761930781 0.26712357902404932 0.33125646997929609 0.62065410593672243 0.10720210788732265 24.327805500000004 0.80977523209729096 -1.4673516332876992 0.017111518957596442 0.90370621468490997 0.73173348686276574 -7.1428571428571432 23.644870317675856 25.579573003815785 30.830444500000002 0.15631477086936188 31.181007000000005 0.053014473516042278 0.00082195652992629912
decision_type=2 2 2 2 2 2 2 2 2 2 2 2 2 2 2 2 2 2 2 2 2 2 2 2 2 2 2 2 2 2 2 2 2 2 2 2 2 2 2 2 2 2 2 2 2 2 2 2 2 2 2 2 2 2 2 2 2 2 2 2 2 2 2 2 2 2 2 2 2 2 2 2 2 2 2 2 2 2 2 2 2 2 2 2 2 2 2 2 2 2 2 2 2 2 2 2 2 2 2
left_child=1 2 24 35 5 20 -7 10 19 23 11 68 27 16 60 -15 -8 18 -11 34 26 79 -22 -10 33 43 46 -13 29 69 32 -20 -31 -1 -9 37 -37 44 -38 67 56 93 54 -26 45 98 -5 92 -24 95 75 -33 -40 -54 55 -36 57 -14 -46 85 -12 62 63 -62 -63 -64 89 -21 94 71 -71 -16 -27 -74 -60 -51 97 -32 82 -2 -61 -66 -75 -52 -35 -29 87 -69 -88 -41 -70 -92 -19 -42 -3 -45 -56 -39 -4
right_child=21 7 3 4 -6 6 13 8 9 17 14 12 40 15 28 -17 -18 47 31 39 22 -23 48 -25 25 72 -28 59 -30 30 77 51 -34 84 42 36 38 76 52 66 41 -43 -44 49 58 -47 -48 -49 -50 50 83 -53 53 -55 96 -57 -58 -59 74 80 61 64 65 -65 81 -67 -68 86 90 70 -72 -73 73 78 -76 -77 -78 -79 -80 -81 -82 -83 -84 -85 -86 -87 88 -89 -90 -91 91 -93 -94 -95 -96 -97 -98 -99 -100
leaf_value=0.03621213791778332 0.0010480282787541614 0.013357899777086653 0.0038687265722938424 0.031526646090527154 0.0045155830838715756 0.055670125738233656 0.034666040784636212 0.020467022929733236 0.046468326353472297 0.039535696707709622 0.014405769650092094 0.0363462707296347 0.056549050411241995 0.035285488707291451 0.021769411387020345 0.023113152337705976 0.056325583858438361 0.010188728728690954 0.027294332963989393 0.027726684266461313 0.0022628666737989325 -0.01431449733365594 0.012351282805516426 0.023794638883529739 0.023598056679583836 0.014204089910192584 0.038753998339157547 0.021620702926682389 0.034196847281159806 0.02479046170529086 0.018246401423190822 0.0040983200217541921 0.016495025734316954 0.014766325288158392 0.0063214366021773572 0.010379936329173048 0.018632798998867963 0.011767498018677054 0.020059346619273544 0.0028601717922659012 0.029734881529411023 0.040058726453463776 -0.0068491118875188568 0.0096722573561101328 0.033010838475345937 0.028025502801167099 0.025563308608396274 0.017551169783424147 0.028579699386395714 0.013220023637192472 0.0039657635283424121 0.020472172532752304 0.039189826092472957 0.026220143944727891 -0.004592599628431694 0.023962727553684521 0.034595391503156124 0.037570296667345383 0.021050879064122764 0.02094563868708265 0.024815630172255174 0.037544372027192165 0.01657968335847599 0.040707959293925233 0.029174437771730261 0.02817048062303729 0.020532930718572696 0.0084401931768799728 0.025044447783739456 0.0028773520114337542 0.022446768443164615 0.033577875776597599 0.031365465098098809 0.026918006667016672 0.030255236788247104 0.022184089443262698 0.0030634278549475859 0.0274985503404543 0.029890225694921658 0.014385256582510216 0.010481570909995082 0.019350710911394967 0.017454884226758515 0.015071462587971639 0.025895067266859348 0.030233167132080047 0.024447318447752449 0.019717922813425312 0.01430352979315749 0.013127474958575714 0.010069860348362585 0.022854939203604253 0.00069049369534167479 0.020171870211318516 0.0034339850365941943 0.0031522845122580047 0.003295976468524117 0.018568464386433069 0.010338838728085345
leaf_weight=367.15846367925406 193.39445941895247 211.39333096891642 252.97088892012835 1157.6724257916212 333.15190796554089 518.9977967813611 1804.8026184216142 208.3907188475132 426.22676894813776 280.03810439258814 230.53586349636316 444.27732817828655 273.70301454514265 1084.1655097827315 5318.2010955438018 2656.6494202539325 231.82567095011473 203.02273517847061 424.67243778705597 283.41224024444818 285.35681492090225 271.52716188132763 219.0105222016573 245.19889687001705 413.0082940980792 294.11873036623001 444.40535617619753 326.98417189717293 303.08549752086401 848.29895878583193 316.9897490888834 277.94719005376101 10198.105754211545 212.81389769166708 778.57933853566647 281.74716935306787 392.54425916820765 218.51262059062719 223.69119616597891 360.96752194315195 250.48534233123064 420.33624698966742 242.32118703424931 359.18189183622599 271.29424892365932 252.70929785072803 12230.077197216451 386.24084801226854 384.34406396746635 416.75466110557318 442.82128658145666 237.71277924627066 583.81553579866886 415.44589629769325 202.27716276049614 220.88876859098673 384.80628321319818 292.8183651342988 3949.1347538009286 840.14700708538294 941.04236071556807 454.91375907510519 836.12439165264368 257.41924075037241 845.9854092746973 333.63814371079206 197.81645166873932 319.4410480633378 208.59246150404215 228.94114946573973 536.81010407954454 381.02495457977057 331.74724078178406 277.55034526437521 285.33176826685667 844.44488114118576 231.42114748805761 883.75146595388651 245.19925387948751 230.50734855234623 207.22910057008266 240.90505393594503 724.42575238645077 198.03299070894718 304.93128189444542 565.98687541484833 405.91278503090143 278.27204221487045 255.92771174758673 198.74580339342356 291.38277720659971 211.49803847074509 302.53582032769918 215.37429544329643 197.2666515186429 296.79029721021652 188.80112661421299 206.24545680731535 197.99798273295164
leaf_count=2217 1412 1446 1796 7048 2423 2707 10720 1358 2405 1662 1522 2692 1472 6499 34503 16999 1226 1397 2692 1792 1965 2168 1455 1569 2646 1965 2607 2109 1815 5430 2083 1958 68144 1420 5428 1886 2542 1477 1417 2577 1546 2475 1811 2495 1664 1587 77114 2587 2384 2807 3086 1563 3388 2609 1485 1436 2318 1731 25578 5445 5989 2707 5516 1526 5272 2083 1302 2202 1340 1603 3454 2341 2042 1756 1744 5470 1631 5610 1531 1593 1418 1565 4773 1322 1935 3511 2591 1824 1725 1361 2008 1375 2174 1389 1405 2104 1343 1342 1378
internal_value=0.0225286 0.0227567 0.0247574 0.0258644 0.0274683 0.0278318 0.0324325 0.0207887 0.0163652 0.0227844 0.0218634 0.0271657 0.0304583 0.0303434 0.0206398 0.0266431 0.0371361 0.0178803 0.0235094 0.0120492 0.0258635 -0.000512729 0.0161454 0.0381999 0.0191309 0.0175975 0.0264874 0.0252149 0.0195124 0.0192742 0.0179107 0.018728 0.0171327 0.0275162 0.00680067 0.0214521 0.0255779 0.0201163 0.0282244 0.0162472 0.0372585 0.0323249 0.00505223 0.0145334 0.0212816 0.0143836 0.0260796 0.0101695 0.0227006 0.013067 0.0152485 0.0116593 0.0312972 0.0338056 0.00713057 0.0102274 0.0418456 0.0467553 0.0223574 0.022662 0.0258151 0.0264861 0.0241177 0.0282361 0.030119 0.019892 0.0101864 0.0192185 0.0147485 0.0218559 0.0166043 0.0225603 0.0224542 0.0239867 0.0216729 0.0192274 0.0108553 0.025062 0.0220178 0.0083152 0.0188816 0.0270037 0.0200836 0.00740779 0.0213344 0.0270878 0.0172981 0.0137019 0.0205354 0.00651737 0.0182807 0.0154607 0.00451704 0.0253297 0.00858292 0.00673174 -0.000769606 0.0150858 0.00672332
internal_weight=70961.1 70265.7 34842.3 29113.3 21350.5 21017.3 6296.44 35423.4 6925.35 2783.6 28498.1 5342.28 4222.15 5777.44 23155.8 3740.81 2036.63 2112.17 1220.37 4141.75 14720.9 695.429 888.711 671.426 5728.98 4844.08 13832.2 2384.62 19015.2 18712.1 12247.1 940.332 11046.4 884.904 1841.26 7762.86 1897.24 5865.62 1615.5 2300.5 1837.52 886.196 1632.87 2971.03 5209.44 703.678 13387.7 891.799 603.355 2558.03 1902.05 515.66 1222.95 999.261 1390.55 999.468 951.328 566.521 4505.76 1940.35 4140.56 3910.03 2368.22 1198.46 1541.8 1169.76 757.53 1542.97 1120.13 6464.98 765.751 5699.23 1873.04 1578.92 4234.47 1261.2 656.179 1200.74 1247.18 423.902 1047.38 1086.89 1001.98 640.854 517.745 892.971 1259.55 597.713 661.84 559.713 711.473 502.881 505.559 465.86 408.66 655.972 391.078 424.758 450.969
internal_count=457013 451840 220755 183186 133147 130724 38151 231085 46242 18007 184843 33680 26106 35444 151163 23498 11946 14033 7875 28235 92573 5173 5804 3974 37569 31997 86769 15175 124983 123168 81267 6213 73574 5572 12861 50039 11842 38197 9956 15374 10931 5410 11503 19930 33747 4761 84162 6158 3839 17284 12685 3521 7414 5997 9692 6864 5521 3203 28986 12483 26180 24658 15114 7515 9544 7599 5240 10134 7574 41901 5057 36844 12067 10102 27322 8277 4450 7693 8060 3005 6863 6837 6529 4408 3355 5620 8342 4026 4316 3938 4723 3383 3571 2935 2851 4599 2828 2819 3174
is_linear=0
shrinkage=0.0214235


Tree=5
num_leaves=97
num_cat=0
split_feature=30 30 30 34 30 34 30 30 5 34 30 30 30 22 30 16 10 30 8 10 4 15 9 16 9 34 10 30 30 10 8 34 30 10 41 23 30 8 9 16 30 41 30 27 6 20 30 30 30 30 30 15 15 41 30 8 20 19 23 30 20 41 27 33 9 30 30 6 12 30 9 34 5 10 12 5 19 33 19 15 5 30 30 12 8 12 19 10 12 8 20 33 8 27 5 10
split_gain=1286.44 500.712 622.634 388.785 572.666 1180.23 829.606 493.258 703.997 445.178 384.711 371.815 915.074 430.079 370.784 359.947 343.461 343.167 249.017 221.486 219.018 213.874 204.836 201.561 172.975 191.109 203.928 163.269 191.178 146.259 167.82 154.075 141.76 130.824 127.112 132.291 124.38 120.104 119.492 118.964 113.521 110.225 109.422 96.9202 95.3898 90.746 88.4735 100.593 87.0274 81.8846 167.409 82.2831 78.318 76.4603 79.557 73.1719 71.4865 102.148 65.8141 64.5081 61.7738 59.3934 57.9758 56.9112 57.7247 56.7661 122.005 56.7398 72.7349 55.9945 52.5719 48.2496 47.7602 44.9386 44.8783 41.8248 39.377 39.2793 39.7728 38.2016 35.58 35.0182 68.0759 40.9507 33.7644 33.7593 33.7244 29.9166 26.8163 21.8673 20.6557 18.1391 13.0564 11.03 6.70749 6.03511
threshold=0.78342798412464931 0.88636660554739033 0.83746279628090414 61.759533042727476 0.96156032109773459 1.0000000180025095e-35 0.95941497106682727 1.2272653751018152 0.017948310206127017 32.604804879725123 0.93155911914979928 1.1862798856605246 1.1797007637176902 32.142857142857146 1.1961488814841028 -0.11007800661337445 0.22903816645653488 0.97178108117622908 0.0087403628858770208 0.17114064302466406 0.036364062723321156 0.055584164494628351 22.933140842226432 -0.07342020335526471 85.080441039340329 1.0000000180025095e-35 -1.625381445299922 0.9107453143027161 0.95119326992906539 0.46519131401613839 0.009435329459577025 36.790857383795348 0.90847556828529485 -1.1584635606533646 0.48790765685926979 -28.571428571428573 1.4224763475963191 0.0020253882905953242 46.830486446912758 -0.31161342830279887 0.93994226387340951 0.66700268817204311 1.3028417562429537 49.824256270331936 49.865516288346889 18.738987944463542 0.87663599728361474 0.87056663612037244 0.85924659591911612 0.9019285235444382 0.89767287765334181 0.039771014877750005 0.0098779095578485736 0.75560589361626496 0.7694423392883486 0.0036584539013701086 15.616004653808192 21.206952012576632 50 0.84913758090639657 20.272660962809073 0.31495319946307759 79.306985715566285 0.19196182188905833 89.643320878005227 0.85456145584329912 0.84342276910776393 47.286259652370255 0.48913799739651109 0.95941497106682727 88.35932624886955 61.360696711158553 0.020558949429752373 4.650193457178184 0.056824410052229671 -0.010801128273401411 32.387485646955348 0.031516578611538455 26.061994289212567 0.022953831531410892 1.0000000180025095e-35 0.87969320042088717 0.86829839602735193 5.450592561058806 0.0062198834580114958 4.439008082814861 29.317954950991961 -0.65342768700464393 8.574848069534097 0.0062198834580114958 21.917083706929354 0.042040397386157564 0.0015208070439525336 82.3559654003394 0.0087409523625791002 3.7118218824226408
decision_type=2 2 2 2 2 2 2 2 2 2 2 2 2 2 2 2 2 2 2 2 2 2 2 2 2 2 2 2 2 2 2 2 2 2 2 2 2 2 2 2 2 2 2 2 2 2 2 2 2 2 2 2 2 2 2 2 2 2 2 2 2 2 2 2 2 2 2 2 2 2 2 2 2 2 2 2 2 2 2 2 2 2 2 2 2 2 2 2 2 2 2 2 2 2 2 2
left_child=15 2 29 4 5 6 10 11 9 22 18 12 17 -14 75 -1 -12 37 44 41 45 27 39 -19 25 26 -4 32 40 30 60 -31 33 -7 35 -11 -10 -6 -36 -9 -29 -16 -24 -18 -3 49 47 65 59 50 55 62 -49 54 87 -5 -33 -58 92 84 85 -62 74 64 -53 66 -27 -48 -69 -30 72 -61 -22 -28 -51 -13 -60 78 -59 -70 -67 82 91 -83 -26 -2 -20 -17 -55 -84 -56 -50 -47 -64 -89 -74
right_child=1 3 24 20 7 21 -8 8 36 34 16 14 13 -15 19 53 43 23 86 -21 70 -23 42 -25 48 46 73 28 69 31 -32 56 -34 -35 38 -37 -38 -39 -40 -41 -42 -43 -44 -45 -46 58 67 52 81 51 -52 63 -54 88 90 -57 57 77 76 71 61 -63 93 -65 -66 80 -68 68 79 -71 -72 -73 95 -75 -76 -77 -78 -79 -80 -81 -82 83 89 -85 -86 -87 -88 94 -90 -91 -92 -93 -94 -95 -96 -97
leaf_value=0.030467401972403003 0.016024386367364897 0.042594846309474937 0.035889062616661853 0.0094431387034707923 0.015616965664968979 0.031613337506162381 0.077549828109704191 0.014895973265299201 0.015560353850094119 0.035516690495073923 0.058948921209923379 -0.0132302299773439 0.069412650245730387 0.030771918832851939 0.0064289301234271984 -0.0015270336839285511 0.0235485274674513 0.019221121425618212 0.02219469426091673 0.030416979443084503 0.025695229603165805 0.044802399808967622 0.023474595470655845 0.023411410233584496 0.0044298666289479911 0.019156185709276137 0.022116843496562254 0.022148074586784746 0.026322570436059407 0.004862721362893241 0.047709943358290374 0.014621096165073826 0.041607673257719274 0.022376149113174346 0.045546952923462038 0.018896876837438983 -0.0048548624211312893 0.0033187160308846947 0.033296622329817734 0.030735156219525436 0.015449607190278276 0.022344196136431092 0.0039102324759160813 0.043222158032266644 0.030292748169647894 0.015047486704860833 0.011932600306956684 -0.0044267853135339505 0.012538914135928364 0.010215210409128365 -0.0050773536433549697 0.013248516201091456 0.012832941654010109 0.012708641711668677 -0.0011956895976213972 0.024264623442006358 0.015950822018328155 0.026446287136592202 0.023707134771808389 -0.0089889884841502909 0.024489107636878282 0.037722548964317482 0.031246049850583608 0.024929404103639283 0.018186445516610722 0.013864557268884185 0.0069043969411666673 0.031200591960561304 0.012031898554617709 0.035353479713617873 0.021673678620416512 0.0049147978228704743 0.033209552825189538 0.0087602180446209998 0.02032088900707588 0.00026511632019050565 0.03370767082226292 0.022080564660812301 0.035908765714598882 0.023086441416008137 0.021213709599021417 0.025037547324648614 0.0097379052687143891 0.012198357648558972 0.015562244050827253 0.02751304186646451 0.010738821981057108 -0.01442396570960049 0.0019226162810905374 0.00030112318950664576 0.0086637613406152867 0.020930023216840798 0.022246308366707861 0.024383395390108413 -0.0089862465269685641 0.038537445035802052
leaf_weight=191.85324718803167 238.0840043053031 478.80823526531458 454.38557091355324 294.21507355570793 1279.3084371313453 1266.4676177874207 242.02203789353371 274.35078915208578 273.2939637824893 862.92365024983883 512.92028264701366 194.28656206279993 258.21479175984859 272.83813696354628 646.28901490569115 187.49003691971302 230.75824184715748 8399.750285603106 256.33168584853411 400.82687715440989 400.52006625384092 229.05425507575274 223.39003702253103 14250.981770299375 241.76706694066525 632.08965118974447 242.2736289948225 4712.8410982862115 1224.2734527587891 215.82516770809889 233.23757866024971 306.82679168879986 316.27985777705908 1604.520251750946 929.83134545385838 297.65961411595345 273.87645862996578 511.51416191458702 612.55962924659252 1086.9778528511524 1551.1699812933803 290.12694501876831 320.01657989621162 233.60238388925791 751.52477312833071 279.54977733641863 307.13691909611225 244.89093158394098 263.00458158552647 214.10904076695442 206.10575143247843 1975.8364031687379 237.13915513455868 193.97266176342964 198.07447838783264 322.41779490560293 352.08041417598724 387.53813859075308 400.67183957248926 193.42474228143692 277.78821966797113 367.08947425335646 232.40795444697142 355.56037910282612 2455.1489936411381 536.65378239005804 915.88522519916296 303.9075900092721 259.10188527405262 432.88132507354021 397.30286060273647 280.45402608066797 229.07494071871042 225.09878470748663 4379.2642122358084 228.5067160576582 341.89299628138542 271.92241914570332 452.00948059558868 331.04965436458588 715.09803036600351 212.39181210845709 218.85090049356222 252.59878368675709 263.21905859559774 239.93588978797197 223.98242013901472 224.34186659753323 235.9611903578043 234.97477782517672 190.36212264001369 224.60650784522295 210.44057979434729 229.14641869068146 211.96167528629303 231.69586482644081
leaf_count=1189 1551 2684 2673 1987 8331 7647 1075 1828 1786 4959 2649 1426 1203 1635 4350 1368 1450 53718 1618 2430 2493 1294 1399 89239 1669 4072 1537 29725 7590 1510 1317 2033 1812 10127 5073 1871 2043 3536 3596 6475 10123 1828 2263 1335 4530 1834 2038 1736 1749 1431 1484 13204 1570 1334 1437 2055 2297 2405 2529 1413 1744 2152 1418 2206 16089 3534 6235 1832 1709 2544 2511 1943 1379 1529 28074 1584 2070 1741 2687 2099 4562 1331 1481 1682 1736 1502 1479 1717 1698 1649 1329 1450 1344 1442 1603 1365
internal_value=0.0217005 0.0221365 0.0179647 0.0229194 0.0238461 0.0274156 0.0395397 0.0222487 0.0283201 0.0310486 0.0361132 0.0210777 0.0217487 0.0495776 0.0115529 0.00290417 0.0468481 0.0211437 0.0299755 0.0170828 0.0196676 0.0242816 0.0231062 0.0218578 0.014644 0.0167664 0.0256597 0.0238577 0.022206 0.025702 0.031137 0.0219873 0.02796 0.0264536 0.0366426 0.0312605 0.00533203 0.0121077 0.0406872 0.0275482 0.0204904 0.0113673 0.0119655 0.0334629 0.0350871 0.0187668 0.0149362 0.0131096 0.00983231 0.0181283 0.0116153 0.0186721 0.00405298 -0.000759883 -0.0039783 0.017204 0.0240715 0.026048 0.0242856 0.00491739 0.0276868 0.0320342 0.0205836 0.016652 0.0159861 0.0146667 0.0119115 0.0199206 0.0226571 0.0286864 0.0281762 -0.000748696 0.0311671 0.0156985 0.0198512 -0.00592394 0.028322 0.0292401 0.0315502 0.0182447 0.0180685 0.0132486 0.010856 0.018078 0.0102452 0.0218061 0.0168668 -0.00872012 0.00680355 0.00486533 0.00362202 0.0164183 0.0181536 0.0278555 -0.0117973 0.0359064
internal_weight=72076.7 70442.7 11132.3 59310.3 46155 14267.4 2929.95 31887.5 5154.88 4607.71 2687.93 26732.6 24972.6 531.053 1760.04 1634.02 977.281 24441.6 1710.65 1337.24 13155.4 11337.5 1904.74 22650.7 7790 5404.71 921.758 11108.4 7921.17 3342.34 1356.14 1986.2 3187.27 2870.99 2702.97 1160.58 547.17 1790.82 1542.39 1361.33 6264.01 936.416 543.407 464.361 1230.33 11896.8 4482.95 3281.76 2385.29 10664.2 822.739 9841.47 482.03 1442.16 1012.23 616.633 1770.38 1463.55 1232.56 978.865 1122.9 644.878 5054.93 4786.55 4430.99 2799.73 1547.97 1201.2 894.059 1657.15 1258.59 473.879 861.291 467.372 4593.37 422.793 742.565 1111.47 839.548 590.152 1251.75 1406.43 941.437 464.991 504.986 478.02 480.314 623.794 429.934 453.826 388.437 487.611 489.99 461.554 436.304 460.771
internal_count=457013 445338 72168 373170 288255 87682 16820 200573 31293 27464 15745 169280 157662 2838 11618 11675 5434 154824 10311 8608 84915 70862 11965 142957 51229 35126 5739 69568 49982 20939 8266 12673 19586 17774 15499 6830 3829 11867 8669 8303 39848 6178 3662 2785 7214 77167 29387 21709 16103 69390 5526 63864 3306 10486 7454 4042 11163 9130 7777 6761 6949 3896 32365 31499 29293 18403 10307 7678 5640 10134 7748 3356 5237 3066 29505 3010 4599 6833 5092 3808 8096 9342 6329 3013 3405 3053 3097 4688 3032 3130 2766 3199 3178 2860 3320 2744
is_linear=0
shrinkage=0.0214235


Tree=6
num_leaves=64
num_cat=0
split_feature=30 29 30 29 29 30 30 29 29 30 29 29 29 6 29 30 29 19 30 30 29 29 29 29 29 30 29 29 29 30 28 29 29 29 29 29 30 40 29 29 29 1 30 29 29 29 30 29 30 30 29 30 30 1 12 6 1 30 29 28 29 33 37
split_gain=1175.16 553.639 744.563 558.905 513.916 456.129 522.629 473.765 1025.16 721.537 844.365 1092.69 672.202 767.638 531.945 634.544 518.118 481.104 391.45 438.536 348.402 518.898 343.833 1045.28 334.586 409.765 326.456 513.217 317.156 313.903 680.639 426.652 304.431 700.722 557.202 365.633 368.171 298.036 292.731 258.436 288.545 174.666 155.08 152.264 151.665 258.348 134.341 122.862 112.705 290.013 208.105 257.648 157.489 105.945 105.643 81.758 79.0439 74.2208 60.7256 51.4731 24.2965 21.0959 19.591
threshold=0.78342798412464931 5.5801661791531059 1.3334129708863969 4.1530648854833485 1.526711228614172 0.88636660554739033 0.83746279628090414 1.0282138933841536 0.083334071495179782 0.96560405384314452 0.88503487660048596 0.57744424148597795 1.3081201763382904 38.829314009668003 -0.030465374128079235 0.91690327890988288 1.719770142979425 11.45264337540501 1.4968370216207787 1.3424093245301105 -0.17313624962192256 0.97637571015479319 0.94361655234732555 0.72651458953911707 -0.10178832486047605 1.0154954718528855 0.94361655234732555 2.4578458253674049 2.9519162157134171 1.0510145587416109 1.0000000180025095e-35 1.7067604162890493 0.40314709826488787 1.3910297526131574 -0.21593603952015797 -0.16078682270471109 0.85924659591911612 0.29367039531310585 -0.11346376767072541 -0.36038322239483717 -1.5873179897970986 -0.0097886046596180644 1.0534494853609282 -0.34652913759153764 -1.0923525445612674 -0.78597175591650259 0.86829839602735193 -1.168330543074493 1.0594136970870924 1.2356822383933237 1.1281643519003668 0.96387443214402213 0.98917882398679791 0.002069475003596308 -1.5989401288785625 34.762792310338234 0.0026232069847191447 0.85093456564966563 0.41903973503714642 1.0000000180025095e-35 1.2207198020339145 0.017042713400057811 30.250928000000005
decision_type=2 2 2 2 2 2 2 2 2 2 2 2 2 2 2 2 2 2 2 2 2 2 2 2 2 2 2 2 2 2 2 2 2 2 2 2 2 2 2 2 2 2 2 2 2 2 2 2 2 2 2 2 2 2 2 2 2 2 2 2 2 2 2
left_child=4 2 5 18 43 6 20 8 14 22 11 -11 48 16 24 -16 37 -18 19 -4 39 56 23 -10 38 -26 -21 41 -29 30 -15 -31 34 46 44 -36 -37 -14 -7 40 -2 -28 -17 -1 54 -46 57 -42 50 60 51 -9 -52 -12 -8 -3 -22 -34 59 -45 -50 -60 -48
right_child=1 55 3 -5 -6 7 32 12 9 10 53 -13 13 29 15 42 17 -19 -20 26 21 -23 -24 -25 25 -27 27 28 -30 31 -32 -33 33 -35 35 36 -38 -39 -40 -41 47 -43 -44 58 45 -47 62 -49 49 -51 52 -53 -54 -55 -56 -57 -58 -59 61 -61 -62 -63 -64
leaf_value=0.012092805472717348 0.047295000534875786 0.0071162246438504183 0.055985272491711487 0.0090960699799806644 0.033981121060161969 0.021152186012911297 -0.0033027894153669526 0.012581792205380098 0.040152228905880882 0.020523962908862391 0.0052515947644415275 0.038222801086564367 0.035362426380750774 0.038116903339609043 0.035396950562294201 0.0035236371609636509 0.042327029821934245 0.0126090625260893 0.05494166195271323 0.006669517079890064 0.0092626304682097687 0.038816843001905986 0.056487505101324532 0.0055442182005564031 0.039967501894099741 0.020798292634508369 0.054304417154523679 -0.0018756723174711051 0.032084165181028433 0.025601527819408398 0.0050870442868951342 0.0037071145428676931 -0.004898235962870724 0.033275120389854335 0.044316340123040927 0.003562894594736844 0.027188119907220525 0.064391073943460289 -0.0031899186607399414 0.047051085185930652 0.013754791096608036 0.031470553572974388 0.014704825136643744 0.0074915142240647983 0.024105823980046744 0.0096817741818055018 -0.017952681369914548 0.025767590531000587 -0.0068753529666471065 0.019340174500762326 0.0069674379098867483 -0.017078686362868946 0.028752143497647754 -0.017100276640534186 0.0097768544366021864 -0.0097259140792744381 -0.0073264932012101457 0.010703412986439375 -0.014256063522839608 -0.0056195626608778115 -0.017004671314949444 -0.0057601832228342956 -0.0086373810583593447
leaf_weight=285.10074546188116 246.66032665967941 288.62743506580591 297.72693058848381 391.95511738210917 210.42157302796841 34142.647718422115 329.22570825368166 304.95490778982639 2355.1362280398607 4909.4351566657424 191.2164187207818 2378.1098178103566 450.96823385357857 633.60346010327339 447.79768574237823 1543.9263959378004 374.37198605388403 755.41737879067659 441.42947337031364 281.40965837985277 231.76155142486095 221.12613447755575 361.29450272023678 483.1422621384263 975.57918931543827 1081.3722511529922 385.06921631097794 235.56564662605524 271.07265513390303 549.70878444612026 523.26409392058849 1593.1386802121997 293.02402852475643 295.68471128493547 380.63210943341255 414.40423660725355 1129.7210569679737 255.48217779397964 227.82924407720566 283.3107466250658 523.54461649060249 259.37505692988634 903.66782578825951 222.95308680832386 972.65299236029387 1381.7439300119877 217.85768312960863 1572.5771727412939 228.37741922587156 199.72414474189281 309.84846794605255 240.23196686804295 301.27369356900454 197.51792439818382 2008.5469147786498 244.02306433022022 305.49945695698261 267.33606822788715 307.63937260955572 357.77353782951832 212.44277096539736 243.39591924101114 204.60457108169794
leaf_count=1923 1358 2028 1400 2672 1233 213147 2327 2032 13136 30460 1298 13236 2566 3669 2588 10423 2021 4812 2053 1851 1530 1265 1829 3170 5520 6740 1896 1628 1606 3353 3567 10848 2104 1751 2105 2840 6812 1225 1578 1545 3397 1495 5808 1546 6045 9211 1631 9600 1636 1258 2099 1794 1862 1500 13373 1879 2203 1783 2414 2648 1586 1840 1476
internal_value=0.0207507 0.0211603 0.0213236 0.0326631 0.00274444 0.0208986 0.0169591 0.0216763 0.0224016 0.0282247 0.0246595 0.0263006 0.0164232 0.0203693 0.0207909 0.0119478 0.0314746 0.0224636 0.0369136 0.0323088 0.0240048 0.0112 0.0367759 0.0342634 0.0214936 0.0298938 0.0273815 0.0324394 0.0162848 0.0141871 0.0231833 0.00932705 0.0139379 0.00436112 0.0157873 0.0254965 0.0208519 0.0458737 0.0209907 0.0277001 0.0253563 0.0451275 0.00765445 -0.00189194 0.0118031 0.0156436 -0.00433358 0.0227705 0.00514044 -0.002061 0.00913459 -0.000477795 0.0177184 -0.00609171 0.00793236 -0.000589118 -0.000159367 0.00253511 -0.00542042 -0.000575752 -0.0117719 -0.010515 -0.0134569
internal_weight=73134.9 71507.6 70975 2563.6 1627.28 68411.4 11279.9 57131.5 50198.7 10875.9 7676.28 7287.54 6932.81 5135.95 39322.8 2895.39 1836.24 1129.79 2171.65 1730.22 3384.48 758.387 3199.57 2838.28 36427.4 2056.95 1432.49 1151.08 506.638 3299.72 1156.87 2142.85 7895.43 1278.51 6616.93 1924.76 1544.13 706.45 34370.5 2626.09 2342.78 644.444 2447.59 1416.86 4692.17 2354.4 982.822 2096.12 1796.85 640.544 1156.31 545.187 611.122 388.734 2337.77 532.65 537.261 560.36 1131.76 580.727 440.82 551.035 422.462
internal_count=457229 445625 441718 14601 11604 427117 72356 354761 310433 64629 46494 43696 44328 32061 245804 18819 10624 6833 11929 9876 20898 4998 18135 16306 226985 12260 8476 6625 3234 21437 7236 14201 51458 8745 42713 11757 9652 3791 214725 15900 14355 3391 16231 10371 30956 15256 6994 12997 12267 4480 7787 3826 3961 2798 15700 3907 3733 3887 8448 4194 3222 4254 3107
is_linear=0
shrinkage=0.0214235


Tree=7
num_leaves=110
num_cat=0
split_feature=24 35 31 34 14 36 26 36 18 32 18 31 19 14 39 14 10 14 22 33 14 14 32 23 35 26 26 15 32 27 36 36 32 14 19 36 24 24 19 39 39 26 14 14 36 18 32 36 27 19 15 35 14 37 34 32 22 18 32 37 35 44 26 34 37 18 26 44 37 37 23 19 39 39 18 35 14 32 23 14 22 32 44 32 37 18 39 19 18 32 37 19 37 37 44 24 14 14 34 10 37 24 35 27 14 19 18 27 10
split_gain=682.48 499.524 465.29 1623.17 406.308 294.104 267.82 192.774 233.314 192.009 209.371 170.326 169.542 223.842 167.026 148.986 132.513 175.481 207.268 173.726 131.377 130.861 115.908 107.053 105.686 103.787 94.1032 111.451 87.9187 85.5395 79.3025 77.2103 98.1714 76.5997 85.0341 75.3766 72.583 69.5287 85.3863 80.4534 68.8788 67.7427 66.9189 66.7786 66.6864 65.0576 66.5319 63.6068 72.8526 61.1603 59.907 58.0384 57.4966 55.7783 54.8383 65.5688 53.7215 51.1359 51.0746 48.6189 46.8204 57.6586 46.8122 46.807 46.0068 44.915 44.5363 42.9216 42.5757 42.0349 41.9194 66.7444 55.7229 79.0913 43.4487 48.9947 41.8474 41.3012 41.2858 40.7919 44.9923 40.1632 38.9684 39.4299 38.8283 36.2816 34.2213 33.7924 33.5516 33.3133 43.8352 32.7078 32.6795 32.5972 35.4573 31.8494 31.5721 31.0305 30.382 29.7869 29.7347 29.0667 28.9253 28.7569 28.0668 27.4951 27.8171 26.6515 26.5922
threshold=0.01602061624508384 12.49225017645785 1.0000000180025095e-35 26.092644887969694 0.037984362907534243 -0.062566143354124068 -0.066455219017469383 0.20444337383413061 25.403716498757454 0.79927741867832347 45.711973942518426 1.0000000180025095e-35 27.422141694888271 0.14175728259615203 24.744000000000003 0.019992567245071868 4.0657198223061792 0.096995699789296466 25.000000000000004 -0.064016505125615339 0.025473454493194481 0.069740070138440177 1.0131228779995285 14.285714285714286 8.8947832614109394 0.024904785535078505 -0.062907868498052008 -0.052818802731504945 1.8356903428217861 33.810745500899664 -0.11378556525594201 -0.0052243535642851882 1.1363983933981567 0.05181279781042978 20.333406063638488 -0.038481535278900629 0.0031758493043248354 0.023916668130323147 26.559097801918856 42.89050000000001 27.983000000000004 0.02190575536141684 0.016354740691587984 0.067434394876905751 0.015990754295696078 25.627373709750909 1.0379924567387835 -0.00057664821304870262 31.513344275486695 19.763486932366671 0.04092575206459282 13.525286195578092 0.062610019116401863 34.195777000000007 80.405496548670342 1.1745977687508729 10.714285714285717 18.555060084660173 1.4286392790418012 30.422510500000005 16.846126079628434 -0.018358779958406762 0.13671370049192264 69.2681974202129 37.963726500000007 26.20673891238091 0.065507325430468902 -0.0040005173500763484 41.061369000000006 41.589275000000008 67.857142857142875 27.074400461717232 25.933500000000006 15.090000000000002 16.95511666621778 17.728996327458127 0.15129136744385377 0.61196570132886341 -74.999999999999986 0.061009409420989862 17.857142857142865 0.28984020301923386 0.0089263980450719396 0.49400869888820659 22.295397500000004 25.860929581823985 14.929000000000002 17.935820437397258 10.998329311827652 1.1648210243486512 31.939793750000003 19.930649958026731 16.036356000000001 20.982507500000004 0.0053501700128648407 -0.009293409067970165 0.13567121295040777 0.015415984668626296 49.309324010194807 0.34763217565076948 18.609646000000001 0.025918337031088749 19.786732173948177 43.80070841675829 0.099795571036459377 17.554619726038226 21.299650088455227 49.996207470893673 0.87780835811705782
decision_type=2 2 2 2 2 2 2 2 2 2 2 2 2 2 2 2 2 2 2 2 2 2 2 2 2 2 2 2 2 2 2 2 2 2 2 2 2 2 2 2 2 2 2 2 2 2 2 2 2 2 2 2 2 2 2 2 2 2 2 2 2 2 2 2 2 2 2 2 2 2 2 2 2 2 2 2 2 2 2 2 2 2 2 2 2 2 2 2 2 2 2 2 2 2 2 2 2 2 2 2 2 2 2 2 2 2 2 2 2
left_child=1 2 3 4 -1 26 11 8 25 29 16 22 13 101 20 47 17 18 19 -11 36 56 52 58 -20 70 30 66 37 42 78 53 88 34 -16 -22 60 51 57 63 -9 93 -4 44 65 46 -37 48 -13 -47 96 62 81 59 55 82 -18 -39 87 91 -8 -62 -27 -40 -36 -17 97 77 -66 -30 71 86 73 84 -73 -76 -57 95 -3 80 89 -7 83 -43 -72 92 -2 -24 -33 90 -32 -5 -29 -14 -95 -31 -19 -28 -35 -78 -83 -10 -77 -94 -75 -69 -107 -55 -84
right_child=7 5 9 31 -6 6 14 40 12 10 -12 15 41 -15 33 43 21 50 24 -21 35 -23 23 -25 -26 28 27 85 69 67 79 32 -34 98 64 45 -38 38 39 -41 -42 54 -44 -45 -46 49 -48 -49 -50 -51 -52 -53 -54 107 -56 76 -58 -59 -60 -61 61 -63 -64 -65 68 -67 -68 105 -70 -71 72 74 -74 104 75 102 99 -79 -80 -81 -82 100 108 -85 -86 -87 -88 -89 -90 -91 -92 -93 103 94 -96 -97 -98 -99 -100 -101 -102 -103 -104 -105 -106 106 -108 -109 -110
leaf_value=0.073700802892581505 0.022697191351472343 0.018226219235421167 0.032130976477501676 0.01918162547802791 0.043985942000902375 0.025560198626685557 0.025238424735677355 0.021384559147536258 0.01385358794360763 0.019363192575676296 0.044036225693654334 0.041555320318541318 0.026372571533543037 -0.0088284626909739018 0.020530610483093677 0.026981687963955898 0.028628835649093444 0.032800704393345946 0.017874464681988837 0.032032154736880626 0.012395008299035502 0.0073432580432414522 0.019445563981766386 0.031458014459814804 0.030485480864452266 0.018426569673775896 0.014177703047440338 0.025294085021730126 0.030518563656424923 0.021278333146683412 0.018254016484133453 0.017572148580845687 0.026720004812908944 0.012923256689894108 0.034367966177007658 0.017953972148375918 0.03255147861816339 0.011722192957142037 0.015425537788778015 0.026323808362778343 0.034001474547386147 0.01553722981041957 0.018410912136817829 0.016676728953281011 0.035840318319029618 0.0066585393599477268 0.021939744951560071 0.044710176524802955 0.027310847107794738 0.017103319934415349 0.023963268691935359 0.016225070295290852 0.028306001120512091 0.014869427724556713 0.022435222453959538 0.01974897263865532 0.017771438002233034 -0.001360812538559937 0.015559850275085108 0.036903525401756301 0.0096416335835394617 0.020859645741115006 0.029308368447264449 0.0086612164943524386 0.018569631619566263 0.016229592474834981 -0.0017479607676609337 0.018735646689402002 0.028169680657802273 0.018463107328212613 0.015684853681656435 0.029551500128437672 0.025084716389480306 0.013302951088517017 0.013303777347094845 0.031236146316453689 0.016791679229893306 0.024867305726779153 0.011338129423715856 0.013477159145269821 0.018058880394811402 0.013027479488099483 0.01927330511600276 0.0076279605125900178 0.026902567653939287 0.011508685627492486 0.01531839709904164 0.02785904019263578 0.0061604436288582561 0.028294998719166867 0.027572294090219534 0.028427971286986108 0.012965728434591468 0.01279558199904051 0.022004621356998894 0.0096953669503368894 0.042020107863671767 0.0049391799035806913 0.021197362784493256 0.0079813139667051017 0.018826704545797206 0.0055819562155912088 0.021984925212951558 0.019334752360268707 0.0024402378750269268 0.014809938512126423 0.0078070910192698881 0.024559488881709737 0.011442051156767098
leaf_weight=377.52116850018501 492.95734088867903 709.60581694543362 313.95797070860863 248.67783605307341 484.34826257824898 340.52820958942175 1080.0160886794329 488.94722531735897 644.03919062763453 720.48993296921253 241.34062770754099 252.09241515398026 244.57373606413603 347.10738721489906 1024.5812891498208 731.19465259462595 350.64923033863306 459.4102655351162 2420.5415738373995 1624.2118206173182 1066.5958656966686 404.03709365427494 358.40284807980061 929.26093261688948 350.9593628719449 409.75552445650101 337.22194138914347 225.41801732778549 274.74014821648598 219.23700629919767 701.99631836265326 214.62708196789026 310.48891833424568 224.25606163591146 438.77560225874186 4717.9348706826568 288.60252974927425 306.60468873381615 2191.021162122488 266.13956168293953 340.6710824072361 357.60904203355312 347.22150076180696 366.78416955471039 307.47350576519966 271.3845588862896 3288.9051163941622 250.71089652180672 494.06729264557362 5759.6086893379688 240.8911676555872 1885.8885760903358 312.64599186182022 267.31579717993736 289.32604173570871 796.90732362866402 533.36171887069941 246.68853077292442 403.96326667815447 235.17856499552727 229.80310733616352 2783.0573939457536 333.92445687949657 603.65954328328371 266.52968053519726 240.61797151714563 207.64397644996643 443.32443714141846 1133.3729422390461 265.20660976320505 364.98877653479576 608.9016502276063 340.07557391375303 230.60719265043736 222.53466670960188 228.945685505867 370.68320048600435 427.58686053007841 933.29138716310263 378.83891554176807 1296.8471961319447 513.51753117889166 343.01088739186525 1562.5468649044633 236.85475269705057 612.63977283239365 720.70431419461966 594.98464883863926 268.462376691401 471.84812943637371 352.93415584415197 646.03917486965656 612.28781732171774 395.49724590778351 382.52464981377125 222.25138305127621 286.41898467391729 335.56278904527426 2778.0409127697349 342.77403853833675 2095.1683029830456 283.76285384595394 519.43125738203526 717.86178778856993 210.20050290971994 773.13134154677391 399.59049192070961 264.43041201680899 491.16021075099707
leaf_count=1555 3031 4476 1769 1527 2559 2026 6395 2976 4167 4353 1293 1322 1493 2542 6236 4293 2057 2621 14901 9259 6823 2666 2195 5378 2009 2561 2167 1369 1627 1330 4366 1322 1833 1426 2496 29341 1664 1998 14032 1607 1893 2302 2131 2277 1722 1780 20070 1299 2838 36171 1457 11969 1861 1674 1806 5013 3302 1725 2518 1324 1472 16871 1966 4014 1637 1492 1445 2720 6636 1655 2328 3576 2066 1479 1438 1347 2358 2559 6113 2438 8078 3248 2162 10411 1433 3991 4589 3498 1744 2793 2098 3795 3929 2560 2367 1439 1553 2280 17012 2276 12882 1922 3201 4483 1431 4850 2611 1580 3210
internal_value=0.0200176 0.0212086 0.0246943 0.0317154 0.0570133 0.0200227 0.020899 0.0164691 0.015998 0.0225329 0.0243711 0.0242701 0.0128936 0.00583736 0.0198094 0.0287543 0.0237278 0.025048 0.0234482 0.0281423 0.0188535 0.0174669 0.0221328 0.0258397 0.0194742 0.0179381 0.0162985 0.0133418 0.0162978 0.0180714 0.0181574 0.0228313 0.0173081 0.0229838 0.0255002 0.0179038 0.0221257 0.0155777 0.0136424 0.0150436 0.0265748 0.0145057 0.0249372 0.0247819 0.0271003 0.0183219 0.0195921 0.0353058 0.0321345 0.0166344 0.0333355 0.0182351 0.0195319 0.0254648 0.0133823 0.0127664 0.0220865 0.00587922 0.0219876 0.0281706 0.0213886 0.0200061 0.0233226 0.0139667 0.0282654 0.0243267 0.00690141 0.0162417 0.026347 0.024611 0.0206009 0.0221197 0.0175275 0.0150556 0.0250331 0.0221916 0.0163614 0.020098 0.0143174 0.0201253 0.0210149 0.0185992 0.0107926 0.00910447 0.0201117 0.0159541 0.0183213 0.0247038 0.0112441 0.023521 0.0213785 0.0258661 0.0177006 0.0195017 0.0173323 0.0154627 0.0363524 0.00957935 0.0205816 0.012568 0.0176877 0.0113306 0.0248254 0.0164081 0.00813726 0.0141636 0.0124293 0.0197015 0.0146705
internal_weight=74173.5 55532.6 14095.7 3317.09 861.869 41436.9 33542.9 18641 17811.4 10778.6 7632.31 8191.41 6851.52 1274.91 25351.5 2642.94 7390.97 6102.92 5116.2 2344.7 19485.9 1288.05 5548.47 2286.61 2771.5 10959.8 7894 3048.64 6783.63 3146.3 4845.36 2455.22 793.578 5865.56 2863.26 15104.4 4381.48 6243.68 3614.11 3060.82 829.618 5576.61 661.179 1646.07 1279.29 14037.8 8006.84 996.871 746.16 6030.99 986.72 2629.57 3261.86 1661.64 4554.02 4264.69 884.011 553.293 1357.35 1129.9 4092.88 3012.86 743.68 2794.68 1838.68 971.813 880.429 2485.12 1399.9 539.947 4176.2 2793.47 1382.73 1042.65 1579.81 970.912 1510.36 869.075 1642.9 3202.46 2823.63 2949.21 2754.33 1920.16 601.844 2168.21 1213.66 953.387 483.089 1526.78 1054.93 894.717 1555.57 1022.6 778.022 441.488 745.829 672.785 3002.3 713.457 2608.69 927.802 748.377 1330.15 440.808 1616.05 1172.72 531.746 834.171
internal_count=457229 338698 83793 18913 4114 254905 204879 118531 113662 64880 45471 48849 44589 8631 156030 15243 44178 36153 30522 13612 120587 8025 33606 13589 16910 69073 50026 19664 43154 19409 30362 14799 4899 35443 17005 94185 26402 39872 23376 19653 4869 35958 3900 9784 7507 87362 49411 5459 4160 37951 5631 16496 20017 9900 29538 27732 5359 3723 8211 6646 24738 18343 4527 18046 10769 5785 5892 15509 8273 3282 25919 17182 8737 6671 9562 5986 9647 5328 10589 19773 17335 18156 18085 12713 3761 13772 7620 5693 3066 9257 6464 5322 9781 6420 4927 2769 4174 4447 18438 4634 16130 6089 4548 8412 2910 10181 7461 3254 5372
is_linear=0
shrinkage=0.0214235


Tree=8
num_leaves=100
num_cat=0
split_feature=30 35 30 30 30 35 30 30 3 30 30 6 3 30 30 3 18 30 30 5 38 30 17 6 30 30 30 18 30 7 17 7 13 35 1 13 22 3 30 30 30 30 35 30 21 7 21 13 17 4 17 3 30 7 5 6 30 30 35 22 17 1 35 17 25 3 7 35 30 21 30 2 35 3 35 7 7 38 6 35 3 25 5 18 35 17 6 25 4 1 2 3 27 4 3 25 5 5 2
split_gain=1071.3 472.845 482.479 372.738 356.364 991.767 626.377 418.803 365.152 479.554 427.308 331.48 276.866 264.825 444.438 258.615 247.037 222.56 193.651 181.982 177.678 170.918 201.425 176.952 151.141 176.263 235.962 133.092 115.167 111.733 104.558 103.394 101.506 177.056 105.496 96.8844 89.827 86.6099 82.7041 80.7982 82.6123 80.5138 86.5918 76.1914 74.2049 73.9211 82.0991 71.2971 71.1813 70.6499 70.0776 67.8919 82.7986 69.1544 67.8293 65.7322 65.0694 64.9851 63.3578 53.7861 49.2328 44.5175 50.1944 44.3678 59.4866 43.08 41.376 40.236 36.0523 34.0575 33.1627 32.8905 32.3748 31.7615 31.556 31.199 30.0858 29.9263 27.0649 37.2894 25.8477 25.6473 25.0622 24.4566 34.194 24.4524 22.7553 21.5901 20.9496 29.1773 20.7712 18.2557 20.5745 21.8785 21.8134 15.2834 12.8752 12.2962 11.3885
threshold=0.78342798412464931 25.967713439489671 0.87969320042088717 0.84448280335636572 0.9627108594951268 10.168260905251634 0.93155911914979928 0.97178108117622908 0.022915506859073512 1.6039720602256013 1.3334129708863969 45.51578902476529 0.021098443891732137 1.2885069332318124 1.2272653751018152 0.0098804222571972668 40.665734602742297 1.2272653751018152 1.0510145587416109 0.0046158811965957254 15.563817750000002 0.95941497106682727 0.12623951165680355 62.511620918121146 0.95941497106682727 0.93590090132056269 0.94322991257323385 26.448461031415061 0.83746279628090414 -0.027113359735298791 0.040510815787983469 -0.0016075498916011447 -22.749713608819985 9.8500503203829215 0.00044245865927344227 -61.048582891006035 89.285714285714306 0.017237193465007003 0.81826639665034084 0.88636660554739033 0.89363841267986699 0.85456145584329912 1.0000000180025095e-35 0.99028140474182702 96.428571428571445 -0.0073966977649219138 60.714285714285715 -83.956669410043745 0.053550158945470334 0.039225836746226407 0.032149323790912405 0.0086043842959723123 0.9107453143027161 0.0054670993054992496 -0.0028432468128357122 58.221151333917668 0.9019285235444382 0.96387443214402213 12.614703594771241 67.857142857142875 0.012618741867493363 0.004259300085331783 16.087591117762504 0.14706460037202718 0.023196920056176244 0.022094075791295128 0.0036364991192478192 15.500180631741886 0.96787089916534075 67.857142857142875 0.84913758090639657 -0.89235435288383635 20.649344820649603 0.014493532565713575 29.572956292384792 0.00059229976840904301 0.025963368248154605 10.70798875 44.286181743878309 13.417392593162221 0.018682830431535433 0.054373860060228936 0.00089583090996160836 32.697752269522233 40.884499087332223 0.16061451468560325 64.688527330338118 0.020686051672957565 0.024607450618725317 0.0043976652080466938 -0.73589771422433781 0.0064519007730740032 46.294356722601812 0.013602022475909139 0.0089834127683873204 -0.0037069731811392166 -0.0066754346382208287 0.014412343854246999 -0.34587770319246114
decision_type=2 2 2 2 2 2 2 2 2 2 2 2 2 2 2 2 2 2 2 2 2 2 2 2 2 2 2 2 2 2 2 2 2 2 2 2 2 2 2 2 2 2 2 2 2 2 2 2 2 2 2 2 2 2 2 2 2 2 2 2 2 2 2 2 2 2 2 2 2 2 2 2 2 2 2 2 2 2 2 2 2 2 2 2 2 2 2 2 2 2 2 2 2 2 2 2 2 2 2
left_child=11 2 3 36 5 6 12 45 10 16 13 -1 31 14 -9 30 18 20 -10 50 28 22 51 -24 25 -8 -27 55 38 -19 91 -4 33 34 -5 60 49 -13 80 74 -41 70 -43 57 -11 69 68 -22 -23 59 -12 53 -53 -7 75 -14 -42 77 -38 78 -31 62 -39 64 65 -49 -60 -15 -47 -6 -34 -33 98 -70 90 -35 -66 81 -2 -80 -17 82 -32 -45 -85 97 87 -44 89 -56 -30 -3 94 -94 -93 -61 -76 -63 -68
right_child=1 15 4 32 7 21 24 8 9 44 19 37 27 67 -16 17 -18 29 -20 -21 47 48 23 -25 -26 26 -28 -29 39 35 43 71 41 54 -36 -37 58 61 -40 40 56 42 86 83 -46 46 -48 63 -50 -51 -52 52 -54 -55 88 -57 -58 -59 66 95 -62 85 -64 -65 76 -67 72 -69 73 -71 -72 -73 -74 -75 96 -77 -78 -79 79 -81 -82 -83 -84 84 -86 -87 -88 -89 -90 -91 -92 92 93 -95 -96 -97 -98 -99 -100
leaf_value=0.028161615359524307 0.013612112864204256 0.031256028755872564 0.044968790397145894 0.015877158928318966 -0.0045014776913262812 0.030783242037680708 0.053701310557181504 0.020975722542582852 0.021489891398155415 -0.015838266916507068 0.040340542977533637 0.0098843779598002442 0.026877477329969788 -0.0017481249187439982 0.03585847052699967 0.021093720978771088 0.036143081241068742 0.010453644459289511 0.013223393357529945 0.017359960639911066 0.009291632039101624 0.039629131049298542 0.045442136571646495 0.022368158344125755 0.057650338026278045 0.019330574509127035 0.043966258584753302 0.0067788142630729195 0.0085361164481426964 0.024803238612249871 0.018651051925193233 0.035003350924511373 0.0075095197902886142 0.010885229481235078 0.035006573907395873 0.018337147033388117 0.0060801302126574251 0.0068211261281840921 0.029945683980907779 0.024385713002189387 0.0038022730208246269 0.0020528924649431666 0.012465001282590841 0.027572968562682279 0.0021227472325772117 0.01308851313969606 0.021328397547854719 0.024123257605781039 0.024754240788965477 0.034766921944103447 0.027646306466162902 0.022070548050048062 0.018050637754322023 0.019587139404488967 0.017971386494735748 0.013847549345868434 0.013993330765263198 0.0070261474684234528 0.024808755837882206 0.032345215087196247 0.035831071969888627 -0.012594309859443204 -0.0072383414300206369 0.028110150997103414 0.010722384517281606 0.016314156362971007 0.015655714931402467 0.011301457967968276 0.010104222736155351 0.007789629582987863 -0.0030728685120941235 0.025681963594761287 0.021324494033424575 -0.0017396186251557775 0.010544720397933974 0.0021379628652288905 0.020089274964763607 0.024565803576879524 0.014955130198867465 0.023894848502577053 0.01078306743907859 0.022236436232293637 0.010326382731703516 0.016223062344275056 0.025216342384694137 -0.00073217032844931774 0.0088058739348721247 0.020016574118116616 0.020308878669296246 0.0087776716086766498 0.017603806700934636 0.031273731785472367 0.01942777450700069 0.026834603165681668 0.022897461463963913 0.024806263650164369 0.0043326298523656739 -0.0058048538429026006 0.0086626086830010607
leaf_weight=199.24578284472227 248.58593890815973 260.06028385460377 328.52033489197493 268.72890970110893 206.01323243975639 524.50352972745895 352.0565948933363 18065.526806905866 2279.9190588369966 185.07948575168848 866.08652643859386 260.4564461633563 737.71227025985718 216.25344069302082 971.74451871961355 223.68035052716732 320.67585027217865 238.82872931659222 3044.8227539211512 257.3006415143609 270.6559841632843 309.68028809130192 275.14481986314058 346.4223634749651 327.02611482143402 274.72226287424564 515.51108686625957 273.90828500688076 250.38336934149265 332.40832734107971 308.39453980326653 358.34467075765133 224.20827239751816 365.99565971642733 264.11178757250309 428.34384270757437 220.99190728366375 293.26391681283712 336.59209290146828 344.47998932003975 297.91483623534441 384.97018294781446 370.04546803981066 391.58083629608154 244.52548794448376 416.07182586193085 326.81400689482689 1202.1433333829045 289.51766362786293 238.78780629485846 264.82259428501129 3728.612694837153 6482.6228297650814 499.47563715279102 297.44428329914808 237.19402101635933 9805.5134216025472 307.30111183226109 349.46039032936096 234.88505360484123 439.44487703591585 288.567497625947 193.11592335253954 343.13101092725992 408.32439155876637 452.73957417905331 214.2637088149786 216.13151109218597 205.84761402010918 207.23356349021196 344.18175375461578 355.45621366798878 294.25818498432636 208.38534891605377 205.43304050713778 387.02738633751869 261.45221078395844 261.23334704339504 296.96593005955219 814.20446179807186 230.15944722294807 247.51255910098553 371.3965420126915 377.03609983623028 414.12447422742844 196.22158235311508 278.28721258789301 340.33949415385723 259.09025923162699 347.70321407169104 222.60549728572369 367.48860025405884 445.33132725954056 326.44519560039043 247.76962381601334 291.33196407556534 629.65532443672419 220.35100056231022 225.60404645651579
leaf_count=1189 1561 1479 1672 1624 1425 2982 1706 108233 13791 1445 4401 1769 4211 1429 5262 1364 1750 1504 18926 1566 1750 1672 1422 2086 1439 1665 2633 1741 1637 1902 1903 1955 1470 2367 1474 2596 1466 2004 1959 2074 1978 2595 2359 2295 1707 2625 1974 7175 1708 1339 1491 22282 39577 3025 1850 1466 61879 1996 2064 1324 2362 2182 1422 1952 2619 2818 1331 1297 1311 1330 2407 2060 1798 1405 1335 2582 1611 1562 1862 4832 1477 1513 2392 2337 2466 1414 1833 2104 1599 2252 1411 2085 2681 1887 1466 1718 4224 1624 1455
internal_value=0.0193229 0.0197061 0.0208019 0.0157938 0.0216486 0.024186 0.0338313 0.0202046 0.0208319 0.0162058 0.022179 0.00225324 0.0268215 0.0213592 0.0217358 0.0170097 0.0178664 0.0158134 0.0167642 0.0336704 0.0150634 0.0212735 0.0207078 0.0325953 0.0447561 0.0410563 0.0354114 0.020005 0.013951 0.0238797 0.0216884 0.0349811 0.0114572 0.0146222 0.025373 0.0265459 0.021017 -0.0012992 0.0218789 0.0134174 0.0140467 0.0078845 0.0106908 0.0190673 -0.00560299 0.00944287 0.0122212 0.0198103 0.0324552 0.0237407 0.0373749 0.0200494 0.0195192 0.0253293 0.0111612 0.0237144 0.0136934 0.0158406 0.0165756 0.0223404 0.0310919 -0.00374909 0.00122679 0.020875 0.0198038 0.0219911 0.0187102 0.00476227 0.00862822 0.00164857 0.00109176 0.0303725 0.0157973 0.00413283 0.00838619 0.00639768 0.0143891 0.0181143 0.0200727 0.0215119 0.0158799 0.0162889 0.0141129 0.0231421 0.0209395 -0.00718921 0.0140481 0.0160926 0.0151211 0.0130268 0.0128178 0.0259466 0.0249455 0.0225703 0.0279128 0.0281861 0.00586844 -0.00966709 0.012084
internal_weight=75181.9 73530.7 52281.2 7561.47 44719.7 16216.4 3760.45 28503.3 26932.9 6075.02 20857.9 1651.22 2291.14 19469.7 19037.3 21249.6 5645.42 16923.9 5324.74 1388.21 15484.9 12456 11856.8 621.567 1469.32 1142.29 790.233 1248.81 12546.4 1439.03 4325.67 1042.32 4132.13 2190.1 532.841 1200.2 3429.34 1451.98 790.432 11756 10447.9 1942.03 1373.64 2678.58 429.605 1570.37 1157.12 2938.45 599.198 2124.76 1130.91 11235.2 10211.2 1023.98 1657.26 974.906 10103.4 1495.84 1304.58 1885.97 771.853 1191.52 486.38 2667.79 2324.66 1654.88 1083.59 432.385 830.305 413.247 568.39 713.801 734.126 414.233 1308.08 753.023 669.777 1188.54 1359.76 1111.17 453.84 927.304 679.791 1182.74 791.161 705.14 988.672 710.385 904.238 645.147 472.989 1647.1 1387.03 771.777 615.258 526.217 835.088 508.918 439.868
internal_count=457229 445625 313936 47266 266670 95302 20548 171368 161298 37619 123679 11604 13105 116221 113495 131689 34467 105627 32717 7458 97263 74754 71374 3508 7443 6004 4298 7418 79338 8364 26062 5687 26516 13748 3098 6860 20750 10415 4800 74538 65931 12768 8891 16464 3152 10070 7315 17925 3380 12636 5892 67866 61859 6007 10650 5677 63857 9366 8114 11297 4264 8646 3426 16175 14223 9993 6648 2726 5341 2755 3877 4015 4584 2716 8607 4949 4230 7370 8255 6694 2841 5808 4295 7098 4803 5220 6296 4463 5701 4102 3048 9598 8119 4568 3551 3042 5559 3806 2786
is_linear=0
shrinkage=0.0214235


end of trees

feature_importances:
vix_level_z=132
vix_sma_ratio=98
Sector_Return=30
CMF_20=26
RS_x_regime=26
ADX_14=25
BBL_20_2.0_2.0=22
ROC_10=21
KCLe_20_2=20
stock_beta_60d=20
RSI_x_regime=20
ADX_x_regime=19
Trailing_PE=18
MACDh_12_26_9=17
DMP_14=17
AROONOSC_14=17
BBM_20_2.0_2.0=15
Price_To_Book=15
EV_to_EBITDA=15
MACD_rank=15
MFI_14=14
vol_20=12
STOCHh_14_3_3=12
OBV=12
log_return=11
oc_ratio=10
DMN_14=10
momentum_accel=9
RSI_14=9
MACD_12_26_9=9
hl_ratio=8
AROONU_14=8
EMA_9=8
STOCHk_14_3_3=7
BBU_20_2.0_2.0=7
vix_regime=7
rs_vs_spy_20d=7
RSI_rank=5
market_regime=4
AROOND_14=4
Stock_RS_vs_Sector=4
WILLR_14=3
Vol_rank=3
CCI_20_0.015=2
spy_regime=2

parameters:
[boosting: gbdt]
[objective: binary]
[metric: auc]
[tree_learner: serial]
[device_type: cpu]
[data_sample_strategy: bagging]
[data: ]
[valid: ]
[num_iterations: 1500]
[learning_rate: 0.0214235]
[num_leaves: 110]
[num_threads: 0]
[seed: 42]
[deterministic: 0]
[force_col_wise: 0]
[force_row_wise: 0]
[histogram_pool_size: -1]
[max_depth: 9]
[min_data_in_leaf: 1356]
[min_sum_hessian_in_leaf: 0.001]
[bagging_fraction: 0.841511]
[pos_bagging_fraction: 1]
[neg_bagging_fraction: 1]
[bagging_freq: 6]
[bagging_seed: 400]
[bagging_by_query: 0]
[feature_fraction: 0.415093]
[feature_fraction_bynode: 1]
[feature_fraction_seed: 30056]
[extra_trees: 0]
[extra_seed: 12879]
[early_stopping_round: 0]
[early_stopping_min_delta: 0]
[first_metric_only: 0]
[max_delta_step: 0]
[lambda_l1: 0.26856]
[lambda_l2: 0.0681173]
[linear_lambda: 0]
[min_gain_to_split: 0]
[drop_rate: 0.1]
[max_drop: 50]
[skip_drop: 0.5]
[xgboost_dart_mode: 0]
[uniform_drop: 0]
[drop_seed: 17869]
[top_rate: 0.2]
[other_rate: 0.1]
[min_data_per_group: 100]
[max_cat_threshold: 32]
[cat_l2: 10]
[cat_smooth: 10]
[max_cat_to_onehot: 4]
[top_k: 20]
[monotone_constraints: ]
[monotone_constraints_method: basic]
[monotone_penalty: 0]
[feature_contri: ]
[forcedsplits_filename: ]
[refit_decay_rate: 0.9]
[cegb_tradeoff: 1]
[cegb_penalty_split: 0]
[cegb_penalty_feature_lazy: ]
[cegb_penalty_feature_coupled: ]
[path_smooth: 0]
[interaction_constraints: ]
[verbosity: -1]
[saved_feature_importance_type: 0]
[use_quantized_grad: 0]
[num_grad_quant_bins: 4]
[quant_train_renew_leaf: 0]
[stochastic_rounding: 1]
[linear_tree: 0]
[max_bin: 255]
[max_bin_by_feature: ]
[min_data_in_bin: 3]
[bin_construct_sample_cnt: 200000]
[data_random_seed: 175]
[is_enable_sparse: 1]
[enable_bundle: 1]
[use_missing: 1]
[zero_as_missing: 0]
[feature_pre_filter: 0]
[pre_partition: 0]
[two_round: 0]
[header: 0]
[label_column: ]
[weight_column: ]
[group_column: ]
[ignore_column: ]
[categorical_feature: ]
[forcedbins_filename: ]
[precise_float_parser: 0]
[parser_config_file: ]
[objective_seed: 16083]
[num_class: 1]
[is_unbalance: 0]
[scale_pos_weight: 2.48591]
[sigmoid: 1]
[boost_from_average: 1]
[reg_sqrt: 0]
[alpha: 0.9]
[fair_c: 1]
[poisson_max_delta_step: 0.7]
[tweedie_variance_power: 1.5]
[lambdarank_truncation_level: 30]
[lambdarank_norm: 1]
[label_gain: ]
[lambdarank_position_bias_regularization: 0]
[eval_at: ]
[multi_error_top_k: 1]
[auc_mu_weights: ]
[num_machines: 1]
[local_listen_port: 12400]
[time_out: 120]
[machine_list_filename: ]
[machines: ]
[gpu_platform_id: -1]
[gpu_device_id: -1]
[gpu_use_dp: 0]
[num_gpu: 1]

end of parameters

pandas_categorical:[]
