tree
version=v4
num_class=1
num_tree_per_iteration=1
label_index=0
max_feature_idx=18
objective=lambdarank
feature_names=hl_ratio_xs Vol_rank vol_20 vol_20_xs dist_52w_low_xs dist_52w_low stock_beta_60d_xs Beta_rank EMA_21 stock_beta_60d hl_ratio dist_52w_high_xs dist_52w_high EV_to_EBITDA_xs KCBe_20_2 OBV_xs BBB_20_2.0_2.0_xs vol_x_vix_xs OBV
feature_infos=[-2.214815616607666:25.469331741333008] [0.00051493308274075389:1] [0.00060160137945786119:1.0922716856002808] [-2.2738132476806641:29.788825988769531] [-5.8327398300170898:41.8057861328125] [-3.061229944229126:3352] [-29.293163299560547:20.488786697387695] [0.00051150895887985826:1] [-6.7310810089111328:0.895011305809021] [-25.335289001464844:20.396919250488281] [0:0.9834710955619812] [-6.1882061958312988:2.3993852138519287] [-0.99995648860931396:0] [-42.644523620605469:32.425983428955078] [-5.9908161163330078:0.89079487323760986] [-43.605682373046875:41.373180389404297] [-1.868409276008606:36.728187561035156] [-2.277677059173584:29.662006378173828] [-146.3905029296875:243.10755920410156]
tree_sizes=3068 3052 3062 3053 3053 3059 3068 2834 3064 3058 3042 3044 3069 3085 3058 3071 3075 3064 2952 3085 3087 3096 3074 3105 3071 2972 3075 3089 3065 3088 3082 2973 3096 3065 3092 3102 2863 3081 2952 3114 2976 2756 2958 2524 2849 2867 3090 2767 2996 3103 2980 3091 3105 3089 3096 3100 2853 3107 3101 2938 3095 3017 3113 3071 3111 3121 3114 2862 2743 2900 2995 3111 3116 3099 3095 2764 2758 2763 2537 2409 3112 2285 2947 2981 2988 3123 2884 3120 2509 2870 2523 2403 2993 2524 2416 2415 2517 2630 2874 2632 2162 2510 2784 2845 2899 2991 2561 2968 3017 2986 2995 2666 2835 2631 3127 2400 2644 2892 2072 2414 2411 1959 2418 2419 2099 1940 1839 1826 2417 2635 1938 2162 2327 1388 1955 2078 2058 2045 1964 1871 2195 1386 2421 1836 1849 1961 2428 1736 1822 2054 2323 1827 1609 1836 2065 1378 1153 1836 1275 1621 2076 2060 1831 2190 2065 2659 2653 1952 1594

Tree=0
num_leaves=26
num_cat=0
split_feature=1 11 0 0 12 17 1 1 1 0 0 6 14 12 13 6 15 11 11 12 8 6 1 11 1
split_gain=867.322 153.328 91.6963 65.6653 29.1192 25.6771 25.0687 16.0765 14.1035 9.37862 8.75065 7.09097 6.83278 6.02547 5.99734 4.86548 4.86465 4.46019 4.18489 4.02512 3.93789 3.89149 4.16391 3.70575 3.05024
threshold=0.6575935184955598 -0.24120865017175672 0.31569908559322363 -0.38630916178226465 -0.54302144050598133 -0.44415670633316034 0.87117496132850658 0.54632332921028148 0.037719495594501502 -0.049084693193435662 -0.28865844011306757 -0.43038882315158838 -0.033687639981508248 -0.47905926406383509 0.0040163274388760337 0.70001074671745311 -0.31352610886096949 -0.21163517981767652 -0.5254298448562621 -0.45168161392211909 -0.044702624902129166 1.16003954410553 0.68964293599128734 0.5408957600593568 0.91763299703598034
decision_type=2 2 2 2 2 2 2 2 2 2 2 2 2 2 2 2 2 2 2 2 2 2 2 2 2
left_child=1 10 4 5 20 23 21 12 -7 16 14 -9 -5 -11 19 18 -6 24 -12 -1 -2 22 -4 -3 -8
right_child=2 3 6 7 9 8 17 11 -10 13 15 -13 -14 -15 -16 -17 -18 -19 -20 -21 -22 -23 -24 -25 -26
leaf_value=0.0066527802688461637 0.011538153100343633 -0.018269180016874744 0.0043469698108461663 -0.0038428746423145514 0.0097770942544669129 -0.028298355736533273 0.014569256311956585 0.0079885692518103409 -0.013980358969697937 -0.0024378016118308116 0.010805974208294296 -0.0040371717938083194 -0.010992845657753566 0.0080742597065384912 0.0097518014057154014 -0.00021718671861286639 0.00036613778362741962 0.024096362066104618 0.0032621537071828438 -0.0054672027750725374 0.020883173302825912 0.0074105381293442258 0.014057626102894334 -0.026101961502795701 0.019545029438824024
leaf_weight=21.305807380507758 82.988437053340022 96.616985676118929 38.843884986832563 118.88013487164426 41.339040022234258 53.45661452362765 167.87449523175746 39.535752397554461 906.16816273231234 42.59572143900732 155.11460682999314 219.75158374308376 646.75510504416889 344.87293008255801 27.479818701831391 61.140097591385711 427.23534189042402 156.77038884422655 86.327015047441819 116.34906149454764 76.203713568997046 123.53570999684598 375.04135394348486 217.12674278753548 486.52586196453922
leaf_count=7616 20319 57517 12549 46135 10357 46302 46263 17945 440189 10579 50515 89899 287583 112883 7850 18613 155395 42210 29851 51539 17661 37822 109313 130208 116322
internal_value=1.10703e-06 -0.0101929 0.0119293 -0.0130407 0.00581361 -0.0171124 0.0165121 -0.00795035 -0.0148499 0.00382397 0.00378817 -0.00213355 -0.00990278 0.00690146 -0.00115237 0.00648436 0.00124939 0.0195175 0.00818186 -0.00348404 0.016276 0.011903 0.0131851 -0.0238573 0.0183316
internal_weight=5129.83 2766.01 2363.83 2298.29 1015.24 1273.37 1348.59 1024.92 959.625 856.043 467.716 259.287 765.635 387.469 165.135 302.582 468.574 811.171 241.442 137.655 159.192 537.421 413.885 313.744 654.4
internal_count=1973435 1281762 691673 1115778 327194 674216 364479 441562 486491 289214 165984 107844 333718 123462 67005 98979 165752 204795 80366 59155 37980 159684 121862 187725 162585
is_linear=0
shrinkage=0.0268302


Tree=1
num_leaves=26
num_cat=0
split_feature=3 3 5 12 12 3 0 0 12 0 5 0 12 0 17 17 2 12 4 4 8 4 12 12 8
split_gain=2886.58 273.524 209.503 73.8256 69.5379 36.5274 28.6859 24.4136 24.267 24.7381 23.9143 20.4582 14.8122 13.0028 12.1429 10.8269 9.37325 9.0996 8.64574 7.03962 6.87328 5.40249 5.08977 4.74843 2.96807
threshold=0.38532191514968878 -0.18471373617649076 0.7769230604171754 -0.52490732073783863 -0.34097306430339808 -0.42919582128524775 -0.064316689968109117 0.83283647894859325 -0.56226629018783558 0.28831745684146887 0.43432180583477026 1.1222310066223147 -0.2886038869619369 0.4042619019746781 0.86638337373733532 1.3455555438995364 0.0088674998842179793 -0.25792267918586725 0.34123046696186071 0.86442667245864879 -0.040299450978636735 0.030077882111072544 -0.42713342607021326 -0.35756036639213556 -0.036481479182839387
decision_type=2 2 2 2 2 2 2 2 2 2 2 2 2 2 2 2 2 2 2 2 2 2 2 2 2
left_child=1 5 7 24 19 16 23 8 20 -10 15 13 -7 -6 -13 -9 -1 -12 -8 -4 -2 -14 -18 -5 -3
right_child=2 3 4 6 11 12 18 10 9 -11 17 14 21 -15 -16 -17 22 -19 -20 -21 -22 -23 -24 -25 -26
leaf_value=-0.037074970177036738 0.0012918004223593336 -0.0019137924698327815 -0.0021367303095582097 -0.01276062002451865 0.0080249298571179271 -0.015439301687474496 -0.012365236227137377 0.00086516387512204607 -0.01120294019390993 0.00097754176849679155 0.0056107314733763927 0.019079341666741838 -0.026713545935333743 0.014688290578724825 0.014217235150473411 0.010357623360806369 -0.0094995311213639851 0.014535139147297779 -0.0043185802846093585 0.0063855633811628672 0.0096875588690924982 -0.019405919437863121 -0.030100543967457274 -0.020687377743829363 0.0042566468292523892
leaf_weight=239.22317014945656 111.22066781318426 88.624978098161591 144.83811848703044 82.630646063957101 265.23564374429407 146.84090132301935 557.2578059574289 390.20893099126624 167.34595701129092 407.30146938503458 125.22908669680328 1465.1491173153045 548.00770143896079 1333.2828560600683 560.72200582057121 109.33743578035501 12.035489296002195 275.6146919123421 121.96413715530434 129.98714840628963 197.13566430371793 127.36382047906227 621.95624567434425 426.93536890310861 143.05115592805123
leaf_count=168663 26995 25167 33945 35238 29598 64347 194939 64003 57532 33330 20446 23143 329277 25435 7570 13619 4559 5235 39462 19742 16088 75151 437777 203350 18824
internal_value=8.41095e-05 -0.0206599 0.011463 -0.0119404 0.014946 -0.0279362 -0.0146363 0.00383607 0.000657636 -0.0025949 0.00693913 0.0159322 -0.0236867 0.0135985 0.0177537 0.00298937 -0.0318579 0.0118057 -0.0109458 0.00190126 0.00670414 -0.0254139 -0.0297522 -0.0194745 0.00188521
internal_weight=8798.5 3115.89 5682.61 1420.46 3899.21 1695.43 1188.79 1783.39 883.004 574.647 900.39 3624.39 822.212 1598.52 2025.87 499.546 873.215 400.844 679.222 274.825 308.356 675.372 633.992 509.566 231.676
internal_count=1973435 1596754 376681 516980 139433 1079774 472989 237248 133945 90862 103303 85746 468775 55033 30713 77622 610999 25681 234401 53687 43083 404428 442336 238588 43991
is_linear=0
shrinkage=0.0268302


Tree=2
num_leaves=26
num_cat=0
split_feature=1 11 1 0 0 12 17 17 0 1 14 2 12 11 13 2 8 13 17 10 10 13 10 12 0
split_gain=2652.85 200.218 172.446 103.331 41.8223 40.9862 35.0035 27.052 23.3248 22.6471 20.9668 13.5048 13.1301 10.0213 8.91428 5.79832 5.74996 4.48054 4.22169 3.32228 3.14761 3.08812 2.34673 2.07849 1.72152
threshold=0.79319766163826 -0.21163517981767652 0.4907736480236054 0.43686403334140783 0.31569908559322363 -0.45168161392211909 0.99316293001174938 0.10397781059145929 -0.078584842383861528 0.18234470486640933 0.094865098595619216 0.036632491275668151 -0.34097306430339808 -0.10103792697191237 0.0039635675493627795 0.026451938785612587 0.044296888634562499 0.0030713625019416217 0.38289242982864385 0.017967781983315948 0.02397730574011803 0.0040087515953928241 0.022662184201180938 -0.41608804464340204 0.26276886463165289
decision_type=2 2 2 2 2 2 2 2 2 2 2 2 2 2 2 2 2 2 2 2 2 2 2 2 2
left_child=2 6 9 4 20 18 11 10 19 -1 -5 21 -13 23 17 -10 -9 -8 24 -7 -3 -2 -15 -11 -4
right_child=1 3 5 7 -6 8 14 16 15 13 -12 12 -14 22 -16 -17 -18 -19 -20 -21 -22 -23 -24 -25 -26
leaf_value=-0.034417486306480019 -0.0073750822580227367 -0.018332314470833867 -0.0084607396973144771 0.013712136935324696 0.0095734060672273014 -0.025607282184987035 0.010796774555290656 0.013669655175694196 -0.015918114422237638 -0.01154513574009374 0.018729339292213352 -0.000636218800987213 0.0065935036547017977 -0.029804113233067732 0.015500947484715687 -0.0099815453683104235 0.0098489824051286642 0.0042435416391332983 0.0044697220167404595 -0.019807368903480223 -0.009022546270865222 0.0010681928556600297 -0.025154734239915551 -0.021369554365254527 -0.0031503096833157412
leaf_weight=441.16642276152561 189.20780910205212 39.775981614511693 105.85669778479132 1223.735685980937 113.92115342441684 150.67052116464401 115.21272488709656 524.14544870998361 312.4612389765789 30.490017694719427 1291.0791581005324 680.54105849365078 243.38478909964033 412.61376682253103 104.09359838743694 229.13591789798011 754.8161950676149 233.78593951114453 29.01781944729737 371.89135522750803 112.3959917913453 35.707110210030805 295.50975996438137 133.50547298777383 86.107521759477095
leaf_count=359700 51700 15883 38761 24798 7484 83986 12284 9143 133838 13887 12983 153691 28266 291706 12495 94482 12305 34273 3989 213063 39618 8863 212875 75031 28331
internal_value=7.20717e-05 0.0103727 -0.0223598 0.0135407 -0.00258883 -0.0153194 0.00233326 0.0146739 -0.0175016 -0.0292063 0.0163047 -0.000158691 0.0012764 -0.0264794 0.00862749 -0.0134679 0.0114401 0.00647582 -0.00471966 -0.0215952 -0.0117247 -0.00602148 -0.0279598 -0.0197564 -0.00616525
internal_weight=8260.23 5661.8 2598.43 4059.87 266.093 1285.14 1601.93 3793.78 1064.16 1313.29 2514.81 1148.84 923.926 872.119 453.092 541.597 1278.96 348.999 220.982 522.562 152.172 224.915 708.124 163.995 191.964
internal_count=1973435 423786 1549649 122214 62985 596450 301572 59229 525369 953199 37781 242520 181957 593499 59052 228320 21448 46557 71081 297049 55501 60563 504581 88918 67092
is_linear=0
shrinkage=0.0268302


Tree=3
num_leaves=26
num_cat=0
split_feature=3 5 1 11 0 0 0 1 11 0 13 13 11 0 11 5 13 11 11 13 5 13 5 14 11
split_gain=2406.49 180.343 159.118 58.3918 36.1743 33.4618 22.1607 19.781 17.9265 13.0465 12.1537 11.6211 11.3469 9.84669 8.95457 11.4005 8.93027 8.01127 6.97284 6.44209 5.70072 5.51846 1.36171 0.982305 0.714043
threshold=0.38532191514968878 0.7769230604171754 0.4907736480236054 -0.27177904546260828 0.83283647894859325 -0.032634889706969254 0.62866652011871349 0.18234470486640933 -1.0151320695877073 0.43686403334140783 0.0034343244042247538 0.0037545443046838049 -0.69670605659484852 0.43686403334140783 -0.65142753720283497 0.8865739405155183 0.0040031266398727903 -0.10103792697191237 -0.10103792697191237 -0.07506259903311728 0.98885515332221996 0.0039871914777904758 0.40176244080066686 -0.12120037525892256 -1.439148426055908
decision_type=2 2 2 2 2 2 2 2 2 2 2 2 2 2 2 2 2 2 2 2 2 2 2 2 2
left_child=2 4 7 16 8 12 9 -1 21 -5 -8 18 24 -10 23 -16 19 -9 -6 -3 -14 -2 -19 -7 -4
right_child=1 3 5 6 11 14 10 17 13 -11 -12 -13 20 -15 15 -17 -18 22 -20 -21 -22 -23 -24 -25 -26
leaf_value=-0.033530174836613795 -0.0013214668752062066 0.0068977863708238477 -0.0072602620798139393 0.0016295429669289198 0.0015051952619992239 -0.0016920211126807848 0.01584057383263212 -0.019444774951685416 -0.01433339476099078 0.011350947117302859 0.01189567950344895 0.011373814789361357 -0.022476697936039083 -0.0023714051294090642 -0.016137802752455868 -0.0064762098274253757 0.011403092950421464 -0.028809292615000315 0.0075399466309035721 -0.0012702850708848626 -0.013181567566589256 0.007978462158493068 -0.024551197903452879 -0.0072146921365385001 -0.013117268089185754
leaf_weight=410.45908029099792 278.18269392651837 97.230365503230132 35.986657328416186 138.62193229541845 420.39006145315034 29.726059875114515 2378.6767513662253 152.45853346847616 129.0888992429791 365.64346952640881 804.92464195675348 172.92499122783192 429.83880678650166 82.546810314982395 288.70818248506021 134.93987331604967 74.510924315341981 397.06668717066623 205.44132082912529 226.74142549629323 69.568483040019601 52.517559092535521 269.3734009415266 223.95655248819457 83.066403515909769
leaf_count=359700 64050 10968 13346 25992 83880 10762 23748 88918 48775 6357 12308 14203 261496 13245 134295 56747 8079 302569 5220 51981 42746 7875 202012 84339 39824
internal_value=9.85358e-05 0.0101657 -0.0215271 0.0129662 0.00162168 -0.0149151 0.0140204 -0.028451 -0.0037124 0.00870596 0.014854 0.0052482 -0.0194473 -0.00976307 -0.0107179 -0.0131224 0.00317533 -0.0258108 0.0035131 0.00120242 -0.0212579 0.000191008 -0.0271872 -0.00660354 -0.011554
internal_weight=7952.59 5427.44 2525.15 4086.35 1341.09 1295.79 3687.87 1229.36 542.336 504.265 3183.6 798.756 618.46 211.636 677.331 423.648 398.483 818.899 625.831 323.972 499.407 330.7 666.44 253.683 119.053
internal_count=1973435 376681 1596754 139433 237248 643555 68405 953199 133945 32349 36056 103303 357412 62020 286143 191042 71028 593499 89100 62949 304242 71925 504581 95101 53170
is_linear=0
shrinkage=0.0268302


Tree=4
num_leaves=26
num_cat=0
split_feature=3 11 3 4 10 0 16 11 7 0 3 4 3 4 13 12 12 11 4 11 3 4 4 12 12
split_gain=2132.13 148.343 143.83 44.0545 30.2621 28.9629 20.868 17.5566 17.1114 12.8323 15.6202 11.7682 10.8098 10.545 10.085 10.0091 8.7721 8.52679 6.56795 6.35015 4.66351 4.14124 2.11575 1.60393 0.994754
threshold=0.38532191514968878 -0.21163517981767652 -0.24197585880756375 1.0000000180025095e-35 0.079405590891838088 -0.092621602118015275 1.3320065140724184 0.022014919668436054 0.4957892000675202 1.3234502077102663 0.92902591824531566 -0.033601252362132066 0.6020151972770692 1.0197789669036867 0.0039635675493627795 -0.46496270596981043 -0.54302144050598133 -0.69670605659484852 0.30164831876754766 -2.6757979393005367 -0.52163407206535328 0.23731894791126254 0.63871926069259655 -0.42713342607021326 -0.50872588157653797
decision_type=2 2 2 2 2 2 2 2 2 2 2 2 2 2 2 2 2 2 2 2 2 2 2 2 2
left_child=2 4 7 9 13 17 12 23 -8 10 -3 20 -5 16 19 -7 -2 24 -17 -6 -9 -19 -13 -1 -4
right_child=1 3 5 6 14 15 8 11 -10 -11 -12 22 -14 -15 -16 18 -18 21 -20 -21 -22 -23 -24 -25 -26
leaf_value=-0.011565916366116537 0.00015031288232109069 -0.0092771878143008031 -0.0060812510489000118 0.0065659367637719221 -0.0027806248431921162 -0.0041168898036877503 0.018391150331898361 -0.033489367450163204 0.012802796207078351 0.0082848937728386314 0.0065976713609260601 -0.023942931819339208 0.01199592268405851 0.0066122427213764134 0.011410512946120298 -0.01367479073188603 -0.0061565506152060885 -0.022089665322231646 -0.0061401270375567984 0.0054536184968209649 -0.027915515700790601 -0.012958547569690494 -0.010392236672585315 -0.02090922164655943 -0.013245528368955569
leaf_weight=27.04355372804639 303.45508944175162 97.196700798605889 28.77687343370053 330.51702898039548 81.1983811470418 144.52700809446833 725.20277925150003 360.17193644215513 966.97866533106571 158.15668909937813 78.398603871766682 242.20603646304517 1632.624519209945 89.083731861788692 184.6351809327607 438.70026996939123 327.77889282261822 341.61111457104926 112.32666081817297 349.30202431814178 385.25156593719294 56.082512246590341 14.935027611136318 193.23909416353854 64.717506399607373
leaf_count=14855 71266 17465 11444 21113 19873 53732 7899 334480 13348 3716 4799 187862 32574 11591 15653 211893 95277 221813 46113 62107 308835 33446 10183 129754 32344
internal_value=9.5297e-05 0.00957207 -0.020833 0.0121621 0.00182479 -0.0141258 0.0130141 -0.0272991 0.0152224 0.00279413 -0.0021756 -0.028867 0.0110926 -0.00190204 0.00618527 -0.0105284 -0.00312972 -0.0191371 -0.0121785 0.00388536 -0.0307117 -0.0208959 -0.0232726 -0.0199146 -0.0112843
internal_weight=7734.12 5324.53 2409.59 3989.07 1335.45 1186.74 3655.32 1222.85 1692.18 333.752 175.595 1002.56 1963.14 720.318 615.136 695.554 631.234 491.188 551.027 430.5 745.424 397.694 257.141 220.283 93.4944
internal_count=1973435 376681 1596754 100914 275767 610785 74934 985969 21247 25980 22264 841360 53687 178134 97633 311738 166543 299047 258006 81980 643315 255259 198045 144609 43788
is_linear=0
shrinkage=0.0268302


Tree=5
num_leaves=26
num_cat=0
split_feature=3 5 1 11 17 12 17 14 5 1 5 5 12 11 1 12 14 12 12 1 3 5 2 12 16
split_gain=1994.46 158.533 133.512 51.0947 45.1419 26.522 23.8112 18.7825 16.938 16.6666 12.9413 9.20559 9.50204 7.23832 6.54402 6.12457 5.29966 4.45254 4.1522 3.52295 3.06873 1.29607 1.19191 1.06784 0.564257
threshold=0.38532191514968878 0.7769230604171754 0.4907736480236054 -0.37322817742824549 1.3455555438995364 -0.34097306430339808 0.40976186096668249 0.094865098595619216 0.8865739405155183 0.14940803498029712 3.7958290576934819 0.45285743474960333 -0.49333180487155909 -0.10103792697191237 0.87117496132850658 -0.63131955265998829 -0.093545768409967409 -0.52490732073783863 -0.16087716072797772 0.91763299703598034 0.01563194859772921 0.9523531198501588 0.09305210039019586 -0.46496270596981043 0.40163585543632513
decision_type=2 2 2 2 2 2 2 2 2 2 2 2 2 2 2 2 2 2 2 2 2 2 2 2 2
left_child=2 4 9 16 11 17 7 -5 18 -1 -8 12 -2 23 -13 22 -3 24 -7 -18 -10 -19 -6 -11 -4
right_child=1 3 5 6 15 8 10 -9 20 13 -12 14 -14 -15 -16 -17 19 21 -20 -21 -22 -23 -24 -25 -26
leaf_value=-0.032645860416986555 -0.0012196603462664814 0.0076855476571355665 -0.0048559213434884634 0.011237134212694511 0.009374605596639482 -0.016370305812480935 0.0077501561980041602 0.016198676953021098 -0.01358045011873725 -0.0087702824014977768 0.013547664023996042 -0.0052588575044216898 -0.0081261175901179931 -0.026082653661672121 0.0036657146619549531 0.0037440116624745117 -0.0053237709274509956 -0.010678466658734044 -0.021371013686973216 0.0016891013828209613 -0.0067123323765725046 -0.0020649788977921495 0.014192312520499878 -0.019464601744355454 -0.00074067880108888765
leaf_weight=311.36022044529545 330.46513586644323 75.511227383311052 88.700619965029546 920.58247672751622 104.59100844556815 313.09355360195968 838.81816334923496 1511.2512643863665 94.851510212162793 14.47076405293228 430.91873511443555 76.289653067595282 254.37408800878711 686.15030202179696 234.77659170725929 97.479964334648685 70.151324129519708 215.8808468796251 318.94794402098432 175.46650350294294 115.51227660482255 15.844632311338499 112.29678805253934 131.41330535878569 36.904199445698396
leaf_count=297018 89730 15281 32981 31311 10971 182499 19889 14411 56355 7944 6499 17483 69946 563379 32608 9100 19794 109751 188963 32248 52852 7007 7410 84858 13147
internal_value=0.000105364 0.00931716 -0.0204546 0.0118774 0.000797856 -0.0141489 0.0127677 0.0143348 -0.0167549 -0.0270246 0.00974224 -0.00227144 -0.00425059 -0.0248295 0.00144199 0.00950771 0.00158544 -0.00792485 -0.0189703 -0.000331084 -0.00994364 -0.0101321 0.0120128 -0.0185863 -0.00371155
internal_weight=7576.1 5232.97 2343.13 4022.7 1210.27 1199.74 3701.57 2431.83 842.405 1143.39 1269.74 895.905 584.839 832.034 311.066 314.368 321.129 357.33 632.041 245.618 210.364 231.725 216.888 145.884 125.605
internal_count=1973435 376681 1596754 139433 237248 643555 72110 45722 480669 953199 26388 209767 159676 656181 50091 27481 67323 162886 371462 52042 109207 116758 18381 92802 46128
is_linear=0
shrinkage=0.0268302


Tree=6
num_leaves=26
num_cat=0
split_feature=3 0 1 12 17 0 1 4 4 17 12 4 4 12 10 10 12 4 4 4 12 12 12 12 4
split_gain=1889.25 152.247 121.536 77.0688 38.9221 23.6485 17.2306 16.9115 16.1916 11.9733 8.97236 7.40457 7.16783 5.76734 5.35168 5.11759 5.0645 3.91608 3.13496 2.41659 2.27337 0.839076 0.736863 0.684951 0.328734
threshold=0.38532191514968878 0.37389510869979864 0.51420319080352794 -0.32481488585472101 0.99316293001174938 -0.14592840522527692 0.18234470486640933 0.050884617492556579 -0.0057501576375216237 0.40976186096668249 -0.45168161392211909 0.34123046696186071 2.105094432830811 -0.35756036639213556 0.028417408466339115 0.11428378149867059 -0.28188414871692652 0.030077882111072544 0.23731894791126254 0.14267343282699588 -0.54302144050598133 -0.39554622769355768 -0.47905926406383509 -0.54302144050598133 0.030077882111072544
decision_type=2 2 2 2 2 2 2 2 2 2 2 2 2 2 2 2 2 2 2 2 2 2 2 2 2
left_child=2 12 6 4 19 13 24 8 -5 -9 23 -12 14 -4 21 -6 22 -18 -15 -3 -16 -2 -8 -7 -1
right_child=1 3 5 7 15 10 16 9 -10 -11 11 -13 -14 18 20 -17 17 -19 -20 -21 -22 -23 -24 -25 -26
leaf_value=-0.031759126955552414 -0.0071099759854721225 -0.0031544778132506957 -0.011413945083509132 -0.00047437585072635028 0.0061008382371895683 -0.0031044593043466138 -0.0086923446457889356 0.01385352031371502 0.010679849137546198 0.010353415116764044 -0.013820157629554398 -0.0056247154460713428 0.0059966032427589203 -0.021632240847645513 -0.0021060627200128021 0.01177281290946035 -0.025715881687306329 -0.019034637283216003 -0.012578976678139646 0.0010212695346193434 -0.0075314770277958168 -0.01476903859865987 -0.018383575285437877 -0.0069750976764751671 -0.021441766359037721
leaf_weight=347.19962626091547 22.493429853107955 331.53413790725608 74.41143243919214 140.4553739412404 250.98859567136969 90.661660290781583 14.586658116735633 2307.3114921809174 274.17369539512583 1092.2378596326744 438.28359277461277 104.48942624972915 26.732429749361472 285.24407746825818 86.097262913765007 234.17001432328834 588.16391127879069 117.36356604055254 46.047971808264265 139.28419348005264 181.70282649978617 76.054717136517866 93.235376283359074 64.295450573688868 25.697789548532455
leaf_count=336333 7572 97002 39715 19520 30277 32943 7795 36885 8130 14827 231291 45748 4189 191494 23527 16175 475882 88506 28011 31302 59245 28030 67291 28378 23367
internal_value=8.43695e-05 0.00908019 -0.020188 0.0104031 0.0035745 -0.0137226 -0.0261594 0.0121104 0.00691151 0.0127381 -0.0106498 -0.0122806 -0.00693056 -0.0189054 -0.00791638 0.00889014 -0.0237602 -0.0246774 -0.0204836 -0.00191253 -0.00583464 -0.0132661 -0.0173218 -0.00481492 -0.0311985
internal_weight=7452.92 5163.24 2289.68 4770.16 955.977 1103.43 1186.25 3814.18 414.629 3399.55 697.73 542.773 393.081 405.703 366.348 485.159 813.35 705.527 331.292 470.818 267.8 98.5481 107.822 154.957 372.897
internal_count=1973435 376681 1596754 254118 174756 597580 999174 79362 27650 51712 338360 277039 122563 259220 118374 46452 639474 564388 219505 128304 82772 35602 75086 61321 359700
is_linear=0
shrinkage=0.0268302


Tree=7
num_leaves=24
num_cat=0
split_feature=3 0 1 5 17 0 17 5 1 14 3 5 5 0 10 10 0 17 10 1 5 1 0
split_gain=1690.15 129.624 112.06 63.5198 37.5187 21.7969 17.7089 19.5402 14.7994 14.3822 6.30372 4.49916 4.19478 4.00498 3.65925 3.4964 2.56445 1.74425 1.71199 0.889258 0.784054 0.460349 0.0910474
threshold=0.38532191514968878 0.37389510869979864 0.4907736480236054 0.7769230604171754 1.3455555438995364 -0.18217447400093076 0.40976186096668249 6.0380990505218515 0.13301518559455874 0.094865098595619216 -0.014828109182417391 1.3147788643836977 0.60529485344886791 -0.23817621171474454 0.12694805860519412 0.024980202317237857 0.31569908559322363 0.62344405055046093 0.018792217597365383 0.89453858137130748 1.7775049805641177 0.61711424589157116 -0.21735710650682447
decision_type=2 2 2 2 2 2 2 2 2 2 2 2 2 2 2 2 2 2 2 2 2 2 2
left_child=2 11 8 4 12 18 9 -8 -1 -5 20 15 -3 -10 -6 22 -12 -17 -4 -13 -7 -20 -2
right_child=1 3 5 6 14 10 7 -9 13 -11 16 19 -14 -15 -16 17 -18 -19 21 -21 -22 -23 -24
leaf_value=-0.031593480249449808 -0.016488965129795523 -0.0022256592144593605 -0.021492865985202336 0.0098264855922401591 0.0067845257458015625 -0.014297142766395743 0.006582788755879353 0.014029317424453474 -0.025055238099536966 0.014093136401066082 -0.010743497254221329 -0.004068959150831674 0.0035984245028472073 -0.019882647706551071 0.012417966124961559 -0.0085215671499567786 -0.0064677321981137861 -0.0031203973406730735 -0.018767363272282674 0.0014537587243272812 -0.0058258297990790098 -0.014521939731995691 -0.0097470820929068218
leaf_weight=261.95302871018976 36.33487751577195 448.04688552289372 154.48725721427763 951.80655794751146 167.43164659192553 275.45869620038138 959.72826968437585 350.0920122674579 602.36649136064443 1572.1364087910515 230.48716358464299 38.650782701719436 108.33651397797075 222.95365988024059 201.37253140378743 155.04956246110669 221.83731233729122 68.018332217194256 114.20688847641577 39.845127582681016 14.225477049149047 128.13631728789551 20.613455674785655
leaf_count=265777 15423 115669 100373 43864 16320 156798 33701 5325 517111 19128 115496 11576 14101 169473 6413 56607 97185 22150 83737 9312 8039 81763 7398
internal_value=-1.2511e-05 0.00847625 -0.0195166 0.00964878 0.00332254 -0.0135802 0.0111715 0.00859775 -0.0256879 0.0124964 -0.0107901 -0.0070389 -0.0010746 -0.0237236 0.00993024 -0.00862159 -0.00869938 -0.00694116 -0.0186926 -0.00126034 -0.0139445 -0.0167008 -0.0145994
internal_weight=7343.58 5117.46 2226.11 4758.95 925.188 1138.84 3833.76 1309.82 1087.27 2523.94 742.009 358.512 556.383 825.32 368.804 280.016 452.324 223.068 396.83 78.4959 289.684 242.343 56.9483
internal_count=1972739 376987 1595752 254521 152503 643391 102018 39026 952361 62992 377518 122466 129770 686584 22733 101578 212681 78757 265873 20888 164837 165500 22821
is_linear=0
shrinkage=0.0268302


Tree=8
num_leaves=26
num_cat=0
split_feature=3 11 1 10 16 11 10 4 13 1 10 4 13 13 11 13 7 10 4 1 12 4 13 13 12
split_gain=1603.01 109.673 103.066 36.7997 29.3079 22.0148 19.1992 16.7084 14.4387 13.5591 13.2196 7.41107 7.33492 6.37793 5.84707 5.33502 5.0377 4.7707 4.0944 3.53448 2.88925 2.29087 0.72749 0.562753 0.292116
threshold=0.38532191514968878 -0.21163517981767652 0.4907736480236054 0.11428378149867059 1.3320065140724184 -0.65142753720283497 0.04363642260432244 0.23731894791126254 0.0040163274388760337 0.13301518559455874 0.032012488692998893 0.16300386190414431 -0.07584707066416739 0.0039635675493627795 -0.10103792697191237 0.0030672487337142233 0.48801648616790777 0.025688194669783119 0.062842812389135375 0.92531788349151622 -0.52490732073783863 1.2362985610961916 0.0032026354456320409 0.0041548376902937898 -0.41608804464340204
decision_type=2 2 2 2 2 2 2 2 2 2 2 2 2 2 2 2 2 2 2 2 2 2 2 2 2
left_child=2 3 9 8 6 20 10 17 11 -1 -3 -2 -8 15 24 -5 -6 -7 -16 -10 22 -9 -4 -22 -11
right_child=1 4 5 13 16 7 12 21 19 14 -12 -13 -14 -15 18 -17 -18 -19 -20 -21 23 -23 -24 -25 -26
leaf_value=-0.030900120220770436 -0.0046118633384618635 -0.011270187965743977 -0.0022510600811562731 0.010892445201249108 0.014000349971461443 -0.021056176020090391 0.012463783131150263 -0.0095912418973903672 0.00098978971424654866 -0.011165134381269131 0.0043864517972273739 0.0011149072753859365 0.0078545635132652655 0.012358841295273461 -0.025345701138872967 0.0031531145113270135 0.011188253272502124 -0.015699215862608348 -0.018006168368792281 0.010183224731423928 -0.0097628773886451452 -0.0014159756509157916 -0.0070793657373730366 -0.003608094442727135 -0.0182866911192783
leaf_weight=256.18407710535394 530.12056484530694 53.269733387249289 79.373833677382208 92.259284192172345 1160.8091894213903 245.22186241547024 337.74260451673763 130.73530876486257 49.96579120784736 22.526478404390218 125.88042358400344 231.75640166982703 1111.5691679828597 152.66968468678533 580.21145240053011 215.72178677792544 935.828530548446 382.05933390439895 96.023493460055761 79.496617189091921 196.45654011088118 32.74681762563705 33.865423534160072 17.262330216930422 112.74603979801759
leaf_count=265777 164056 19440 32224 8510 9414 167552 7261 70682 12866 14187 15082 45942 34111 7729 515637 28642 15393 238414 76893 8541 98255 14568 13647 8049 79867
internal_value=1.01983e-05 0.0082806 -0.0191898 0.00172791 0.0106552 -0.0134397 0.00792712 -0.015869 -0.00145264 -0.0251627 -0.000335769 -0.00286702 0.00894988 0.00786582 -0.0232618 0.00554907 0.012761 -0.0178709 -0.0243758 0.00674465 -0.00748069 -0.00801948 -0.00384263 -0.00932786 -0.017341
internal_weight=7262.5 5077.09 2185.41 1351.99 3725.1 1117.72 1628.46 790.763 891.339 1067.69 179.15 761.877 1449.31 460.651 811.507 307.981 2096.64 627.281 676.235 129.462 326.958 163.482 113.239 213.719 135.273
internal_count=1972739 376987 1595752 276286 100701 643391 75894 491216 231405 952361 34522 209998 41372 44881 686584 37152 24807 405966 592530 21407 152175 85250 45871 106304 94054
is_linear=0
shrinkage=0.0268302


Tree=9
num_leaves=26
num_cat=0
split_feature=3 0 1 11 5 11 13 4 13 1 0 11 5 11 5 4 0 4 11 5 0 13 16 11 11
split_gain=1459.05 115.903 98.588 62.9724 21.2936 20.6477 20.6406 15.9558 15.1217 13.1327 11.4381 6.66658 5.69283 5.6074 4.07293 3.94212 3.90053 3.83089 4.30133 2.55266 1.98244 0.628186 0.590837 0.481328 0.290835
threshold=0.38532191514968878 0.37389510869979864 0.4907736480236054 -0.21163517981767652 1.3982045054435732 -0.65142753720283497 0.0039635675493627795 0.021035055629909042 -0.074121017009019838 0.13301518559455874 1.9489151239395144 -1.3606403470039365 0.98885515332221996 -0.10103792697191237 0.8865739405155183 0.062842812389135375 -0.23817621171474454 1.5749628543853762 -1.0151320695877073 0.71149173378944408 0.14737693220376971 0.0039325663819909104 0.5491081476211549 -1.439148426055908 -0.79473426938056935
decision_type=2 2 2 2 2 2 2 2 2 2 2 2 2 2 2 2 2 2 2 2 2 2 2 2 2
left_child=2 17 9 6 14 20 10 16 -6 -1 -3 -8 -9 24 -5 -15 -7 18 21 -20 23 -2 -22 -4 -11
right_child=1 3 5 4 8 7 11 12 -10 13 -12 -13 -14 15 -16 -17 -18 -19 19 -21 22 -23 -24 -25 -26
leaf_value=-0.030071283964484712 -0.0049864416239224895 -0.0016214761307748347 -0.0060987473847463275 0.0046982550464242509 0.015293098612508452 -0.021205779979304874 0.011962246567091696 -0.012841471666360538 0.010695287730680384 -0.011528596551405999 0.0047906157988448677 0.0031918125272194569 -0.0046471540143124277 -0.024552862688444029 0.0085354102340562225 -0.017352384072046662 -0.015718318662889887 0.0018902498819336495 -0.013690481833348568 -0.006832828629022846 -0.0056359289519654649 -6.7835829455088927e-05 -0.001384270925812114 -0.010328845719361343 -0.017828098440244456
leaf_weight=250.4323055882378 106.62187082072342 454.6221241371386 46.355342649956583 318.14876085627839 745.07189564453438 204.92640713353831 212.92702085914789 167.05532742827563 1883.7040358936065 29.782901656752074 353.68175172191332 92.708325634383073 104.23938592795821 569.47779848409482 616.67299240475404 95.419734597318893 301.30242786547387 29.616330825258046 97.09146539775611 84.48627589186799 132.53652870768201 24.463775357085979 33.702226802983205 112.58042874662715 103.93354744996759
leaf_count=265777 37692 121963 20181 15615 6503 153041 15814 100851 24021 18202 48948 11850 51958 515637 9807 76893 185366 6402 43732 27526 58245 7114 13605 60144 75852
internal_value=1.94277e-06 0.00792557 -0.0184698 0.009029 0.0107695 -0.0128148 0.00344657 -0.0151965 0.0120125 -0.024368 0.00118554 0.009359 -0.00977415 -0.0224908 0.00724866 -0.0235906 -0.0180358 -0.00710136 -0.00797247 -0.0106493 -0.00703982 -0.00411338 -0.0048273 -0.00922596 -0.0166781
internal_weight=7171.56 5019.82 2151.74 4677.54 3563.6 1102.7 1113.94 777.524 2628.78 1049.05 808.304 305.635 271.295 798.614 934.822 664.898 506.229 342.28 312.663 181.578 325.175 131.086 166.239 158.936 133.716
internal_count=1972739 376987 1595752 254521 55946 643391 198575 491216 30524 952361 170911 27664 152809 686584 25422 592530 338407 122466 116064 71258 152175 44806 71850 80325 94054
is_linear=0
shrinkage=0.0268302


Tree=10
num_leaves=26
num_cat=0
split_feature=0 1 5 1 1 4 16 1 0 10 17 4 5 5 1 1 0 1 0 1 4 4 4 4 4
split_gain=1328.05 108.481 91.6608 50.5095 18.8621 17.9247 12.6429 12.5136 11.9108 10.5025 8.21907 7.13838 6.1842 5.74209 5.24136 5.17428 4.59307 3.77451 3.50886 2.34031 2.26338 1.89112 1.76049 1.53791 1.34469
threshold=0.37389510869979864 0.58541956543922435 0.98885515332221996 0.9098990559577943 0.29707960784435278 0.039844108745455749 1.3320065140724184 0.80074280500411998 -0.20550598204135892 0.11428378149867059 1.0680010914802553 2.105094432830811 0.47186374664306646 0.7769230604171754 0.80861714482307445 0.88678079843521129 3.1805434226989751 0.092724211513996138 -0.32653640210628504 0.61711424589157116 0.73736044764518749 0.43315976858139044 1.5749628543853762 0.0064188970718532809 0.30164831876754766
decision_type=2 2 2 2 2 2 2 2 2 2 2 2 2 2 2 2 2 2 2 2 2 2 2 2 2
left_child=1 4 3 7 17 15 11 19 20 12 -8 -7 -5 -9 24 23 -11 -1 -6 -2 -3 -20 -16 -4 -10
right_child=2 8 5 9 18 6 10 13 14 16 -12 -13 -14 -15 22 -17 -18 -19 21 -21 -22 -23 -24 -25 -26
leaf_value=-0.030519566301143705 -0.013672375798253632 -0.015664098561316737 -0.0061419712033355684 -2.6554769918795055e-06 -0.021579667501936135 0.0067527688879048635 0.013006140194247775 -0.0031586820490080605 -0.011294768194874951 0.01225118960889781 0.0089434089977532567 0.010956703317988757 0.0062562164427366175 0.0039209890184789759 -0.006170933911145266 0.0056554747059327356 0.0063369736136569682 -0.024400497723069077 -0.017517735014289503 -0.0070815477575447696 -0.0043790518818371919 -0.0072007355893258474 0.00093794393410844457 0.001173990220192422 -0.0061162420587482945
leaf_weight=170.42459848791805 60.350826256788423 266.71208152284089 39.940454779054562 209.58009365088583 339.08094245969551 757.65439374331618 1456.3268866546314 268.34220332621408 296.56240494036319 201.86844615146401 519.40545377807575 503.84733810474427 242.89939903681807 116.0116025140378 254.88295847250629 168.29446645283315 202.89515725985621 407.89742186229523 308.35343258255307 153.91122816893403 16.736550214041927 19.388834055702318 26.172771715871932 37.86834433353215 55.827162141911685
leaf_count=187512 39327 166993 12618 48470 287691 41462 23302 75390 164488 11126 9400 12493 20887 7023 96740 11689 13473 384846 229671 70073 7611 12355 6072 4530 27497
internal_value=2.6427e-05 -0.017499 0.00770332 0.00204223 -0.0226596 0.0100653 0.0105965 -0.00392525 -0.0104464 0.00621291 0.011952 0.0084522 0.00336439 -0.00100138 -0.00833082 0.00302861 0.00934996 -0.0263278 -0.0193903 -0.00908473 -0.0150526 -0.0169748 -0.00549377 -0.00260692 -0.0105312
internal_weight=7101.24 2162.04 4939.2 1455.86 1245.15 3483.34 3237.23 598.616 916.894 857.243 1975.73 1261.5 452.479 384.354 633.445 246.103 404.764 578.322 666.823 214.262 283.449 327.742 281.056 77.8088 352.39
internal_count=1972739 1571476 401263 285769 1102075 115494 86657 191813 469401 93956 32702 53955 69357 82413 294797 28837 24599 572358 529717 109400 174604 242026 102812 17148 191985
is_linear=0
shrinkage=0.0268302


Tree=11
num_leaves=26
num_cat=0
split_feature=1 5 1 1 5 11 4 12 4 1 1 11 17 5 4 12 14 5 1 11 11 4 4 12 18
split_gain=1253.19 91.0197 80.4061 34.2622 24.2497 17.2996 15.5714 15.2487 16.3008 9.94177 9.67665 9.24279 8.59752 22.5405 8.44448 8.39055 7.96464 7.00229 4.38926 4.00596 3.74566 3.46061 2.8545 2.35213 0.651168
threshold=0.79319766163826 1.3982045054435732 0.45896291732788091 0.9098990559577943 0.7769230604171754 -0.65142753720283497 0.021035055629909042 -0.24153646081686017 0.73736044764518749 0.13301518559455874 0.90225356817245495 -1.214316666126251 1.3455555438995364 0.6210525929927827 2.105094432830811 -0.6066625416278838 0.04481716267764569 1.0293818712234499 0.97810420393943798 -0.10103792697191237 0.044898577034473426 1.0197789669036867 0.062842812389135375 -0.52490732073783863 -0.0074200122617185107
decision_type=2 2 2 2 2 2 2 2 2 2 2 2 2 2 2 2 2 2 2 2 2 2 2 2 2
left_child=2 3 9 4 11 23 20 8 24 -1 14 -2 13 -5 -9 -14 -10 -8 -12 -11 -7 -6 -21 -4 -3
right_child=1 7 5 12 21 6 17 10 16 19 18 -13 15 -15 -16 -17 -18 -19 -20 22 -22 -23 -24 -25 -26
leaf_value=-0.028635468134621402 -0.0015281525245361993 -0.0020822471254045632 -0.0033038926721628329 -0.0026349790224802004 0.0016129184472856823 -0.014424016767072239 -0.012422141691096924 0.0048558064339151606 0.011849270893307815 -0.015999414350809746 0.010797498229283897 -0.0093904506295402358 0.010315069614390595 0.0071902629132836468 0.011738530452265113 0.002709170475491273 0.002641504082804386 -0.003015466124447638 0.013558235654709915 -0.023567009597639233 -0.019641860640366778 0.007242599050418427 -0.016691576130178597 -0.0086748964233546652 -0.0072055624706186287
leaf_weight=240.89031743853593 202.19548318841407 35.049459467540146 95.217762238607975 261.04027839622358 212.72649810005896 227.71845358001156 169.67454734475541 329.67982734669931 165.0226526933584 107.96691640504469 1391.6997389642129 233.65159508704164 376.16940906489617 462.43228053626444 217.85133871185826 149.08355027773359 118.2989914308564 89.735743563051074 703.95894150511594 509.50752804882541 297.78498081747421 126.28737597924192 82.467850637654919 186.41895536525772 49.146118132994161
leaf_count=265777 69310 7460 40671 73622 28990 152467 106102 20392 13493 79007 20053 90145 22118 30514 4957 12202 7548 42243 4935 477114 219875 5850 68120 97233 12541
internal_value=8.13314e-05 0.00722923 -0.0178303 0.00282165 -0.00160387 -0.0127309 -0.0147859 0.0101859 0.0050001 -0.0235606 0.0109004 -0.00577947 0.00556851 0.00364313 0.00763992 0.00818515 0.00807147 -0.00923913 0.0117409 -0.0217176 -0.017463 0.00375663 -0.0226861 -0.0069148 -0.00523084
internal_weight=7041.68 5034.29 2007.38 2023.59 774.861 1066.55 784.914 3010.71 367.517 940.833 2643.19 435.847 1248.73 723.473 547.531 525.253 283.322 259.41 2095.66 699.942 525.503 339.014 591.975 281.637 84.1956
internal_count=1972739 424130 1548609 332751 194295 658591 520687 91379 41042 890018 50337 159455 138456 104136 25349 34320 21041 148345 24988 624241 372342 34840 545234 137904 20001
is_linear=0
shrinkage=0.0268302


Tree=12
num_leaves=26
num_cat=0
split_feature=3 1 11 17 1 11 13 1 13 1 13 13 3 7 13 11 7 7 12 1 7 13 7 12 11
split_gain=1192.99 84.2794 66.1153 33.3162 20.2214 19.5298 10.8235 9.41696 7.68446 7.50954 6.41232 5.79535 5.55984 5.28076 3.92478 3.74005 3.42276 3.24586 2.6484 2.03341 1.01105 0.772289 0.728273 0.609822 0.0645067
threshold=0.38532191514968878 0.45896291732788091 -0.21163517981767652 1.3455555438995364 0.87905204296112072 -0.65142753720283497 -0.074121017009019838 0.13301518559455874 0.0040273901540786037 0.6495269536972047 0.0032167208846658473 0.0039635675493627795 1.5745367407798769 0.92262065410614025 0.0030713625019416217 0.022014919668436054 0.21919939666986468 0.54287645220756542 -0.52490732073783863 0.92531788349151622 0.1093043014407158 0.0032026354456320409 0.23589782416820529 -0.34097306430339808 -0.5254298448562621
decision_type=2 2 2 2 2 2 2 2 2 2 2 2 2 2 2 2 2 2 2 2 2 2 2 2 2
left_child=1 7 3 8 16 18 12 -1 10 22 -2 14 -6 -8 -5 24 -4 -18 21 -10 -11 -3 -7 -20 -9
right_child=2 5 4 11 6 9 13 15 19 20 -12 -13 -14 -15 -16 -17 17 -19 23 -21 -22 -23 -24 -25 -26
leaf_value=-0.027970337522006349 -0.00068838414033379602 -0.0012313837076268932 0.0087377825218653248 0.0095158858945088038 0.01013955430908965 -0.012079242899931054 0.0096468385770838907 -0.012541359184677308 0.0010419163041156837 -0.0049354205142852171 -0.0069874526950866331 0.01126328822555967 0.014370610686754421 0.0063052312955233693 0.0030108532844119696 -0.022286068310459182 -0.0016030723451633327 0.004243763265923026 -0.0069567940839182019 0.0085872173923572451 -0.011668671054465514 -0.0062063396705342964 -0.01723645672725569 -0.010863564485143473 -0.017645575174219736
leaf_weight=236.84523455141607 611.1451867795513 77.08394053475422 91.827710858276987 102.90341467427788 476.04654060231769 53.702274553836105 1598.0071864252604 41.684966891956719 44.743000684160506 23.932884712376108 142.03092165187991 202.34361710964004 516.51110847477685 467.30017389619752 199.80570440166048 554.89480345088305 85.17386685904421 308.80411824435578 157.86958970613341 64.884743262460688 353.86377591251585 32.052040934708202 389.97501707383526 55.864560899790376 94.838156698790044
leaf_count=265777 171386 32722 6155 8434 13613 38101 29798 28236 11921 12947 45209 8567 4820 9516 23142 519040 8239 28560 82437 7627 209315 13982 288102 28128 76965
internal_value=9.15808e-05 -0.0169665 0.00729537 0.00227634 0.00922886 -0.0120445 0.0100381 -0.0229839 -0.000925864 -0.0142477 -0.00189934 0.00773265 0.0123741 0.00890066 0.00529116 -0.0211804 0.00410381 0.00296852 -0.0063646 0.00562788 -0.0112853 -0.0028265 -0.0166883 -0.00810328 -0.0163552
internal_weight=6984.13 2072.61 4911.53 1367.86 3543.67 1144.34 3057.87 928.263 862.804 821.474 753.176 505.053 992.558 2065.31 302.709 691.418 485.806 393.978 322.87 109.628 377.797 109.136 443.677 213.734 136.523
internal_count=1972739 1595752 376987 276286 100701 705734 57747 890018 236143 548465 216595 40143 18433 39314 31576 624241 42954 36799 157269 19548 222262 46704 326203 110565 105201
is_linear=0
shrinkage=0.0268302


Tree=13
num_leaves=26
num_cat=0
split_feature=0 1 3 12 1 16 10 16 12 13 0 12 12 1 3 3 0 12 12 12 9 12 10 16 2
split_gain=1107.22 90.8966 82.748 30.9076 16.1758 13.5025 12.8565 11.9079 10.9672 7.99235 7.24241 4.72597 4.27166 3.08056 2.87982 2.06231 2.03923 1.19202 0.822295 0.811585 0.530499 0.514116 0.362296 0.342753 0.226653
threshold=0.37389510869979864 0.58541956543922435 0.38532191514968878 -0.19317113608121869 0.28887674212455755 1.3320065140724184 0.07606938481330873 4.6004300117492685 -0.42713342607021326 1.0000000180025095e-35 -0.20550598204135892 -0.34097306430339808 -0.33266945183277125 0.092724211513996138 -0.030053619295358654 0.86302122473716747 -0.32653640210628504 -0.58466377854347218 -0.39554622769355768 -0.46496270596981043 0.50539225339889537 -0.50872588157653797 0.045393144711852081 0.47142133116722112 0.056977335363626487
decision_type=2 2 2 2 2 2 2 2 2 2 2 2 2 2 2 2 2 2 2 2 2 2 2 2 2
left_child=1 4 14 6 13 9 11 -8 17 -5 20 -4 21 -1 18 -12 -14 22 -2 -16 -10 -6 -3 -21 -19
right_child=2 8 3 5 12 -7 7 -9 10 -11 15 -13 16 -15 19 -17 -18 24 -20 23 -22 -23 -24 -25 -26
leaf_value=-0.028591756590950822 -0.0043120400749879686 -0.0032322115345094372 -0.000906675372106264 0.01008889799876086 -0.0044430290419808878 0.011076259391021619 0.007624410949053282 -0.0012220571688983039 -0.0094642678044943411 0.0053460665180662384 -0.010018244654844426 0.0041848133139208874 -0.02073317931087533 -0.022787674344540196 -0.0021437545360042756 -0.0042899466535642992 -0.016639794197125142 -0.0053536169737780324 -0.01231399931370224 -0.0068907769075693152 -0.015882389238846131 -0.012342454222810927 0.00011475552084255887 -0.0028858459323924876 -0.009396797122097714
leaf_weight=161.06046539859017 16.247159388880391 61.265916512460535 271.62810862078913 436.20809315983206 12.190414368938944 1829.212135264097 991.35847201362412 121.63714893756332 26.361988704302348 658.77927103504771 380.82907328472538 248.68997121601205 310.14979506681266 373.99614181866855 58.74483638165475 59.803900656224869 272.9222080240088 108.25191974566405 71.218274850543821 106.48107621642339 210.41027707263493 63.334727127295992 33.240864537016023 27.828333612549613 19.234875182362885
leaf_count=187512 8530 23029 75916 12017 6854 16263 100097 9866 15815 19278 201690 21084 276992 369578 24209 18224 214934 52036 47635 53413 138575 46205 11705 12955 8327
internal_value=7.54625e-05 -0.0162168 0.00712917 0.00800049 -0.0210736 0.00965427 0.00502767 0.00665379 -0.00972837 0.00725658 -0.0114279 0.00152786 -0.0180756 -0.0246606 -0.00696211 -0.00927626 -0.0188989 -0.00445996 -0.0110219 -0.00499221 -0.0152844 -0.011289 -0.00204354 -0.00615237 -0.00615288
internal_weight=6931.09 2093.05 4838.03 4557.51 1193.65 2924.2 1633.31 1113 899.399 1094.99 677.405 520.318 658.597 535.057 280.52 440.633 583.072 221.994 87.4654 193.054 236.772 75.5251 94.5068 134.309 127.487
internal_count=1972739 1571476 401263 254521 1102075 47558 206963 109963 469401 31295 374304 97000 544985 557090 146742 219914 491926 95097 56165 90577 154390 53059 34734 66368 60363
is_linear=0
shrinkage=0.0268302


Tree=14
num_leaves=26
num_cat=0
split_feature=0 1 5 3 1 5 12 4 4 12 0 11 4 11 11 18 0 11 4 5 1 12 4 12 1
split_gain=1006.08 83.0364 74.4439 41.2409 15.716 13.7108 10.7087 9.94346 7.11026 9.03524 6.92115 6.83554 5.73808 5.5018 5.03945 4.88354 4.19035 3.88107 3.59572 3.01951 2.03826 1.13598 0.818051 0.47677 0.229581
threshold=0.37389510869979864 0.58541956543922435 1.3982045054435732 0.6020151972770692 0.24841255694627765 6.0380990505218515 -0.42713342607021326 0.23731894791126254 0.34123046696186071 -0.13905155658721921 1.3234502077102663 -0.15357728302478788 0.73736044764518749 -0.44574941694736475 0.34285473823547369 -0.076200772076845155 -0.23817621171474454 -0.84767779707908619 0.030077882111072544 1.5056694149971011 0.060995632782578475 -0.6066625416278838 0.16300386190414431 -0.50872588157653797 0.80861714482307445
decision_type=2 2 2 2 2 2 2 2 2 2 2 2 2 2 2 2 2 2 2 2 2 2 2 2 2
left_child=1 4 3 12 20 8 21 16 9 -4 11 -5 17 23 -10 -12 -8 -2 -15 -9 -1 -3 -22 -6 -23
right_child=2 6 5 10 13 -7 7 19 14 -11 15 -13 -14 18 -16 -17 -18 -19 -20 -21 22 24 -24 -25 -26
leaf_value=-0.02910165632664543 -0.0026645860107716861 -0.0015917526495874996 -0.00053144279944316133 -0.00059873394247163313 -0.0044755758241863258 0.012438928423902771 -0.016609153463555567 -0.0075905034150127179 0.011155165796461636 0.0075182578772871626 0.0095028934491728813 0.0052966337011943112 0.0024345287701906331 -0.019842330061874941 0.0079351166826073863 0.0049281468631823715 -0.011064531901893543 -0.0083020807170298156 -0.013832971071789584 0.00032376767797667402 -0.02337025129127419 -0.0069116780325994649 -0.013038973037349487 -0.011982127851460349 -0.0040924062086172552
leaf_weight=103.66033309978047 156.77977287397516 80.992118185487925 134.0391692333651 278.62436658951265 12.492547699421264 781.60161536297164 172.42504277777698 113.42376648638492 586.18821710129487 384.37604468101927 239.82677532098751 282.50825081834773 67.319647353368055 514.29961034184271 1033.6140057216471 622.34356897419639 328.11788921218431 215.18044013614781 119.48324580990266 48.047334122697066 323.7615105166733 73.865286177126109 17.50303722335957 81.304752978956458 64.27835428927574
leaf_count=125271 61452 29853 18537 68756 7084 12648 119650 56149 24029 13030 18787 9762 7880 463159 14608 54543 182126 96765 95525 16961 339827 38952 16471 54261 26085
internal_value=-4.70227e-05 -0.015744 0.00669726 0.00249898 -0.0204245 0.00936993 -0.00947336 -0.0111779 0.00823379 0.00543706 0.00471688 0.00237274 -0.00466564 -0.0178341 0.00911733 0.00622758 -0.0130514 -0.00596771 -0.0187712 -0.00524285 -0.024535 -0.00424253 -0.022945 -0.0111558 -0.0057174
internal_weight=6836.06 2053.65 4782.4 1862.58 1172.51 2919.82 881.15 662.014 2138.22 518.415 1423.3 561.133 439.28 727.58 1619.8 862.17 500.543 371.96 633.783 161.471 444.925 219.136 341.265 93.7973 138.144
internal_count=1972171 1571374 400797 317945 1101598 82852 469776 374886 70204 31567 151848 78518 166097 620029 38637 73330 301776 158217 558684 73110 481569 94890 356298 61345 65037
is_linear=0
shrinkage=0.0268302


Tree=15
num_leaves=26
num_cat=0
split_feature=0 3 3 4 17 12 16 0 3 18 12 4 12 12 15 4 12 4 12 4 4 4 16 12 4
split_gain=940.085 74.989 68.0893 31.5002 26.3381 16.4682 13.3465 12.4823 12.1563 6.00116 5.94641 5.35568 3.54578 3.34601 2.7073 2.66448 2.65361 4.32821 2.4852 2.05939 1.48795 0.576436 0.347255 0.323763 0.303914
threshold=0.37389510869979864 -0.18471373617649076 0.38532191514968878 0.013261930085718633 1.3455555438995364 -0.37558685243129725 1.3320065140724184 -0.21735710650682447 -0.48989915847778315 -0.018569374457001683 -0.50872588157653797 0.18516816943883899 -0.28188414871692652 -0.42713342607021326 -0.036274302750825875 0.021035055629909042 -0.34097306430339808 1.0000000180025095e-35 -0.091390077024698244 0.30164831876754766 -0.031801724806427949 0.63871926069259655 0.37014785408973699 -0.52490732073783863 -0.39041624963283533
decision_type=2 2 2 2 2 2 2 2 2 2 2 2 2 2 2 2 2 2 2 2 2 2 2 2 2
left_child=1 8 16 4 18 9 -7 13 20 -5 24 -12 -10 -3 -6 -14 22 -18 -4 -15 -1 -19 23 -2 -9
right_child=2 7 3 5 14 6 -8 10 12 -11 11 -13 15 19 -16 -17 17 21 -20 -21 -22 -23 -24 -25 -26
leaf_value=-0.024750382191725422 -0.0015850768966802979 -0.0065178092006972378 -0.0026171946229048035 0.0070498109241506849 0.010928818148141272 0.0067140691678916386 0.010222395646031363 0 -0.012095902093555178 -7.6183777506296988e-05 -0.010580466232876977 -0.0043312336216479131 -0.019591971012143283 -0.016583075172807719 0.0057727623400604241 -0.013908405106607322 -0.012630967469529844 -0.0054088119891164271 0.003301626040048689 -0.0083891847350901563 -0.018119791548846645 -0.00049439024906523072 -0.00058278185239819585 -0.0054286254900811071 -0.003071333479504417
leaf_weight=365.14974359666121 32.111923473923525 40.567046518199277 396.23893003429839 137.2371018417798 143.0422144542099 1315.4721465279217 2039.783489722693 32.134267657729652 93.696876930178405 215.08860507969803 378.75032996528353 142.899351636348 448.3540628534638 219.44023553196712 182.34911093791015 108.25650861258691 86.244264751656374 53.005958339466815 55.988867115716857 35.355024530883384 67.736365024936276 28.153677897313173 34.253678605131427 46.196138232497105 93.947598950131578
leaf_count=410737 13403 20850 113001 17688 7130 40473 22474 12609 72376 36713 212540 62944 408151 156990 12720 88499 54059 28578 3834 20076 68882 11818 14730 24176 36720
internal_value=-6.68424e-05 -0.0153647 0.00644191 0.00724395 0.002319 0.00827376 0.00885373 -0.00978634 -0.020186 0.00271797 -0.00763989 -0.00890299 -0.0176793 -0.0143825 0.00811344 -0.0185571 -0.00634703 -0.00848953 -0.00186293 -0.0155485 -0.0238261 -0.00381033 -0.00301906 -0.00399095 -0.00231743
internal_weight=6791.45 2026.29 4765.17 4485.2 777.619 3707.58 3355.26 943.094 1083.19 352.326 647.732 521.65 650.307 295.362 325.391 556.611 279.966 167.404 452.228 254.795 432.886 81.1596 112.562 78.3081 126.082
internal_count=1972171 1571374 400797 254033 136685 117348 62947 522729 1048645 54401 324813 275484 569026 197916 19850 496650 146764 94455 116835 177066 479619 40396 52309 37579 49329
is_linear=0
shrinkage=0.0268302


Tree=16
num_leaves=26
num_cat=0
split_feature=3 3 5 10 11 3 4 5 17 11 18 3 8 4 10 11 10 5 4 11 4 4 11 4 11
split_gain=865.989 68.3767 63.0435 28.7589 15.807 14.7491 13.1829 13.1633 24.1362 16.3734 9.43425 8.32662 7.7887 4.81867 3.74225 3.34476 2.86674 2.83748 2.60461 1.13839 1.11021 0.931031 0.900907 0.848111 0.549676
threshold=0.38532191514968878 -0.26878650486469263 1.3982045054435732 0.042833941057324416 -0.69670605659484852 0.80540731549263012 0.23731894791126254 6.0380990505218515 0.40976186096668249 0.5896887779235841 -0.15712133049964902 -0.54715487360954274 0.10738199576735498 0.56166353821754467 0.025332150049507621 -0.15357728302478788 0.026049351319670681 1.3147788643836977 0.030077882111072544 1.0000000180025095e-35 0.0064188970718532809 0.021035055629909042 -1.3606403470039365 -0.015371303539723156 -0.84767779707908619
decision_type=2 2 2 2 2 2 2 2 2 2 2 2 2 2 2 2 2 2 2 2 2 2 2 2 2
left_child=1 11 3 16 21 13 14 8 12 -10 -7 19 -4 -5 -6 -13 24 -8 -17 -1 -21 22 -3 -18 -2
right_child=2 4 7 5 6 10 17 -9 9 -11 -12 15 -14 -15 -16 18 23 -19 -20 20 -22 -23 -24 -25 -26
leaf_value=-0.013932468669267336 -0.0059983811485039501 -0.0034695647669412441 0.0069498160613259514 -0.0033014640517732988 -0.017030550978052113 0.0096514173901547963 -0.0075225297332448321 0.011388193183546095 0.0068079886716637108 -0.0021035438114457706 0.0037708131589354612 -0.012810407506387383 0.010922042357282223 0.0031730199139508378 -0.012225220345723381 -0.020133222856744692 -0.0061363908455758726 0.00027103668385283937 -0.013893026735256782 -0.025238316189867226 -0.015887429703879383 -0.00040566611081795979 -0.0068532141505560354 -0.0025154739155156436 -0.013339113770558013
leaf_weight=20.156927606901263 19.484879533578351 117.23261440516762 660.5665214966466 242.59459142286141 226.32971276989883 250.98815059095068 112.81364170462803 853.37710957807576 326.40230143016379 268.08324557037849 929.17291514066528 96.682321852666064 846.97141553090842 122.29510523020872 369.25549131739172 421.77690901875394 101.54361992795202 46.013019690215515 87.2897439916851 275.99994734886786 28.032997262089339 32.128580810593121 145.1498843496629 103.33344910020787 37.956617635194561
leaf_count=19430 7931 51606 32872 69543 171498 20339 65440 13284 20515 6525 107632 73423 10979 6987 254785 414616 40287 21656 74833 325243 29935 14476 78525 21808 18003
internal_value=-5.50791e-05 -0.0149634 0.00614273 0.00218875 -0.0102221 0.00358566 -0.0122828 0.00855584 0.00739264 0.00279088 0.00504146 -0.0202676 0.00919763 -0.00111508 -0.014118 -0.0181899 -0.0059835 -0.00527147 -0.01914 -0.0239777 -0.0245183 -0.00487503 -0.00539998 -0.00437759 -0.011248
internal_weight=6741.63 1978.86 4762.77 1807.37 1048.92 1545.05 754.412 2955.4 2102.02 594.486 1180.16 929.939 1507.54 364.89 595.585 605.749 262.319 158.827 509.067 324.19 304.033 294.511 262.382 204.877 57.4415
internal_count=1972171 1595466 376705 292530 657986 204501 513379 84175 70891 27040 127971 937480 43851 76530 426283 562872 88029 87096 489449 374608 355178 144607 130131 62095 25934
is_linear=0
shrinkage=0.0268302


Tree=17
num_leaves=26
num_cat=0
split_feature=0 1 1 14 1 3 0 17 9 13 14 9 0 1 15 2 1 2 13 13 0 10 3 2 9
split_gain=828.262 70.6269 61.4659 17.3939 13.8978 10.0643 8.96298 8.7548 13.9387 4.42839 7.5828 5.23363 3.72119 2.84024 2.28741 2.27335 2.09915 1.54742 1.29385 0.828959 0.71643 0.688915 0.252253 0.134922 0.0296577
threshold=0.37389510869979864 0.58541956543922435 0.8554666042327882 0.086937405169010176 0.24841255694627765 0.38532191514968878 -0.21735710650682447 0.92826437950134288 0.56725007295608532 0.0030762333190068607 0.057531157508492477 1.8340710997581484 -0.23817621171474454 0.74587360024452221 0.11523194238543512 0.02011851686984301 0.060995632782578475 0.044584093615412719 0.0032026354456320409 0.0037826525513082747 0.050313919782638557 0.021728546358644966 0.74792420864105236 0.016928551718592647 0.48847362399101263
decision_type=2 2 2 2 2 2 2 2 2 2 2 2 2 2 2 2 2 2 2 2 2 2 2 2 2
left_child=1 4 5 9 16 15 21 8 -5 10 -4 -11 -6 19 17 -2 -1 -7 -17 -8 -15 24 -23 -14 -3
right_child=2 6 3 7 12 14 13 -9 -10 11 -12 -13 23 20 -16 18 -18 -19 -20 -21 -22 22 -24 -25 -26
leaf_value=-0.027470797150500496 -0.010792252347336441 -0.0089186608665852984 0.0080901449516566828 0.013482523067266029 -0.018042762023955931 -0.0014193354454579952 -0.0080224186116065223 0.0059367255311648746 0.0080812803821389192 0.0057172341580612454 0.0007306788513897287 0.0020610577785203821 -0.01504358589504705 -0.0068032651588647514 0.0057644870129558677 -0.0028941167780803219 -0.0213292828650452 0.0033829806358983867 -0.0073174725610495239 -0.012457064365598963 -0.004180567174334876 -0.011216604341059191 -0.0047900387462471161 -0.01187915225758345 -0.015161982307582766
leaf_weight=98.796458469040772 54.212708325369022 16.096887844942103 690.77310392456639 540.41425967573377 458.50216806105345 159.91584271415377 179.56604011010495 540.11299369379412 1019.8139737358724 804.87718871665675 119.80797965542297 444.68819106351111 108.5565548344166 149.99062986801437 61.348295739508103 141.83369612461865 327.34364081025342 66.381269126897678 78.361791856272248 55.40866341072433 218.60202652475527 101.47265287276059 12.064971019481161 137.24430853972535 121.50860613671375
leaf_count=125271 32610 9996 53048 6674 424379 22831 107945 13294 23563 68920 5105 44792 82780 69965 7256 71025 356298 9586 42093 33959 89947 71487 5275 112870 81202
internal_value=-1.70567e-05 -0.014549 0.00609502 0.00721982 -0.0189527 -0.00221993 -0.00868388 0.00894405 0.00997214 0.00545188 0.00701219 0.0044254 -0.0164861 -0.00685036 0.00127452 -0.00587554 -0.0229065 0 -0.00454611 -0.00919803 -0.00529447 -0.0129702 -0.0106776 -0.0134224 -0.0146219
internal_weight=6707.69 1985.15 4722.54 4160.49 1130.44 562.054 854.71 2100.34 1560.23 2060.15 810.581 1249.57 704.303 603.567 287.645 274.408 426.14 226.297 220.195 234.975 368.593 251.143 113.538 245.801 137.605
internal_count=1972171 1571374 400797 215396 1101598 185401 469776 43531 30237 171865 58153 113712 620029 301816 39673 145728 481569 32417 113118 141904 159912 167960 76762 195650 91198
is_linear=0
shrinkage=0.0268302


Tree=18
num_leaves=25
num_cat=0
split_feature=2 16 17 2 11 11 17 16 17 2 13 9 15 13 11 11 6 12 11 17 17 13 17 16
split_gain=661.643 81.0166 47.6922 32.6838 17.1723 15.3953 15.7788 10.2682 7.65687 7.36608 7.3201 6.9191 5.66361 5.56172 3.84101 3.72817 3.24701 2.99615 2.40941 1.29016 1.10118 0.902843 0.218022 0.184474
threshold=0.026451938785612587 1.3320065140724184 -1.0000000180025095e-35 0.017344517633318905 -0.21163517981767652 -0.21163517981767652 1.3455555438995364 -0.071720398962497697 -0.048026204109191888 0.0091392197646200674 0.0039871914777904758 0.56725007295608532 -0.059610312804579728 0.003123656148090959 -0.18295037001371381 -0.79473426938056935 1.5946795940399172 -0.33266945183277125 -0.65142753720283497 -0.23426629602909085 -0.24477072805166242 0.040165908634662635 -0.5315362513065337 0.23308214545249942
decision_type=2 2 2 2 2 2 2 2 2 2 2 2 2 2 2 2 2 2 2 2 2 2 2 2
left_child=3 2 18 9 10 6 -4 -7 17 21 12 -6 -3 -13 -11 23 -17 -5 -2 -20 -16 -1 -19 -10
right_child=1 4 5 8 11 7 -8 -9 15 14 -12 13 -14 -15 20 16 -18 22 19 -21 -22 -23 -24 -25
leaf_value=-0.025398988366978535 -0.0061172630604291751 0.0060344255020552996 -0.0025340091616748925 -0.0081811979924893922 0.011102409494868404 -0.0032387710646840607 0.0066047201190602076 0.0042941946567029675 -0.0052128601251580017 -0.012152170993645522 0.0091081607565115935 0.0057672550974628197 0.00028584664447075603 0.0094740598765187013 -0.021909534417608959 -0.011060629493844048 0 -0.022816898889530469 -0.022492417150464968 -0.013748669694324717 -0.017676489841657622 -0.012969336676598992 -0.016064687899935655 -0.0021540460526872523
leaf_weight=156.08973147463075 20.3867475711304 199.82421616886313 741.26247516443436 40.064589233901643 762.6486772932185 141.89440416025172 163.98036796908127 1346.5042495509233 65.94273680529659 97.06547014309217 158.23685092202504 569.78408630556078 320.76979334315547 655.07381531516148 124.80286282226734 365.1643837556594 20.3930419189237 23.25397675774002 35.496747545839753 57.502461953823513 429.34376909760158 13.657491479665621 139.47245621983166 30.524719774341065
leaf_count=175503 11781 26205 270700 30688 6148 48376 14100 122451 32595 67350 10784 9215 59203 10973 156104 248164 7036 30750 36731 47077 385717 13292 138090 13138
internal_value=-1.00358e-05 0.0045462 0.00108005 -0.0156487 0.0078 0.00189307 -0.000861569 0.00356958 -0.0112382 -0.0192801 0.00408507 0.0090606 0.00251678 0.00776723 -0.0177997 -0.00929154 -0.0104824 -0.015686 -0.0157375 -0.0176027 -0.0187261 -0.0246134 -0.017367 -0.00435705
internal_weight=6679.14 5173.36 2507.03 1505.78 2666.34 2393.64 905.243 1488.4 684.816 820.959 678.831 1987.51 520.594 1224.86 651.212 482.025 385.557 202.791 113.386 92.9992 554.147 169.747 162.726 96.4675
internal_count=1972171 673744 551216 1298427 122528 455627 284800 170827 500461 797966 96192 26336 85408 20188 609171 300933 255200 199528 95589 83808 541821 188795 168840 45733
is_linear=0
shrinkage=0.0268302


Tree=19
num_leaves=26
num_cat=0
split_feature=3 3 4 12 16 4 11 4 13 3 16 4 3 13 11 11 4 11 12 11 4 12 11 4 13
split_gain=716.961 56.6355 45.8989 27.1193 18.1683 14.2269 13.3353 12.2213 8.17237 7.5386 7.07666 11.974 6.62804 6.18644 5.35022 3.04433 3.0186 3.01385 2.84565 2.62028 2.50928 1.72002 1.15181 1.09195 0.678061
threshold=0.35695868730545049 -0.26878650486469263 0.021035055629909042 -0.65928262472152699 1.3320065140724184 3.262174248695374 -0.60777878761291493 1.0000000180025095e-35 0.0039325663819909104 -0.54715487360954274 4.6004300117492685 2.105094432830811 1.0022294521331789 1.0000000180025095e-35 0.16724745184183124 -0.12707971781492231 0.63871926069259655 -2.6757979393005367 -0.45168161392211909 -0.049496738240122788 -0.019051116891205307 -0.52490732073783863 1.0000000180025095e-35 -0.033601252362132066 0.0032026354456320409
decision_type=2 2 2 2 2 2 2 2 2 2 2 2 2 2 2 2 2 2 2 2 2 2 2 2 2
left_child=1 9 3 8 5 13 21 19 17 22 11 -6 18 -4 -14 -11 -9 -2 -5 -8 -17 24 -1 -24 -3
right_child=2 6 4 12 10 -7 7 16 -10 15 -12 -13 14 -15 -16 20 -18 -19 -20 -21 -22 -23 23 -25 -26
leaf_value=-0.012664310810259708 -0.00041233049555094352 -0.00012843595931417005 0.0059575802524365921 -0.0023112866461844554 0.0073800127268917499 0.0097284740509929954 -0.011267076321871409 -0.0087148203914338054 0.011341362685320957 -0.011865009109042528 0.0053836272587673142 0.011893919000159136 -0.0024809271671325625 0.0018144989249564529 0.0057291891956940434 -0.01906376438734822 -0.0021659957344641839 0.0051106594665049684 -0.0078348345403405038 -0.016239338928637846 -0.013581374166789803 -0.0061362403826159479 -0.0240836569016857 -0.016735675735813461 -0.0049706856745043966
leaf_weight=19.436319059246671 106.90043395669272 67.932323066615936 394.88702962077332 108.1128226640958 1079.3910887099591 307.21744819851301 159.30602424502285 199.65177117262738 125.11493881774368 98.779441799350934 451.52889303514894 728.67632088809114 207.23150574306783 769.30269414612849 76.120991568102909 369.831237158357 72.365417960161722 201.58981282953937 198.38999569820226 263.37481606517122 115.45628366757137 205.56210032141098 241.56407773456158 46.755002109549423 28.813017516557011
leaf_count=19430 25384 29864 28301 39651 41209 6699 113522 131273 8078 77894 8182 8625 46450 72596 3968 380607 36458 33287 69387 206320 104371 112364 303058 52120 13073
internal_value=6.42765e-06 -0.0139668 0.00556262 0.000523869 0.00694262 0.0046046 -0.00952785 -0.0115783 0.00560422 -0.0188866 0.00845703 0.00921445 -0.00321209 0.00323223 -0.000233205 -0.0168877 -0.00701982 0.00319659 -0.00593115 -0.0144475 -0.0178396 -0.00475032 -0.0225096 -0.0230515 -0.00169211
internal_weight=6643.29 1888.83 4754.46 1023.46 3731 1471.41 997.005 694.698 433.605 891.822 2259.6 1808.07 589.855 1164.19 283.352 584.067 272.017 308.49 306.503 422.681 485.288 302.307 307.755 288.319 96.7453
internal_count=1972171 1580354 391817 226205 165612 107596 642874 487573 66749 937480 58016 49834 159456 100897 50418 562872 167731 58671 109038 319842 484978 155301 374608 355178 42937
is_linear=0
shrinkage=0.0268302


Tree=20
num_leaves=26
num_cat=0
split_feature=0 1 1 11 1 10 9 11 1 18 0 11 0 11 1 1 11 0 12 3 11 12 12 9 11
split_gain=700.797 60.2712 52.1104 18.3787 12.4889 12.1235 9.65125 8.1577 7.25013 6.07952 4.66134 4.38073 3.42735 2.42516 2.38621 2.07024 1.79525 1.73477 1.62212 1.44673 0.82146 0.648396 0.57683 0.572703 0.530607
threshold=0.37389510869979864 0.58541956543922435 0.8554666042327882 -0.15357728302478788 0.24841255694627765 0.11428378149867059 0.56725007295608532 -0.56622412800788868 0.7616032361984254 -0.0074200122617185107 -0.14592840522527692 -0.18295037001371381 1.7465542554855349 -0.21163517981767652 0.91763299703598034 0.060995632782578475 -0.60777878761291493 -0.23817621171474454 -0.54302144050598133 0.86302122473716747 0.64613077044487011 -0.50872588157653797 -0.56226629018783558 0.50539225339889537 -0.12707971781492231
decision_type=2 2 2 2 2 2 2 2 2 2 2 2 2 2 2 2 2 2 2 2 2 2 2 2 2
left_child=1 4 8 5 15 12 -5 18 16 -7 23 21 -4 22 -8 -1 -2 -13 -3 -12 -15 -6 -10 -9 -17
right_child=2 7 3 6 11 9 14 10 13 -11 19 17 -14 20 -16 24 -18 -19 -20 -21 -22 -23 -24 -25 -26
leaf_value=-0.026112633316228005 -0.0028413642049923142 -0.0021432682585821841 0.00035628376646771584 0.010071266078985258 -0.0033683492247174713 0.0092925875909672419 0.0051618718006384975 -0.0074967049692661247 -0.00033144598515914294 0.0035615502304212573 -0.0085746443222094754 -0.017748856594900945 0.0047821178756960944 0.0033027663696802191 0.0073323139384836745 -0.012090221610729134 -0.0085049322034232624 -0.013614234867328864 -0.0061702538547286486 -0.0024637462426877845 -4.35048791589668e-05 -0.01130359899054526 -0.0039847003721202277 -0.013793886145731585 -0.02043660879200283
leaf_weight=93.47981593645909 69.566920966371981 116.72774099156595 508.33657825941555 949.31272396238637 11.92530333027389 313.70633010740494 551.09237202894656 23.811516638274952 52.213397064229866 242.91252452702975 249.76261043131581 368.53482586765404 166.2208531305987 120.54817715185527 1413.4993408972987 20.383060371985266 116.38522724926133 170.44046298992271 219.63578211785352 35.982040234544911 88.762863012801972 130.72178272916062 86.191548215485454 200.82755395846743 293.04970474325364
leaf_count=125271 32976 45845 106795 9204 7131 17714 15330 15435 18655 24531 140793 366064 23641 17751 18181 18770 74321 148495 112659 11535 7866 98339 33832 143509 337528
internal_value=3.21533e-05 -0.0135369 0.00564956 0.00666538 -0.0177162 0.00389935 0.00782869 -0.00812526 -0.00222826 0.00682387 -0.0102716 -0.0153506 0.00146525 5.73799e-05 0.00673232 -0.0215575 -0.0064682 -0.0165138 -0.00480843 -0.00784451 0.00188199 -0.0107315 -0.0026613 -0.0132281 -0.0200007
internal_weight=6614.03 1935.28 4678.75 4145.08 1088.53 1231.18 2913.9 846.747 533.668 556.619 510.384 681.622 674.557 347.716 1964.59 406.913 185.952 538.975 336.364 285.745 209.311 142.647 138.405 224.639 313.433
internal_count=1972171 1571374 400797 215396 1101598 172681 42715 469776 185401 42245 311272 620029 130436 78104 33511 481569 107297 514559 158504 152328 25617 105470 52487 158944 356298
is_linear=0
shrinkage=0.0268302


Tree=21
num_leaves=26
num_cat=0
split_feature=0 0 5 0 5 11 4 11 17 11 4 12 7 4 12 17 4 5 11 11 12 11 5 11 4
split_gain=639.629 56.8498 53.7107 20.4612 16.0489 13.7748 13.4531 9.50893 9.30292 11.2501 6.52235 7.30981 5.91119 5.71043 4.53551 6.80972 6.09357 4.36466 3.33131 2.04571 1.87207 1.17503 1.02458 0.929593 0.832244
threshold=0.37389510869979864 -0.31724821031093592 1.3982045054435732 1.3234502077102663 6.0380990505218515 -0.56622412800788868 -0.010747824329882858 -0.049496738240122788 1.0000000180025095e-35 0.52701774239540111 -1.0000000180025095e-35 -0.45168161392211909 0.47222970426082617 0.013261930085718633 -0.65928262472152699 1.3455555438995364 -0.0057501576375216237 0.85670065879821788 0.75148624181747448 0.12900661677122119 -0.52490732073783863 0.52701774239540111 1.1256814002990725 -0.84767779707908619 0.20916767418384555
decision_type=2 2 2 2 2 2 2 2 2 2 2 2 2 2 2 2 2 2 2 2 2 2 2 2 2
left_child=1 7 3 10 8 20 19 23 12 -10 11 -2 -4 21 15 -5 -16 -8 -12 -7 -3 -9 -15 -1 -22
right_child=2 5 4 14 -6 6 17 13 9 -11 18 -13 -14 22 16 -17 -18 -19 -20 -21 24 -23 -24 -25 -26
leaf_value=-0.0074915210790772128 -0.00054416432030561393 -0.0016551507664527339 0.0094613979356574559 0.00071581305016900918 0.010740713039476124 -0.011643070863054534 -0.0097652466960262488 -0.01830825800294672 0.0066267836781737635 -0.00099427932030449998 0.0019385168485949219 -0.0078979422045880581 0.0059434376882556905 -0.014435152057227259 -0.0016569506318021487 0.0084934601767366856 0.0045565316674005913 -0.0031608019855959534 -0.0040125219782850127 -0.016152224422726003 -0.0063528018395056498 -0.022084223820221995 -0.0045497056124216015 -0.013271652768000228 -0.00023934471967695074
leaf_weight=41.597490906153325 219.13892261208093 126.70138749804937 615.28588468111047 111.35595300188652 842.59016206652814 184.45772928242059 148.26571218357185 230.87593577150164 320.52296222333098 243.14333728895872 372.12498197840432 174.87306368509417 853.77954254929864 108.75247416945695 159.00174812803562 310.95620202017017 380.85148452730209 148.63635032811817 80.087107836836367 216.78609479311854 197.52359917826107 354.27991521604781 12.266308913580358 124.87975538278442 18.987042141447091
leaf_count=24218 70807 51377 12820 28901 12746 137163 101565 244095 18487 7416 55536 81076 31672 99458 38048 10871 24587 74928 8849 194471 108142 416101 8468 103230 7831
internal_value=-3.32513e-06 -0.0130625 0.00533649 0.00170783 0.00761411 -0.00879001 -0.0109558 -0.018119 0.00630525 0.00334258 -0.00133049 -0.00384501 0.00743227 -0.0195171 0.0043805 0.00646673 0.00272054 -0.00652255 0.000861069 -0.0141693 -0.00432881 -0.0206809 -0.0135699 -0.011975 -0.00584175
internal_weight=6597.72 1914.01 4683.71 1808.39 2875.32 1041.36 698.146 872.652 2032.73 563.666 846.224 394.012 1469.07 706.175 962.165 422.312 539.853 296.902 452.212 401.244 343.212 585.156 121.019 166.477 216.511
internal_count=1972863 1571047 401816 318675 83141 675477 508127 895570 70395 25903 216268 151883 44492 768122 102407 39772 62635 176493 64385 331634 167350 660196 107926 127448 115973
is_linear=0
shrinkage=0.0268302


Tree=22
num_leaves=26
num_cat=0
split_feature=0 3 5 3 5 0 0 17 8 3 7 12 5 16 12 7 12 5 5 0 12 9 12 12 16
split_gain=609.167 55.2482 52.7199 23.8655 14.9524 12.117 8.03963 6.64738 7.79633 6.00948 5.66538 4.97738 4.00431 3.87202 2.92261 2.47389 2.37837 2.9095 1.65851 1.43125 0.177212 0.161597 0.120704 0.102812 0.0443473
threshold=0.37389510869979864 -0.27737545967102045 1.3982045054435732 0.6020151972770692 6.0380990505218515 -0.22809893637895581 1.3234502077102663 1.0000000180025095e-35 0.10738199576735498 -0.52163407206535328 0.47222970426082617 -0.50872588157653797 0.98885515332221996 3.2141203880310063 -0.39554622769355768 0.14262863248586657 -0.56226629018783558 0.9523531198501588 0.91803038120269786 -0.26872019469738001 -0.6066625416278838 1.7284016609191897 -0.37558685243129725 -0.54302144050598133 -0.044770427048206322
decision_type=2 2 2 2 2 2 2 2 2 2 2 2 2 2 2 2 2 2 2 2 2 2 2 2 2
left_child=1 9 3 16 7 14 15 10 -9 24 -4 20 -13 -8 23 -5 21 -18 -16 -11 -7 -2 -21 -3 -1
right_child=2 5 4 6 -6 11 13 8 -10 19 -12 12 -14 -15 18 -17 17 -19 -20 22 -22 -23 -24 -25 -26
leaf_value=-0.021210665535231123 0.00093851950107563939 -0.0032380924041938044 0.009060040982211498 -0.0042604831271483854 0.010391852643062537 -0.00077947175092352974 0.0055938575068217779 0.0062238384728168037 -0.00028365700991286945 -0.017075105802781633 0.0056207702549859297 -0.0090176712164578097 -0.0037468873214142983 0.0009724915506189348 -0.014657427397355139 0.0012423213558888846 -0.0065885546591475256 -0.00034142989724018582 -0.0083065890981949293 -0.0063320548922581295 -0.0029098068813803346 -0.0016456309010471416 -0.01335002631433729 -0.0073076038792652042 -0.010380886658219846
leaf_weight=326.67734384599953 50.537822414071343 16.382171396930062 623.49773022808949 65.339006740137847 872.54145569960019 70.923123581696927 725.84827621211662 323.77559243013093 221.15614337973238 339.26427791013884 841.08056663013849 436.36657996188751 145.97525889466669 162.80220025634844 265.64800087584717 438.77801498624285 249.04319050899085 70.16127345228233 49.042865319479461 10.369741784105825 56.135105035220477 23.421442073598882 138.22418388387177 35.564175309898928 8.446544161613927
leaf_count=409035 19003 7615 12820 9896 12746 26936 61194 17734 8169 349168 31672 267812 70549 12342 213642 68803 122508 15945 34651 7817 24695 8984 127628 22566 8933
internal_value=-9.16312e-06 -0.0128121 0.00520238 0.0015747 0.00744594 -0.0087713 0.00322362 0.00615421 0.00358644 -0.0180503 0.00709975 -0.00667439 -0.00772332 0.00475617 -0.0127494 0.000505224 -0.00424157 -0.00523946 -0.013749 -0.0159081 -0.00178503 4.66672e-05 -0.012992 -0.00628951 -0.0210237
internal_weight=6567 1899.02 4667.98 1785.93 2882.05 1076.04 1392.77 2009.51 544.932 822.982 1464.58 709.4 582.342 888.65 366.637 504.117 393.164 319.204 314.691 487.858 127.058 73.9593 148.594 51.9463 335.124
internal_count=1972863 1571047 401816 318675 83141 668466 152235 70395 25903 902581 44492 389992 338361 73536 278474 78699 166440 138453 248293 484613 51631 27987 135445 30181 417968
is_linear=0
shrinkage=0.0268302


Tree=23
num_leaves=26
num_cat=0
split_feature=3 3 4 12 4 11 4 14 10 4 11 11 4 4 11 4 11 3 12 4 13 13 10 11 4
split_gain=558.509 50.1828 32.0059 24.3512 13.635 11.8704 11.3504 10.6018 9.86465 9.24275 6.42309 6.40528 5.45544 3.21278 2.99626 2.62924 2.35467 1.75081 1.5144 1.38829 0.771475 0.659567 0.442399 0.241477 0.0917307
threshold=0.35695868730545049 -0.28562048077583307 0.013261930085718633 -0.65928262472152699 3.262174248695374 -0.60777878761291493 -1.0000000180025095e-35 0.094865098595619216 0.11428378149867059 0.49190682172775274 0.74272906780242931 0.066888496279716506 -0.033601252362132066 -0.0057501576375216237 -1.3606403470039365 0.63871926069259655 0.022014919668436054 -0.54715487360954274 -0.52490732073783863 0.63871926069259655 0.0032026354456320409 0.0039937272667884835 0.029676874168217186 -0.48564244806766504 -0.040787206962704652
decision_type=2 2 2 2 2 2 2 2 2 2 2 2 2 2 2 2 2 2 2 2 2 2 2 2 2
left_child=1 11 3 8 7 18 16 10 21 -9 -4 23 17 14 -5 -8 -7 -13 20 -14 -3 -2 -20 -1 -25
right_child=2 5 4 13 -6 6 15 9 -10 -11 -12 12 19 -15 -16 -17 -18 -19 22 -21 -22 -23 -24 24 -26
leaf_value=-0.0089088964555887259 -0.00038939512053407985 0.00027790257472617031 0.003857240233842177 -0.0015071135068621621 0.0086566582378434301 -0.010513358939373633 -0.0076721469484970486 0.009490042532750681 0.0083464546628678141 0.0048698578374350189 -0.0029674434212595656 -0.022523702293238648 -0.014680641732079834 0.0016931837956932925 -0.0060785544580853586 -0.0016045748395980863 -0.015052095614954181 -0.018152260987839966 -0.0071607987467895437 -0.0029189237323702551 -0.0047260809852431194 0.0038075385132055111 -0.0042156839108824125 -0.013633751014023998 -0.0061766167232890279
leaf_weight=45.903750452466738 157.77906689300471 69.330227977785398 1283.1252812761995 173.24905577957361 1011.7764124375535 184.24886377666098 203.45029618786157 523.36463676231142 265.32281645185867 808.69249951162783 105.25224247500591 224.21759404337536 162.95779549597137 72.45807856400279 270.25896464501602 72.686959604336153 248.09234436960014 273.4082091426626 75.066587744253411 9.775936234265826 29.278253094948013 29.862527523888275 131.1299986707927 93.167486076054047 8.957954310348212
leaf_count=35304 47026 30390 111326 53033 13417 136753 137241 17257 15077 19686 8476 297831 166505 10219 92919 36938 205366 299480 43971 8409 13246 4142 70810 90093 7948
internal_value=-3.52853e-05 -0.0125943 0.00486111 0.000510562 0.00598855 -0.00856313 -0.0104702 0.00498819 0.00503967 0.00670156 0.00333305 -0.0175416 -0.0187053 -0.00346339 -0.00431856 -0.00611545 -0.0131944 -0.0202271 -0.00407174 -0.0140845 -0.00124826 0.000298743 -0.00537487 -0.012035 -0.0131702
internal_weight=6532.81 1831.67 4701.14 968.931 3732.21 1013.28 708.478 2720.43 452.964 1332.06 1388.38 818.389 670.36 515.966 443.508 276.137 432.341 497.626 304.805 172.734 98.6085 187.642 206.197 148.029 102.125
internal_count=1972863 1580285 392578 222416 170162 674715 516298 156745 66245 36943 119802 905570 772225 156171 145952 174179 342119 597311 158417 174914 43636 51168 114781 133345 98041
is_linear=0
shrinkage=0.0268302


Tree=24
num_leaves=26
num_cat=0
split_feature=3 3 16 4 6 11 4 10 4 10 3 11 14 4 18 8 4 11 4 3 4 10 4 11 11
split_gain=523.601 48.213 27.22 19.4692 12.5384 11.6217 11.0354 11.0186 10.2095 7.33394 7.03759 5.84914 4.99992 4.92514 4.83306 4.56847 2.60703 2.4816 2.15964 1.72537 1.21771 0.930867 0.487696 0.154051 0.102648
threshold=0.35695868730545049 -0.29366961121559138 1.3320065140724184 3.262174248695374 1.213745713233948 -0.60777878761291493 -0.0057501576375216237 0.041218614205718047 0.021035055629909042 0.11428378149867059 0.559678614139557 0.022014919668436054 0.17984651029109958 -0.033601252362132066 -0.030531415715813633 -0.32868377864360804 0.63871926069259655 0.32629853487014776 0.076223585754632964 -0.54715487360954274 0.63871926069259655 0.028417408466339115 0.18516816943883899 -1.6158192753791807 -0.74443146586418141
decision_type=2 2 2 2 2 2 2 2 2 2 2 2 2 2 2 2 2 2 2 2 2 2 2 2 2
left_child=1 11 3 7 8 21 17 18 15 14 -9 24 -10 19 -6 -4 -8 -7 -2 -13 -15 23 -23 -3 -1
right_child=2 5 4 -5 9 6 16 10 12 -11 -12 13 -14 20 -16 -17 -18 -19 -20 -21 -22 22 -24 -25 -26
leaf_value=-0.00748915287507417 -0.0064199428584755022 -0.0026725566837208182 0.0080458448688945829 0.0080895300911935294 0.005658729845984492 -0.011201807076322623 -0.0075505963983048341 -0.0023087884554443237 0.0096104451989521104 0.0066303050772543535 0.0028399164730819851 -0.021996387436122894 0.0065296951359589111 -0.014351890260236227 -0.00077214784525375473 0.00045231323514486894 -0.0015699184478758677 -0.015999624818446991 -0.0011461283733815587 -0.017678507415755555 -0.0029772735354023552 -0.0033337115653219317 0.0010265161247083772 -0.0070855022369862844 -0.012198667633799997
leaf_weight=23.730543385341662 133.24433548380057 13.711394426994955 79.611900026935473 352.80531099010113 115.0152759743105 279.66830098194168 214.42236298116768 223.51740198641164 1010.2528070700155 292.21065469273526 1230.6047033331215 223.09682041269298 667.94716895093734 158.0482036823214 292.940196182406 192.16789896992123 73.338713381073831 150.12661923471205 100.4314194386825 272.05576952543652 9.4159182577477605 209.5380987621902 17.804548096390135 65.341309200110118 105.51360443040721
leaf_count=17563 58509 6363 7729 6617 9078 217487 146535 50859 29196 10641 133231 301150 8081 163333 19834 34501 37300 128916 24302 302306 8093 106187 7894 39308 97850
internal_value=-2.14149e-05 -0.0122456 0.00471367 0.00237764 0.00650728 -0.00836208 -0.010232 0.0011718 0.00761516 0.00340124 0.00204351 -0.0172226 0.00839743 -0.0182856 0.00105437 0.00274054 -0.00606432 -0.0129651 -0.00420318 -0.0197273 -0.0137845 -0.00392603 -0.00296929 -0.00646538 -0.0115128
internal_weight=6506.56 1815.81 4690.75 2040.6 2650.15 1023.95 717.556 1687.8 1949.98 700.166 1454.12 791.861 1678.2 662.617 407.955 271.78 287.761 429.795 233.676 495.153 167.464 306.395 227.343 79.0527 129.244
internal_count=1972863 1580285 392578 273518 119060 689990 530238 266901 79507 39553 184090 890295 37277 774882 28912 42230 183835 346403 82811 603456 171426 159752 114081 45671 115413
is_linear=0
shrinkage=0.0268302


Tree=25
num_leaves=25
num_cat=0
split_feature=0 1 5 1 5 1 18 13 0 9 5 12 0 12 5 14 12 13 12 5 12 1 12 13
split_gain=504.251 48.1222 44.342 21.8176 12.0575 10.2963 8.01695 6.76545 6.54966 6.46025 4.61187 6.49925 4.01014 3.25853 3.6621 3.17213 2.85859 1.94187 1.28947 0.922289 0.96928 0.585571 0.505328 0.304834
threshold=0.34428082406520849 0.57767704129219066 1.3982045054435732 0.9098990559577943 6.0380990505218515 0.16540026664733889 -0.076200772076845155 0.0030672487337142233 -0.31724821031093592 0.28835147619247442 0.85670065879821788 -0.26932431757450098 -0.34415225684642786 -0.50872588157653797 1.0753492712974551 0.030113791115581993 -0.80141013860702504 0.0031292380299419169 -0.33266945183277125 0.91803038120269786 -0.41608804464340204 0.060995632782578475 -0.41608804464340204 0.0030807525618001823
decision_type=2 2 2 2 2 2 2 2 2 2 2 2 2 2 2 2 2 2 2 2 2 2 2 2
left_child=1 5 3 10 7 21 16 -4 19 -8 11 -2 22 23 -15 -9 -5 -12 -14 20 -3 -1 -7 -10
right_child=2 8 4 6 -6 12 9 15 13 -11 17 -13 18 14 -16 -17 -18 -19 -20 -21 -22 -23 -24 -25
leaf_value=-0.02401506624007806 -0.001814701300569356 -0.006154209318624356 0.0076156822514620052 0.010367167541991015 0.0093043119282066201 -0.0067695627355817004 -0.0037362347374149465 0.0019782104997017264 0.00045083081088897895 0.0030363396809482989 0.0029493326292853337 -0.0086719913360127718 -0.0068533734976615347 -0.0079633262281368217 -0.0025890075883608053 0.0051149215061196303 0.0051227314436677208 -0.0027473656272431683 -0.012537229979978184 -0.0058804206575383267 -0.013838037317912517 -0.018724941576764874 -0.016284958553380073 -0.0025242803805055215
leaf_weight=86.689731583433058 313.10274035322527 21.446632259352555 723.60247084964067 113.48913592981626 905.04217102073926 10.074024912416915 117.95825157349645 319.43579916584713 30.120345308019751 636.94342983677416 120.85654380454889 146.04589443426539 45.93904927267522 401.70794528291844 124.66414074964086 938.61836888846119 261.8326511258565 63.488470840796253 299.7415569084028 24.495787281944104 117.20282549088915 156.3589125279982 411.68011518911544 92.020002644419947
leaf_count=125113 125321 12184 13704 5365 12944 7876 13343 27775 11720 68515 13542 67952 34016 242777 59017 30893 21090 16569 276692 16177 91202 200105 440844 38127
internal_value=-2.90976e-06 -0.0119616 0.00467567 0.00133187 0.0067262 -0.0158718 0.00357582 0.00553715 -0.00705687 0.00196485 -0.00260239 -0.00403726 -0.0142335 -0.00579835 -0.00671478 0.0043266 0.00677357 0.000957871 -0.0118444 -0.0118821 -0.0127993 -0.0208415 -0.0161056 -0.00176678
internal_weight=6482.56 1822.14 4660.42 1773.72 2886.7 1010.48 1130.22 1981.66 811.658 754.902 643.494 459.149 767.435 648.512 526.372 1258.05 375.322 184.345 345.681 163.145 138.649 243.049 421.754 122.14
internal_count=1972863 1555850 417013 331697 85316 1084646 108313 72372 471204 81858 223384 193273 759428 351641 301794 58668 26455 30111 310708 119563 103386 325218 448720 49847
is_linear=0
shrinkage=0.0268302


Tree=26
num_leaves=26
num_cat=0
split_feature=0 1 1 12 1 0 16 7 0 16 0 3 8 12 12 0 12 12 12 13 0 1 12 2 13
split_gain=471.911 46.0082 34.8363 13.1821 9.96923 7.29872 8.9541 7.0802 6.1937 4.91698 3.82143 3.45445 2.48696 2.28359 1.98757 1.67908 1.66043 1.30375 1.17629 0.902135 0.660919 0.572513 0.50623 0.391566 0.346264
threshold=0.34428082406520849 0.57767704129219066 0.83977654576301586 -0.13569490611553189 0.16540026664733889 1.9489151239395144 4.6004300117492685 0.23589782416820529 -0.14592840522527692 1.3320065140724184 -0.34415225684642786 0.10112865269184114 0.12160210311412813 -0.52490732073783863 -0.35756036639213556 1.585787892341614 -0.04185239598155021 -0.33266945183277125 -0.39554622769355768 0.0037826525513082747 -0.35309998691081995 0.060995632782578475 -0.41608804464340204 0.019397849217057232 0.003139284905046225
decision_type=2 2 2 2 2 2 2 2 2 2 2 2 2 2 2 2 2 2 2 2 2 2 2 2 2
left_child=1 4 11 5 21 9 -7 -5 14 -4 22 18 16 -10 -3 -9 -13 -12 24 -15 -16 -1 -6 -20 -2
right_child=2 8 3 7 10 6 -8 15 13 -11 17 12 -14 19 20 -17 -18 -19 23 -21 -22 -23 -24 -25 -26
leaf_value=-0.023562651655724135 0.00075407040244412015 -0.0056549327226477894 0.00078935778633161492 0.0090264752391125379 -0.0065083865004009062 0.0065215784261608315 -0.00067414725098683163 0.0046982314322581518 -0.0010996924181434489 0.0042862931800694715 -0.0065576586644251833 -0.0011052924680505537 0.006194339586519047 -0.004970619836468927 -0.01294162529851752 0.0066793985628749702 -0.0082559019833849806 -0.012229714158578958 -0.0097465557717321214 -0.0082108236237229317 -0.0092009699788322078 -0.018321722441879625 -0.01589055058501029 -0.0056424298197365582 -0.0041964981060282885
leaf_weight=85.097047028257748 18.938400965727851 76.867173315708897 657.56737986687676 692.93134478399224 10.059783582630187 852.43514907234203 144.1571642771014 714.94368431066687 95.730713002358243 521.04951048314615 45.841883387402959 228.3850346540894 28.346239873081686 302.15202127847988 108.8838266445955 635.70460401839227 24.157029000043622 297.68039305956836 43.077129114590207 94.367486450532851 128.9558525542061 154.41898675662696 407.07852398804835 67.582438716838624 16.251747564892867
leaf_count=125113 9206 43956 97982 7117 7876 50595 8295 16946 37678 47347 34016 80815 4134 164593 84864 8403 5421 276692 28565 51264 88849 200105 440844 43937 8250
internal_value=-1.36044e-05 -0.0116386 0.00451144 0.00525055 -0.0154862 0.00378589 0.00547795 0.00680155 -0.0068337 0.00234391 -0.0138713 -0.00277563 -0.00100197 -0.00489919 -0.00978854 0.00564351 -0.00187434 -0.0115337 -0.00609591 -0.00579532 -0.01104 -0.0204126 -0.0157112 -0.00744403 -0.00155649
internal_weight=6452.66 1807.13 4645.53 4218.79 1000.18 2175.21 996.592 2043.58 806.957 1178.62 760.661 426.738 280.888 492.25 314.707 1350.65 252.542 343.522 145.85 396.52 237.84 239.516 417.138 110.66 35.1901
internal_count=1972863 1555850 417013 236685 1084646 204219 58890 32466 471204 145329 759428 180328 90370 253535 217669 25349 86236 310708 89958 215857 173713 325218 448720 72502 17456
is_linear=0
shrinkage=0.0268302


Tree=27
num_leaves=26
num_cat=0
split_feature=1 5 1 1 5 11 4 10 13 1 12 5 17 15 10 4 11 11 4 12 12 18 13 13 13
split_gain=432.241 45.2096 37.5677 18.4189 12.8201 9.2271 9.68733 7.07471 6.18032 5.25191 4.6685 4.53532 4.26384 4.15197 3.57401 2.54553 1.99935 1.97865 2.09672 1.89082 0.904997 0.831844 0.612693 0.434888 0.163485
threshold=0.77731746435165416 1.3982045054435732 0.41112293303012853 0.9098990559577943 6.0380990505218515 -0.5254298448562621 0.021035055629909042 0.11428378149867059 0.0030672487337142233 0.10846570506691934 -0.13905155658721921 0.85670065879821788 0.067565023899078383 -0.043522970750927918 0.034111991524696357 1.0197789669036867 0.34285473823547369 0.044898577034473426 0.1234307959675789 -0.24693251401185987 -0.52490732073783863 0.019454605877399448 0.0030807525618001823 0.0037826525513082747 0.040165908634662635
decision_type=2 2 2 2 2 2 2 2 2 2 2 2 2 2 2 2 2 2 2 2 2 2 2 2 2
left_child=2 3 9 14 8 20 16 10 21 24 -5 -8 -10 -9 19 -16 -7 -11 -19 -2 22 -3 -4 -22 -1
right_child=1 4 5 7 -6 6 11 13 12 17 -12 -13 -14 -15 15 -17 -18 18 -20 -21 23 -23 -24 -25 -26
leaf_value=-0.021909863458860084 -0.0031417033339555017 0.0079223126945105922 0.0020156456894452361 -0.00038686151724546283 0.0088166427745580995 -0.01056578367216825 -0.0086549701714449239 0.0074468988370734474 0.0049432600358628679 -0.011008080724611216 0.0045594009001772443 -0.00093220179926666578 0.0016350321418568299 0.0026225741071019275 -0.0025360402582619295 0.0027610718109518343 -0.014614218974666049 -0.016815975757656525 -0.0095010376929387796 -0.0099155866316440831 -0.0043428241237210606 0.005889217770777052 -0.0030718766680341955 -0.0076961406372276974 -0.01081923519120296
leaf_weight=142.30984163940411 61.781675869644459 366.81293919149903 20.750394210650484 493.03535413765258 922.29374057427958 284.8520137952064 128.02026253075564 270.47164851925118 822.74922281189538 96.251541690338854 187.29890604389948 97.415539828111378 435.63058394266409 255.95252664636973 452.41616123380481 73.60913864383474 189.26727002528014 378.65521349919209 44.668203518492646 65.829728574593901 155.5650664960649 367.02927885523241 59.356251137052823 45.652458792495963 9.4714988069799784
leaf_count=205926 30693 9310 9161 100909 14026 236731 96451 10088 36444 88678 8790 56315 29633 18327 150704 5447 173778 445018 44038 35185 92803 6593 27534 27674 12607
internal_value=1.38125e-05 0.00410769 -0.011804 0.000836083 0.00619238 -0.00841504 -0.0100696 0.00280053 0.00496658 -0.0167028 0.000980694 -0.00537843 0.00380615 0.00513053 -0.00278218 -0.00177879 -0.0122545 -0.0152265 -0.0161102 -0.00678178 -0.00423779 0.00693276 -0.00168975 -0.00520267 -0.0214193
internal_weight=6427.15 4774.91 1652.24 1860.4 2914.52 980.879 699.555 1206.76 1992.22 671.356 680.334 225.436 1258.38 526.424 653.637 526.025 474.119 519.575 423.323 127.611 281.324 733.842 80.1066 201.218 151.781
internal_count=1972863 456149 1516714 360143 96006 720447 563275 138114 81980 796267 109699 152766 66077 28415 222029 156151 410509 577734 489056 65878 157172 15903 36695 120477 218533
is_linear=0
shrinkage=0.0268302


Tree=28
num_leaves=26
num_cat=0
split_feature=1 5 1 10 5 11 5 1 18 3 2 1 17 11 5 10 11 17 5 5 11 2 18 11 11
split_gain=416.336 44.3751 38.3278 15.8026 12.109 9.17482 7.61102 7.08164 6.11911 5.32309 6.10002 5.14357 3.62453 2.10741 2.64835 2.05852 2.04882 1.39245 1.27457 0.986871 0.837761 0.443223 0.336931 0.282017 0.030898
threshold=0.79319766163826 1.3147788643836977 0.41112293303012853 0.045393144711852081 6.0380990505218515 -0.56622412800788868 0.8865739405155183 0.9098990559577943 -0.021149912849068638 1.5745367407798769 0.075507994741201415 0.084774799644947066 0.10397781059145929 -0.84767779707908619 0.71149173378944408 0.019664788618683818 -0.02512915804982185 -1.0000000180025095e-35 0.85670065879821788 0.40176244080066686 -1.1429612040519712 0.039205521345138557 0.0087848743423819559 -2.1749787330627437 -0.74443146586418141
decision_type=2 2 2 2 2 2 2 2 2 2 2 2 2 2 2 2 2 2 2 2 2 2 2 2 2
left_child=2 3 11 13 9 20 15 18 -9 12 -11 -1 -3 23 -15 -7 24 -8 -5 -18 22 -22 -4 -2 -13
right_child=1 4 5 7 -6 6 17 8 -10 10 -12 16 -14 14 -16 -17 19 -19 -20 -21 21 -23 -24 -25 -26
leaf_value=-0.021706254469651558 0 0.004738001397983322 -0.0033715404875000058 -0.0021682269553615556 0.0087893819153868399 -0.013955468645457226 -0.0087790745702570824 0.0053765743162918923 0.0012402823455447819 0.0091305044292652772 0.0046691523585295274 -0.0062427452867032879 0.0012243108793759999 -0.0093883285110023442 -0.0026811583478019369 -0.0098854568985035293 -0.016989295882398472 -0.0029572999853057862 0.0012518048412047474 -0.013410974320304594 -0.004594776272128542 -0.0097736237107597778 -0.00062984889194061026 -0.002694903500643163 -0.011064967191926643
leaf_weight=115.83643889129689 39.659595348752191 809.81691878996753 85.621441890919414 252.94716716866606 951.87622194488358 149.64558648606635 39.48418741736532 494.12163700511792 544.63165789850063 397.35817830481756 529.59260402618202 16.374767101703583 292.57658708684903 97.553926163407596 81.377392084103121 418.22812477809703 289.47726119958406 131.09530577915575 109.92799622248458 174.57421146304296 139.10685747288699 15.321725174959282 58.868600031280948 98.650592679688089 68.947650938087008
leaf_count=172712 13209 36415 41228 86163 13881 133377 32550 38177 65936 7337 15983 12402 23688 49477 19896 342584 352309 80257 13534 195396 85219 8461 27758 40775 64933
internal_value=0.000185545 0.00430415 -0.0111721 0.00086656 0.00628265 -0.00791125 -0.00952001 0.00209298 0.00321916 0.00509613 0.00660403 -0.0162055 0.00381341 -0.00451578 -0.00643333 -0.0110182 -0.0149503 -0.00442829 -0.0011208 -0.0157263 -0.00388103 -0.00527251 -0.00230764 -0.00194225 -0.0103757
internal_weight=6402.67 4700.09 1702.58 1718.87 2981.22 1037.37 738.453 1401.63 1038.75 2029.34 926.951 665.21 1102.39 317.242 178.931 567.874 549.374 170.579 362.875 464.051 298.919 154.429 144.49 138.31 85.3224
internal_count=1973657 424471 1549186 327167 97304 751434 588768 203810 104113 83423 23320 797752 60103 123357 69373 475961 625040 112807 99697 547705 162666 93680 68986 53984 77335
is_linear=0
shrinkage=0.0268302


Tree=29
num_leaves=26
num_cat=0
split_feature=0 1 5 3 5 11 4 13 1 13 3 0 3 5 11 4 11 4 11 12 5 4 12 13 4
split_gain=394.96 40.3362 37.3253 17.7875 10.8263 9.77695 8.93787 5.72579 5.68605 5.18294 4.61415 4.30778 4.22827 4.08973 3.49849 2.33877 2.2271 2.16571 1.68135 1.67246 1.36296 0.643728 0.508808 0.308859 0.209389
threshold=0.34428082406520849 0.45100320875644689 1.3147788643836977 0.69670072197914135 6.0380990505218515 -0.56622412800788868 -0.010747824329882858 0.0033470933558419351 0.10034726187586786 0.0040656807832419881 1.5745367407798769 1.3234502077102663 3.1101851463317876 0.85670065879821788 -0.74443146586418141 1.2362985610961916 0.022014919668436054 0.030077882111072544 0.27621382474899298 -0.52490732073783863 0.7769230604171754 -0.025136215612292286 -0.56226629018783558 0.040165908634662635 -0.39041624963283533
decision_type=2 2 2 2 2 2 2 2 2 2 2 2 2 2 2 2 2 2 2 2 2 2 2 2 2
left_child=1 8 3 14 7 19 18 10 23 -9 -4 20 -13 -8 22 -16 -10 -18 -7 24 -5 -21 -2 -1 -3
right_child=2 5 4 11 -6 6 13 9 16 -11 -12 12 -14 -15 15 -17 17 -19 -20 21 -22 -23 -24 -25 -26
leaf_value=-0.021266562374832661 0.0004865323901859122 0.00065846972575474034 0.0043019587366899753 -0.00090094852496279984 0.0084592475133587336 -0.010082063172830445 -0.0086485905698288814 2.9830019820469466e-06 -0.010153125964836723 0.0061892063647974033 0.0072673274742322486 0.0048290376481671914 6.3935463502836241e-05 -0.0023871603297214504 -0.0066283185301138645 0.0027181276975367244 -0.015955269527756603 -0.010183753402104733 -0.014250391022547822 -0.0055924976670188326 0.0022665857997453786 -0.0016341221249485689 -0.0021664192759477843 -0.0093594995491026456 -0.0016862454701421349
leaf_weight=127.01633966129111 91.916610326183218 34.221495153073192 817.20844219225546 228.73394622341584 969.43432620342355 238.99608801804152 152.64351523891764 277.9509626923973 109.15213906569352 148.77207595402433 746.58635123153181 652.83641797550627 170.56451777619804 154.50018071970862 211.58292711714785 19.320289800321916 393.56635495974797 77.17786858292402 150.14576714788564 187.36505391401442 166.32130622906516 41.247657019073813 110.41701823776839 8.1363140712319346 93.757612915071149
leaf_count=191383 34390 14397 31171 57381 13020 191891 108708 28149 100537 4597 13734 53990 13722 80276 105276 2309 475811 78829 137300 108356 12487 19558 46583 11096 38706
internal_value=0.00018741 -0.0105856 0.00432149 0.00108532 0.00612376 -0.00721256 -0.00906492 0.00497573 -0.0155067 0.00219061 0.00572891 0.00274642 0.0038494 -0.00555333 -0.00356755 -0.0058109 -0.0141984 -0.0150728 -0.0117766 -0.00354932 0.000429042 -0.00491829 -0.000951813 -0.0207508 -0.00103077
internal_weight=6379.57 1767.93 4611.65 1651.69 2959.95 1052.88 696.286 1990.52 715.049 426.723 1563.79 1218.46 823.401 307.144 433.237 230.903 579.896 470.744 389.142 356.592 395.055 228.613 202.334 135.153 127.979
internal_count=1973657 1556848 416809 326138 90671 699192 518175 77651 857656 32746 44905 137580 67712 188984 188558 107585 655177 554640 329191 181017 69868 127914 80973 202479 53103
is_linear=0
shrinkage=0.0268302


Tree=30
num_leaves=26
num_cat=0
split_feature=1 1 16 4 6 14 2 12 4 12 4 14 1 18 13 2 12 13 4 4 2 13 12 4 13
split_gain=367.586 35.4798 21.9351 16.4572 10.1795 8.46261 10.0624 6.97361 8.29612 6.70066 7.73147 5.472 4.90523 4.04552 5.85395 2.73132 2.34602 1.99429 1.59338 1.51294 0.868144 0.772207 0.588466 0.28874 0.0143441
threshold=0.79319766163826 0.41112293303012853 1.3320065140724184 3.262174248695374 1.213745713233948 0.086937405169010176 0.070332355797290816 -0.33266945183277125 0.021035055629909042 -0.7220480442047118 -0.010747824329882858 0.050519859418272979 0.084774799644947066 -0.053483905270695679 0.0033895183587446813 0.062623523175716414 -0.14258712530136106 0.0032026354456320409 0.16300386190414431 1.5749628543853762 0.039205521345138557 0.15224570035934451 -0.52490732073783863 0.56166353821754467 0.01535563124343753
decision_type=2 2 2 2 2 2 2 2 2 2 2 2 2 2 2 2 2 2 2 2 2 2 2 2 2
left_child=1 12 3 9 5 11 -7 17 16 15 -11 -4 24 -6 -15 -2 -9 22 21 -10 -19 -14 -3 -20 -1
right_child=2 7 4 -5 13 6 -8 8 19 10 -12 -13 18 14 -16 -17 -18 20 23 -21 -22 -23 -24 -25 -26
leaf_value=-0.021433458832095853 0.0014108771430089279 -3.0199470408838208e-05 0.0053662792322149815 0.0069418364033175251 0.005972670844364771 0.010632422101971913 0.0058117791492848809 -0.0088729463541480612 -0.0052318595109611381 -0.0030791429954734047 0.0013410327958911672 -0.00078752986570003296 -0.015019327659799754 -0.00032524054666505591 0.0060981174336494255 0.0080310621075333575 -0.012914508483033792 -0.0048654171097947006 -0.0092319628560625245 0.0023519576546055564 -0.010820796827118796 -0.0089070731487429517 -0.0032166629837328646 -0.0022206454549853292 -0.010088048225656841
leaf_weight=104.42566273469583 76.523865771989222 64.997603165813416 505.42656595499648 385.77749114355538 212.77692439480597 566.95172215274215 731.58790659634178 269.76388685859274 219.93583832867625 384.73041659386854 1075.1789171238179 128.85999975227605 468.08019653356314 350.13134033985261 141.14758415854885 116.10733171222091 229.05464160148858 68.452970446780455 30.964909349226218 18.666024533409654 29.846216337828082 31.286788228077057 127.34266489398487 8.6342238817815069 7.650872615617117
leaf_count=161772 22792 29153 49818 6997 10494 11626 12144 220664 151031 143117 121631 6232 551417 22652 6506 10462 202091 40829 31762 7816 17604 34089 82246 7772 10940
internal_value=0.000197081 -0.0105614 0.00406518 0.00196884 0.00568103 0.00668889 0.00793492 -0.00742223 -0.00881439 0.000797401 0.000170574 0.0041121 -0.0154676 0.00289578 0.00153338 0.00546919 -0.0107886 -0.00383461 -0.0142407 -0.00460608 -0.00692307 -0.0146877 -0.0021721 -0.00800272 -0.0209169
internal_weight=6354.3 1679.1 4675.2 2038.32 2636.88 1932.83 1298.54 1028.06 737.42 1652.54 1459.91 634.287 651.043 704.056 491.279 192.631 498.819 290.639 538.966 238.602 98.2992 499.367 192.34 39.5991 112.077
internal_count=1973657 1549186 424471 304999 119472 79820 23770 751434 581602 298002 264748 56050 797752 39652 29158 33254 422755 169832 625040 158847 58433 585506 111399 39534 172712
is_linear=0
shrinkage=0.0268302


Tree=31
num_leaves=25
num_cat=0
split_feature=1 1 1 4 14 6 17 11 4 17 4 10 1 4 4 11 11 4 11 11 12 4 18 11
split_gain=352.32 34.0009 23.7561 17.6938 11.3357 8.1675 13.7838 7.9665 8.84228 7.07182 5.76841 5.25882 4.74172 4.19293 2.9699 2.72714 1.96637 1.90091 1.67896 1.67584 1.11682 0.431284 0.306027 0.00961819
threshold=0.79319766163826 0.41112293303012853 0.90225356817245495 2.105094432830811 0.086937405169010176 1.213745713233948 0.92826437950134288 -0.40895293653011316 0.013261930085718633 0.66806170344352733 -0.0057501576375216237 0.11428378149867059 0.084774799644947066 0.23731894791126254 0.14267343282699588 0.74272906780242931 -0.10103792697191237 0.16300386190414431 0.29259498417377477 0.61253094673156749 -0.52490732073783863 -0.022288693115115162 0.011352434754371645 -0.74443146586418141
decision_type=2 2 2 2 2 2 2 2 2 2 2 2 2 2 2 2 2 2 2 2 2 2 2 2
left_child=1 12 3 13 9 6 -6 20 18 10 -4 -11 -1 14 -2 -15 23 -18 -9 -10 22 -22 -3 -14
right_child=2 7 4 -5 5 -7 -8 8 19 11 -12 -13 16 15 -16 -17 17 -19 -20 -21 21 -23 -24 -25
leaf_value=-0.020608660117444819 -0.0023233144723130428 -0.0025019915614054623 -0.0022151851383218229 0.0068197562552526616 0.0091728628108202308 0.003110272771116666 0.0033032139446962103 -0.0094754833401961645 -0.0024127790663656988 0.0030110504130712559 0.0029443352531362097 0.0072261856656740528 -0.0054818141389356909 0.0024361841016575601 -0.0097675179870655819 -0.0033801081867948306 -0.015245512484312489 -0.0079675581285285207 -0.013306288411735007 -0.0069858445089890859 -0.0053063955952113153 -0.0017700466474952574 0.00054537161828082943 -0.0098166415001879632
leaf_weight=110.28857655257525 461.68780629028606 57.352658188208807 195.08982586623824 237.77809871546924 1003.8565956115272 404.5834822965553 411.84953214581765 233.83370267706687 118.89366655057893 416.50939087512961 735.60030915235438 455.95211573503911 16.028187793731377 231.39102710487168 40.609168543507622 74.556026369842584 424.12998058699941 38.729178635760945 198.55476362400441 124.26374654527717 219.74399819145128 35.099185290620881 35.375091389949375 54.988827943165234
leaf_count=172712 158117 26327 59037 7631 17436 13395 10154 199277 77319 46662 43401 14324 12402 37101 8882 8331 522172 38923 188181 86922 138361 19411 15636 51543
internal_value=0.000207229 -0.0103708 0.00398836 0.000421504 0.0050161 0.00651321 0.00747628 -0.00729542 -0.00899838 0.00349613 0.00185601 0.00523174 -0.0152048 -0.00147083 -0.00297564 0.000991842 -0.0139951 -0.0146883 -0.0113063 -0.00480975 -0.00393636 -0.0048544 -0.00131663 -0.0090976
internal_weight=6336.74 1667.28 4669.46 1046.02 3623.44 1820.29 1415.71 1023.12 675.546 1803.15 930.69 872.462 644.165 808.244 502.297 305.947 533.876 462.859 432.388 243.157 347.571 254.843 92.7277 71.017
internal_count=1973657 1549186 424471 220062 204409 40985 27590 751434 551699 163424 102438 60986 797752 212431 166999 45432 625040 561095 387458 164241 199735 157772 41963 63945
is_linear=0
shrinkage=0.0268302


Tree=32
num_leaves=26
num_cat=0
split_feature=1 1 1 14 4 6 17 4 17 11 4 1 9 6 11 11 4 4 11 11 10 13 4 18 13
split_gain=327.75 31.3651 23.0274 12.2387 9.45618 8.47513 13.3783 7.64097 8.10325 7.44832 8.22656 4.63311 4.11858 4.01823 2.53113 1.91838 1.88884 1.51528 1.27182 1.12858 1.11116 0.723923 0.677217 0.313399 0.0437519
